{"learner":{"attributes":{"scikit_learn":"{\"_estimator_type\": \"classifier\"}"},"feature_names":[],"feature_types":[],"gradient_booster":{"model":{"cats":{"enc":[],"feature_segments":[],"sorted_idx":[]},"gbtree_model_param":{"num_parallel_tree":"1","num_trees":"100"},"iteration_indptr":[0,1,2,3,4,5,6,7,8,9,10,11,12,13,14,15,16,17,18,19,20,21,22,23,24,25,26,27,28,29,30,31,32,33,34,35,36,37,38,39,40,41,42,43,44,45,46,47,48,49,50,51,52,53,54,55,56,57,58,59,60,61,62,63,64,65,66,67,68,69,70,71,72,73,74,75,76,77,78,79,80,81,82,83,84,85,86,87,88,89,90,91,92,93,94,95,96,97,98,99,100],"tree_info":[0,0,0,0,0,0,0,0,0,0,0,0,0,0,0,0,0,0,0,0,0,0,0,0,0,0,0,0,0,0,0,0,0,0,0,0,0,0,0,0,0,0,0,0,0,0,0,0,0,0,0,0,0,0,0,0,0,0,0,0,0,0,0,0,0,0,0,0,0,0,0,0,0,0,0,0,0,0,0,0,0,0,0,0,0,0,0,0,0,0,0,0,0,0,0,0,0,0,0,0],"trees":[{"base_weights":[3.580591E-8,-3.5977513E-1,2.9792672E-1,-5.684147E-1,-2.071123E-1,1.4170413E-1,1.3995067E0,2.023328E-1,-5.8973646E-1,-2.843622E-1,1.4701621E-1,2.9309146E-2,7.189934E-1,8.718442E-1,1.7774E0,-4.8991658E-2,1.4900129E-1,-1.8139069E-1,5.2317105E-2,1.6127147E-1,-9.151992E-2,3.7271592E-1,2.2108497E-2,-1.6790166E-4,3.6965245E-1,2.8394097E-1,-4.539027E-2,2.251152E-1,4.4024318E-1,4.270939E-1,6.6429305E-1],"categories":[],"categories_nodes":[],"categories_segments":[],"categories_sizes":[],"default_left":[0,0,0,0,0,0,0,0,0,0,0,0,0,0,0,0,0,0,0,0,0,0,0,0,0,0,0,0,0,0,0],"id":0,"left_children":[1,3,5,7,9,11,13,15,17,19,21,23,25,27,29,-1,-1,-1,-1,-1,-1,-1,-1,-1,-1,-1,-1,-1,-1,-1,-1],"loss_changes":[1.1194533E4,1.5067524E3,9.831474E3,3.2861523E2,7.474457E2,3.2465222E3,1.4133232E3,5.8071198E1,2.2155615E2,3.8184607E2,3.9290173E2,1.5047695E3,1.6144175E3,2.1326001E2,6.357363E2,0E0,0E0,0E0,0E0,0E0,0E0,0E0,0E0,0E0,0E0,0E0,0E0,0E0,0E0,0E0,0E0],"parents":[2147483647,0,0,1,1,2,2,3,3,4,4,5,5,6,6,7,7,8,8,9,9,10,10,11,11,12,12,13,13,14,14],"right_children":[2,4,6,8,10,12,14,16,18,20,22,24,26,28,30,-1,-1,-1,-1,-1,-1,-1,-1,-1,-1,-1,-1,-1,-1,-1,-1],"split_conditions":[1.3E1,9E0,1E0,4E0,6E-2,1.5E1,1E0,5E0,2E0,1.6E1,4E1,1E-1,1.6E1,7.1E-1,2.51E1,-4.8991658E-2,1.4900129E-1,-1.8139069E-1,5.2317105E-2,1.6127147E-1,-9.151992E-2,3.7271592E-1,2.2108497E-2,-1.6790166E-4,3.6965245E-1,2.8394097E-1,-4.539027E-2,2.251152E-1,4.4024318E-1,4.270939E-1,6.6429305E-1],"split_indices":[6,6,10,6,12,4,0,4,19,14,13,18,4,12,9,0,0,0,0,0,0,0,0,0,0,0,0,0,0,0,0],"split_type":[0,0,0,0,0,0,0,0,0,0,0,0,0,0,0,0,0,0,0,0,0,0,0,0,0,0,0,0,0,0,0],"sum_hessian":[1.0443764E5,4.7308215E4,5.712943E4,1.9988213E4,2.732E4,5.003478E4,7.094647E3,5.3783466E2,1.9450379E4,2.2427783E4,4.892218E3,4.18817E4,8.153081E3,2.9620146E3,4.1326323E3,2.4006354E2,2.9777112E2,1.9078588E4,3.717907E2,5.5045337E2,2.1877328E4,3.0592712E2,4.586291E3,4.0867895E4,1.0138068E3,6.463557E3,1.689524E3,2.4621902E3,4.9982462E2,2.2859897E3,1.8466426E3],"tree_param":{"num_deleted":"0","num_feature":"20","num_nodes":"31","size_leaf_vector":"1"}},{"base_weights":[-8.836553E-3,-2.4820213E-1,2.1663648E-1,-4.0526426E-1,-9.761793E-2,1.1572489E-1,7.889582E-1,-4.2198107E-1,3.5897002E-1,-1.593167E-1,2.1333823E-1,3.9868485E-2,4.586288E-1,4.2101657E-1,9.2875874E-1,-2.0024545E-1,-1.1615903E-1,3.9348643E-2,2.191976E-1,-1.4299093E-1,-3.1673554E-2,-4.92778E-2,1.0066101E-1,-4.2010117E-2,6.2249694E-2,-9.127309E-2,1.7607394E-1,-1.1752557E-1,1.7847523E-1,3.2690899E-3,2.9760072E-1],"categories":[],"categories_nodes":[],"categories_segments":[],"categories_sizes":[],"default_left":[0,0,0,0,0,0,0,0,0,0,0,0,0,0,0,0,0,0,0,0,0,0,0,0,0,0,0,0,0,0,0],"id":1,"left_children":[1,3,5,7,9,11,13,15,17,19,21,23,25,27,29,-1,-1,-1,-1,-1,-1,-1,-1,-1,-1,-1,-1,-1,-1,-1,-1],"loss_changes":[5.637728E3,1.1983303E3,3.1065337E3,3.1699365E2,4.963493E2,1.189464E3,4.1433496E2,2.0700098E2,4.4900993E1,3.680498E2,1.9770193E2,1.129311E3,8.1084204E2,3.1425897E2,3.391006E2,0E0,0E0,0E0,0E0,0E0,0E0,0E0,0E0,0E0,0E0,0E0,0E0,0E0,0E0,0E0,0E0],"parents":[2147483647,0,0,1,1,2,2,3,3,4,4,5,5,6,6,7,7,8,8,9,9,10,10,11,11,12,12,13,13,14,14],"right_children":[2,4,6,8,10,12,14,16,18,20,22,24,26,28,30,-1,-1,-1,-1,-1,-1,-1,-1,-1,-1,-1,-1,-1,-1,-1,-1],"split_conditions":[1.4E1,1E1,1E0,2E-1,9E-2,1.5E1,1E0,3.6E1,2E0,1E0,1E0,7.17E2,3.9E1,8E1,3.3E1,-2.0024545E-1,-1.1615903E-1,3.9348643E-2,2.191976E-1,-1.4299093E-1,-3.1673554E-2,-4.92778E-2,1.0066101E-1,-4.2010117E-2,6.2249694E-2,-9.127309E-2,1.7607394E-1,-1.1752557E-1,1.7847523E-1,3.2690899E-3,2.9760072E-1],"split_indices":[6,6,10,18,12,4,8,17,19,8,8,15,17,17,17,0,0,0,0,0,0,0,0,0,0,0,0,0,0,0,0],"split_type":[0,0,0,0,0,0,0,0,0,0,0,0,0,0,0,0,0,0,0,0,0,0,0,0,0,0,0,0,0,0,0],"sum_hessian":[1.04457484E5,5.0667742E4,5.3789742E4,2.4799604E4,2.5868139E4,4.5728168E4,8.061574E3,2.4269188E4,5.3041516E2,2.1585676E4,4.2824624E3,3.7445645E4,8.282521E3,2.2207593E3,5.840815E3,3.0095989E3,2.125959E4,3.296969E2,2.0071829E2,3.1249902E3,1.8460686E4,1.0469636E3,3.235499E3,1.8061781E4,1.9383865E4,1.192093E3,7.0904287E3,3.911888E2,1.8295704E3,3.7658395E2,5.464231E3],"tree_param":{"num_deleted":"0","num_feature":"20","num_nodes":"31","size_leaf_vector":"1"}},{"base_weights":[-9.95861E-3,-2.4183618E-1,1.1399028E-1,-3.681474E-1,-1.3595083E-1,3.4005683E-2,4.3839625E-1,2.6913068E-1,-3.888433E-1,3.971289E-1,-1.630556E-1,-1.21918015E-1,1.7530058E-1,2.2782344E-1,6.1830527E-1,1.15584195E-1,-9.268233E-2,-1.6636005E-1,-9.788429E-2,3.6067528E-1,8.760251E-2,-5.5780698E-2,1.3492094E-1,-7.59804E-2,1.1491389E-3,-3.8043253E-2,9.306125E-2,2.4519127E-2,1.6052279E-1,7.554696E-2,2.2886182E-1],"categories":[],"categories_nodes":[],"categories_segments":[],"categories_sizes":[],"default_left":[0,0,0,0,0,0,0,0,0,0,0,0,0,0,0,0,0,0,0,0,0,0,0,0,0,0,0,0,0,0,0],"id":2,"left_children":[1,3,5,7,9,11,13,15,17,19,21,23,25,27,29,-1,-1,-1,-1,-1,-1,-1,-1,-1,-1,-1,-1,-1,-1,-1,-1],"loss_changes":[2.980699E3,4.831184E2,1.7535938E3,2.1737402E2,2.840397E2,1.1944845E3,5.0626147E2,3.4949276E1,1.6521558E2,8.0156906E1,2.6231805E2,4.2572412E2,1.1592627E3,2.7647772E2,3.816902E2,0E0,0E0,0E0,0E0,0E0,0E0,0E0,0E0,0E0,0E0,0E0,0E0,0E0,0E0,0E0,0E0],"parents":[2147483647,0,0,1,1,2,2,3,3,4,4,5,5,6,6,7,7,8,8,9,9,10,10,11,11,12,12,13,13,14,14],"right_children":[2,4,6,8,10,12,14,16,18,20,22,24,26,28,30,-1,-1,-1,-1,-1,-1,-1,-1,-1,-1,-1,-1,-1,-1,-1,-1],"split_conditions":[1.2E1,9E0,6E-2,4E0,2.1E1,2E0,2E0,1.3E1,7E0,2E0,7.6E-1,7.31E2,3E0,2.59E1,1E0,1.15584195E-1,-9.268233E-2,-1.6636005E-1,-9.788429E-2,3.6067528E-1,8.760251E-2,-5.5780698E-2,1.3492094E-1,-7.59804E-2,1.1491389E-3,-3.8043253E-2,9.306125E-2,2.4519127E-2,1.6052279E-1,7.554696E-2,2.2886182E-1],"split_indices":[6,6,12,6,14,2,2,4,6,14,12,15,5,9,8,0,0,0,0,0,0,0,0,0,0,0,0,0,0,0,0],"split_type":[0,0,0,0,0,0,0,0,0,0,0,0,0,0,0,0,0,0,0,0,0,0,0,0,0,0,0,0,0,0,0],"sum_hessian":[1.0370711E5,3.612509E4,6.7582016E4,1.6472486E4,1.9652605E4,5.421583E4,1.3366192E4,5.1774713E2,1.5954739E4,9.502391E2,1.8702365E4,2.5773754E4,2.8442072E4,6.15933E3,7.2068623E3,4.314008E2,8.6346344E1,4.3709214E3,1.1583818E4,1.0853428E2,8.417048E2,1.8029875E4,6.724915E2,1.2605609E4,1.31681455E4,8.779895E3,1.9662178E4,4.175311E3,1.9840189E3,2.039477E3,5.1673853E3],"tree_param":{"num_deleted":"0","num_feature":"20","num_nodes":"31","size_leaf_vector":"1"}},{"base_weights":[-9.53824E-3,-1.40156E-1,1.2913807E-1,-5.874515E-1,-1.1041069E-1,-1.3360967E-1,1.9677044E-1,7.485144E-1,-6.0691243E-1,-2.6208767E-1,-4.959613E-2,-1.9382669E-1,1.3046628E-1,7.801836E-2,3.9820105E-1,-1.0519377E-1,3.7410647E-1,-2.2550285E-1,-1.3995124E-1,1.761012E-1,-8.2122706E-2,-9.095024E-2,8.715745E-5,-1.3083231E-1,-4.0249385E-2,6.233929E-2,-1.5595299E-1,1.3816329E-3,1.090431E-1,-2.2101177E-1,1.256678E-1],"categories":[],"categories_nodes":[],"categories_segments":[],"categories_sizes":[],"default_left":[0,0,0,0,0,0,0,0,0,0,0,0,0,0,0,0,0,0,0,0,0,0,0,0,0,0,0,0,0,0,0],"id":3,"left_children":[1,3,5,7,9,11,13,15,17,19,21,23,25,27,29,-1,-1,-1,-1,-1,-1,-1,-1,-1,-1,-1,-1,-1,-1,-1,-1],"loss_changes":[1.8655988E3,7.056057E2,8.87761E2,8.643103E1,4.5872632E2,1.6265646E2,9.503235E2,2.6698689E1,6.591162E1,1.410091E2,4.4907245E2,1.2033014E2,9.564022E1,5.238205E2,3.463352E2,0E0,0E0,0E0,0E0,0E0,0E0,0E0,0E0,0E0,0E0,0E0,0E0,0E0,0E0,0E0,0E0],"parents":[2147483647,0,0,1,1,2,2,3,3,4,4,5,5,6,6,7,7,8,8,9,9,10,10,11,11,12,12,13,13,14,14],"right_children":[2,4,6,8,10,12,14,16,18,20,22,24,26,28,30,-1,-1,-1,-1,-1,-1,-1,-1,-1,-1,-1,-1,-1,-1,-1,-1],"split_conditions":[1.5E1,3.1E1,1E0,3.4E1,9E0,1.5E1,6.1E1,3E0,2.5E1,1E1,1E0,1E0,1.7E1,2.59E1,2.5E1,-1.0519377E-1,3.7410647E-1,-2.2550285E-1,-1.3995124E-1,1.761012E-1,-8.2122706E-2,-9.095024E-2,8.715745E-5,-1.3083231E-1,-4.0249385E-2,6.233929E-2,-1.5595299E-1,1.3816329E-3,1.090431E-1,-2.2101177E-1,1.256678E-1],"split_indices":[6,17,2,13,6,4,14,7,17,14,8,8,4,9,17,0,0,0,0,0,0,0,0,0,0,0,0,0,0,0,0],"split_type":[0,0,0,0,0,0,0,0,0,0,0,0,0,0,0,0,0,0,0,0,0,0,0,0,0,0,0,0,0,0,0],"sum_hessian":[1.0299243E5,5.303722E4,4.9955215E4,3.3059036E3,4.9731316E4,1.0226173E4,3.972904E4,4.6927624E1,3.2589758E3,1.4232033E4,3.549928E4,8.3275205E3,1.898652E3,2.4994867E4,1.4734174E4,1.4734992E1,3.2192635E1,1.6024579E3,1.6565181E3,1.9203589E2,1.4039997E4,5.835032E3,2.966425E4,1.6442196E3,6.6833013E3,1.6974775E3,2.0117453E2,1.9882576E4,5.1122915E3,2.6320328E2,1.447097E4],"tree_param":{"num_deleted":"0","num_feature":"20","num_nodes":"31","size_leaf_vector":"1"}},{"base_weights":[-8.457747E-3,-4.6017107E-1,1.643443E-2,-1.4990692E-1,-5.807233E-1,-2.4918891E-2,2.8728518E-1,-9.299734E-1,-2.2999814E-2,-7.702785E-1,-4.5831937E-1,-2.4480963E-1,1.6309084E-2,2.596535E-1,1.0492098E0,1.4599825E-1,-2.8402406E-1,-1.7504631E-1,6.470516E-2,-2.3943065E-1,-1.5620671E-1,-1.4720573E-1,1.1042992E-1,-2.0127536E-1,-5.49445E-2,-4.8088457E-2,2.4825707E-2,3.9044067E-2,1.2657276E-1,7.0871845E-2,3.769086E-1],"categories":[],"categories_nodes":[],"categories_segments":[],"categories_sizes":[],"default_left":[0,0,0,0,0,0,0,0,0,0,0,0,0,0,0,0,0,0,0,0,0,0,0,0,0,0,0,0,0,0,0],"id":4,"left_children":[1,3,5,7,9,11,13,15,17,19,21,23,25,27,29,-1,-1,-1,-1,-1,-1,-1,-1,-1,-1,-1,-1,-1,-1,-1,-1],"loss_changes":[1.1506978E3,1.9982812E2,1.0863859E3,1.4817279E2,8.895093E1,7.6284845E2,2.7020703E2,5.437317E0,1.7250517E2,1.0061829E1,6.280313E1,3.489577E2,8.3151483E2,2.6049005E2,7.536658E1,0E0,0E0,0E0,0E0,0E0,0E0,0E0,0E0,0E0,0E0,0E0,0E0,0E0,0E0,0E0,0E0],"parents":[2147483647,0,0,1,1,2,2,3,3,4,4,5,5,6,6,7,7,8,8,9,9,10,10,11,11,12,12,13,13,14,14],"right_children":[2,4,6,8,10,12,14,16,18,20,22,24,26,28,30,-1,-1,-1,-1,-1,-1,-1,-1,-1,-1,-1,-1,-1,-1,-1,-1],"split_conditions":[3.1E1,4E0,1.8E-1,3E0,2.4E1,1E0,9E0,1E0,1.9E1,1.432E1,6.7E-1,7.6E1,1.1E1,1.6E1,1E1,1.4599825E-1,-2.8402406E-1,-1.7504631E-1,6.470516E-2,-2.3943065E-1,-1.5620671E-1,-1.4720573E-1,1.1042992E-1,-2.0127536E-1,-5.49445E-2,-4.8088457E-2,2.4825707E-2,3.9044067E-2,1.2657276E-1,7.0871845E-2,3.769086E-1],"split_indices":[17,8,12,8,17,8,8,2,17,16,12,17,6,6,6,0,0,0,0,0,0,0,0,0,0,0,0,0,0,0,0],"split_type":[0,0,0,0,0,0,0,0,0,0,0,0,0,0,0,0,0,0,0,0,0,0,0,0,0,0,0,0,0,0,0],"sum_hessian":[1.0233599E5,5.343896E3,9.699209E4,1.4959716E3,3.8479246E3,8.4145695E4,1.2846402E4,2.0843643E2,1.2875352E3,1.5077397E3,2.3401848E3,1.3284965E4,7.086073E4,1.2398118E4,4.482846E2,2.1112614E0,2.0632518E2,3.841088E2,9.0342633E2,1.3545411E3,1.5319862E2,2.2523774E3,8.780725E1,1.6781676E3,1.1606798E4,1.9371236E4,5.1489492E4,6.895879E3,5.5022393E3,9.1466E1,3.568186E2],"tree_param":{"num_deleted":"0","num_feature":"20","num_nodes":"31","size_leaf_vector":"1"}},{"base_weights":[-7.3274053E-3,-1.8721499E-1,3.9078306E-2,-1.9761206E-1,5.812435E-1,-5.243841E-2,1.4316691E-1,-2.0676339E-1,7.03927E-1,7.223149E-2,8.143968E-1,-7.1096234E-2,5.594153E-1,7.886988E-2,3.3757755E-1,-8.9902654E-2,-4.1330356E-2,4.105628E-2,2.9640916E-1,-8.030737E-2,4.416022E-1,3.1907386E-1,-8.177022E-2,-2.5953399E-2,1.432763E-1,3.5992348E-1,1.0267258E-1,-9.841231E-2,3.210299E-2,7.331525E-2,2.2718845E-1],"categories":[],"categories_nodes":[],"categories_segments":[],"categories_sizes":[],"default_left":[0,0,0,0,0,0,0,0,0,0,0,0,0,0,0,0,0,0,0,0,0,0,0,0,0,0,0,0,0,0,0],"id":5,"left_children":[1,3,5,7,9,11,13,15,17,19,21,23,25,27,29,-1,-1,-1,-1,-1,-1,-1,-1,-1,-1,-1,-1,-1,-1,-1,-1],"loss_changes":[8.49668E2,1.6688092E2,7.7075214E2,1.7005756E2,3.303869E1,4.9156448E2,4.73169E2,1.3065973E2,3.3242775E1,4.2603603E1,5.207023E1,3.5344327E2,1.7678513E2,3.2578558E2,3.6780774E2,0E0,0E0,0E0,0E0,0E0,0E0,0E0,0E0,0E0,0E0,0E0,0E0,0E0,0E0,0E0,0E0],"parents":[2147483647,0,0,1,1,2,2,3,3,4,4,5,5,6,6,7,7,8,8,9,9,10,10,11,11,12,12,13,13,14,14],"right_children":[2,4,6,8,10,12,14,16,18,20,22,24,26,28,30,-1,-1,-1,-1,-1,-1,-1,-1,-1,-1,-1,-1,-1,-1,-1,-1],"split_conditions":[1E0,1.857E1,6E0,8E-1,4.9E1,7E-1,1.9E1,3E0,7.83E0,5.6E1,7.6E1,1.03E0,2.9E1,3.3E1,1.5E1,-8.9902654E-2,-4.1330356E-2,4.105628E-2,2.9640916E-1,-8.030737E-2,4.416022E-1,3.1907386E-1,-8.177022E-2,-2.5953399E-2,1.432763E-1,3.5992348E-1,1.0267258E-1,-9.841231E-2,3.210299E-2,7.331525E-2,2.2718845E-1],"split_indices":[2,16,5,18,17,18,6,7,16,14,13,12,13,17,4,0,0,0,0,0,0,0,0,0,0,0,0,0,0,0,0],"split_type":[0,0,0,0,0,0,0,0,0,0,0,0,0,0,0,0,0,0,0,0,0,0,0,0,0,0,0,0,0,0,0],"sum_hessian":[1.0178145E5,2.0871586E4,8.090987E4,2.0593701E4,2.7788528E2,4.3055305E4,3.7854562E4,2.0387521E4,2.0617856E2,8.7709915E1,1.9017535E2,4.178209E4,1.2732162E3,2.8447562E4,9.406999E3,8.68654E3,1.1700982E4,6.931233E1,1.3686623E2,7.122286E1,1.6487057E1,1.5472641E2,3.544895E1,4.0641133E4,1.1409572E3,3.213121E2,9.519041E2,1.8393635E3,2.66082E4,7.6990874E3,1.7079119E3],"tree_param":{"num_deleted":"0","num_feature":"20","num_nodes":"31","size_leaf_vector":"1"}},{"base_weights":[-6.0994835E-3,-1.2458768E-1,5.3840164E-2,-1.8668091E-1,5.1696073E-2,-2.9113414E-2,1.7305927E-1,-2.685635E-1,-4.0572755E-2,1.21409826E-1,-4.178335E-1,-2.254945E-1,1.1753942E-2,1.2792556E-1,4.124044E-1,-1.8054518E-1,-7.1639456E-2,1.2698853E-1,-2.20154E-2,-1.5199046E-1,5.030435E-2,-1.4575064E-1,3.3178132E-3,-2.0982178E-1,-3.517154E-2,3.278549E-2,-4.4614263E-2,9.6299626E-2,8.927453E-3,1.6944833E-1,-2.8066615E-2],"categories":[],"categories_nodes":[],"categories_segments":[],"categories_sizes":[],"default_left":[0,0,0,0,0,0,0,0,0,0,0,0,0,0,0,0,0,0,0,0,0,0,0,0,0,0,0,0,0,0,0],"id":6,"left_children":[1,3,5,7,9,11,13,15,17,19,21,23,25,27,29,-1,-1,-1,-1,-1,-1,-1,-1,-1,-1,-1,-1,-1,-1,-1,-1],"loss_changes":[7.194759E2,3.725171E2,6.653102E2,3.0107898E2,2.9023782E2,3.1838486E2,2.9812854E2,1.598374E2,1.3762105E2,2.2443225E2,3.343918E1,3.50507E2,5.1395703E2,4.40186E2,3.3775116E2,0E0,0E0,0E0,0E0,0E0,0E0,0E0,0E0,0E0,0E0,0E0,0E0,0E0,0E0,0E0,0E0],"parents":[2147483647,0,0,1,1,2,2,3,3,4,4,5,5,6,6,7,7,8,8,9,9,10,10,11,11,12,12,13,13,14,14],"right_children":[2,4,6,8,10,12,14,16,18,20,22,24,26,28,30,-1,-1,-1,-1,-1,-1,-1,-1,-1,-1,-1,-1,-1,-1,-1,-1],"split_conditions":[5.81E2,1.4E1,7.1E1,1E0,1.7E1,3E0,1.5E1,1E0,3.9E1,8E0,2.6E-1,5.4E1,7E0,4E0,1.6E1,-1.8054518E-1,-7.1639456E-2,1.2698853E-1,-2.20154E-2,-1.5199046E-1,5.030435E-2,-1.4575064E-1,3.3178132E-3,-2.0982178E-1,-3.517154E-2,3.278549E-2,-4.4614263E-2,9.6299626E-2,8.927453E-3,1.6944833E-1,-2.8066615E-2],"split_indices":[15,4,17,1,4,8,4,4,13,6,12,17,8,4,4,0,0,0,0,0,0,0,0,0,0,0,0,0,0,0,0],"split_type":[0,0,0,0,0,0,0,0,0,0,0,0,0,0,0,0,0,0,0,0,0,0,0,0,0,0,0,0,0,0,0],"sum_hessian":[1.0130214E5,3.403028E4,6.727186E4,2.5165916E4,8.864366E3,3.9669953E4,2.7601906E4,1.6127072E4,9.038845E3,7.71902E3,1.1453458E3,6.832591E3,3.2837363E4,2.3224043E4,4.377863E3,1.3207457E3,1.4806326E4,5.963426E2,8.442502E3,5.289938E2,7.1900264E3,9.884863E2,1.568595E2,1.2695283E3,5.5630625E3,2.0424104E4,1.2413258E4,7.8272773E3,1.5396766E4,3.364247E3,1.01361566E3],"tree_param":{"num_deleted":"0","num_feature":"20","num_nodes":"31","size_leaf_vector":"1"}},{"base_weights":[-5.601485E-3,-6.088483E-2,1.1507496E-1,-2.7059108E-1,-3.465731E-2,3.145762E-2,2.2432135E-1,-3.560665E-2,-3.467707E-1,4.6838614E-1,-4.536211E-2,4.7205523E-1,1.15275225E-2,1.353324E-1,3.3379674E-1,-2.3903339E-1,1.7699713E-2,-1.7710651E-1,-8.00935E-2,6.774106E-1,1.2528142E-1,-1.4494015E-1,-1.0014501E-2,6.470131E-2,3.0266294E-1,-5.138447E-3,8.900112E-2,1.9701733E-1,3.4506314E-2,7.3355466E-2,1.6637269E-1],"categories":[],"categories_nodes":[],"categories_segments":[],"categories_sizes":[],"default_left":[0,0,0,0,0,0,0,0,0,0,0,0,0,0,0,0,0,0,0,0,0,0,0,0,0,0,0,0,0,0,0],"id":7,"left_children":[1,3,5,7,9,11,13,15,17,19,21,23,25,27,29,-1,-1,-1,-1,-1,-1,-1,-1,-1,-1,-1,-1,-1,-1,-1,-1],"loss_changes":[6.7394836E2,3.8104507E2,2.8992365E2,1.3785297E2,3.3163446E2,1.5787456E2,1.3401025E2,1.359043E2,1.1288165E2,1.15678406E2,3.1623352E2,1.0686926E2,1.405648E2,8.032622E1,1.2146655E2,0E0,0E0,0E0,0E0,0E0,0E0,0E0,0E0,0E0,0E0,0E0,0E0,0E0,0E0,0E0,0E0],"parents":[2147483647,0,0,1,1,2,2,3,3,4,4,5,5,6,6,7,7,8,8,9,9,10,10,11,11,12,12,13,13,14,14],"right_children":[2,4,6,8,10,12,14,16,18,20,22,24,26,28,30,-1,-1,-1,-1,-1,-1,-1,-1,-1,-1,-1,-1,-1,-1,-1,-1],"split_conditions":[2.3E1,3.8E1,1E-2,4E0,1.2E1,2E1,1.6E1,3E0,2.8E1,-1.1E1,1E0,1.2E1,7.5E1,3.6E1,1.4E1,-2.3903339E-1,1.7699713E-2,-1.7710651E-1,-8.00935E-2,6.774106E-1,1.2528142E-1,-1.4494015E-1,-1.0014501E-2,6.470131E-2,3.0266294E-1,-5.138447E-3,8.900112E-2,1.9701733E-1,3.4506314E-2,7.3355466E-2,1.6637269E-1],"split_indices":[9,17,12,8,14,14,6,8,17,14,4,5,14,13,4,0,0,0,0,0,0,0,0,0,0,0,0,0,0,0,0],"split_type":[0,0,0,0,0,0,0,0,0,0,0,0,0,0,0,0,0,0,0,0,0,0,0,0,0,0,0,0,0,0,0],"sum_hessian":[1.0101851E5,6.928068E4,3.1737824E4,7.7005337E3,6.158015E4,1.797841E4,1.3759414E4,1.8856149E3,5.814919E3,1.282234E3,6.0297914E4,7.7706384E2,1.7201348E4,7.5910977E3,6.1683164E3,2.0763322E2,1.6779817E3,1.4332375E3,4.381681E3,3.4180244E1,1.2480538E3,1.6051608E3,5.8692754E4,5.2684564E2,2.5021815E2,1.5631396E4,1.5699508E3,2.834563E2,7.307641E3,4.3937E3,1.7746162E3],"tree_param":{"num_deleted":"0","num_feature":"20","num_nodes":"31","size_leaf_vector":"1"}},{"base_weights":[-4.6548713E-3,-9.830409E-2,4.5720067E-2,1.6534556E-2,-1.4016944E-1,-4.4427297E-1,5.7706006E-2,-5.053377E-2,4.929344E-1,5.808257E-1,-1.4862432E-1,-7.0463896E-1,-3.750111E-1,-1.8249592E-2,1.3149695E-1,-1.2616989E-1,-8.9708046E-4,1.8454349E-1,-1.3708638E-3,1.3767233E-1,6.009687E-1,-5.7570726E-2,-4.4269525E-3,1.3307025E-1,-2.2574787E-1,-1.761488E-2,-1.4644021E-1,-5.6239594E-2,3.9117727E-3,2.5756082E-2,9.7353555E-2],"categories":[],"categories_nodes":[],"categories_segments":[],"categories_sizes":[],"default_left":[0,0,0,0,0,0,0,0,0,0,0,0,0,0,0,0,0,0,0,0,0,0,0,0,0,0,0,0,0,0,0],"id":8,"left_children":[1,3,5,7,9,11,13,15,17,19,21,23,25,27,29,-1,-1,-1,-1,-1,-1,-1,-1,-1,-1,-1,-1,-1,-1,-1,-1],"loss_changes":[4.7462354E2,1.691836E2,3.8422955E2,3.0043506E2,1.5728882E2,2.7906372E1,3.579118E2,1.4501004E2,7.055472E1,5.0950905E1,1.4767456E2,1.8306656E1,4.4196854E1,1.6661154E2,2.8532562E2,0E0,0E0,0E0,0E0,0E0,0E0,0E0,0E0,0E0,0E0,0E0,0E0,0E0,0E0,0E0,0E0],"parents":[2147483647,0,0,1,1,2,2,3,3,4,4,5,5,6,6,7,7,8,8,9,9,10,10,11,11,12,12,13,13,14,14],"right_children":[2,4,6,8,10,12,14,16,18,20,22,24,26,28,30,-1,-1,-1,-1,-1,-1,-1,-1,-1,-1,-1,-1,-1,-1,-1,-1],"split_conditions":[1.7E1,4E0,2.6E1,3E0,5E0,1.5E1,1.5E1,1E0,2.475E3,1.2E1,1.5E1,7E0,4E0,8E0,1.5E1,-1.2616989E-1,-8.9708046E-4,1.8454349E-1,-1.3708638E-3,1.3767233E-1,6.009687E-1,-5.7570726E-2,-4.4269525E-3,1.3307025E-1,-2.2574787E-1,-1.761488E-2,-1.4644021E-1,-5.6239594E-2,3.9117727E-3,2.5756082E-2,9.7353555E-2],"split_indices":[9,4,17,4,14,17,6,4,15,5,4,6,8,6,4,0,0,0,0,0,0,0,0,0,0,0,0,0,0,0,0],"split_type":[0,0,0,0,0,0,0,0,0,0,0,0,0,0,0,0,0,0,0,0,0,0,0,0,0,0,0,0,0,0,0],"sum_hessian":[1.006056E5,3.5188215E4,6.5417387E4,9.401114E3,2.5787102E4,1.5611339E3,6.385625E4,8.241725E3,1.1593892E3,2.981077E2,2.5488994E4,3.261002E2,1.2350337E3,3.1466963E4,3.238929E4,9.3747595E2,7.3042485E3,9.3056244E2,2.2882674E2,2.757915E2,2.2316193E1,1.9261512E4,6.227483E3,1.2716275E1,3.133839E2,3.257491E2,9.092846E2,4.909656E3,2.6557307E4,2.619601E4,6.193279E3],"tree_param":{"num_deleted":"0","num_feature":"20","num_nodes":"31","size_leaf_vector":"1"}},{"base_weights":[-3.9692586E-3,-7.6865375E-2,4.9940992E-2,-1.584578E-1,-9.7753005E-3,8.666211E-3,1.7933685E-1,-1.8185379E-1,5.2916825E-2,1.2214341E-1,-5.7716757E-2,-1.953673E-2,1.7583771E-1,8.7286465E-2,3.2761884E-1,-5.6287486E-2,2.780326E-1,-1.0672138E-2,1.1969302E-1,1.2329005E-2,1.7544237E-1,-3.9061427E-2,6.2928605E-3,2.5858449E-2,-1.7962942E-2,3.4613248E-2,1.1074043E-1,2.2509888E-2,3.1406465E-1,1.3480082E-1,4.384478E-2],"categories":[],"categories_nodes":[],"categories_segments":[],"categories_sizes":[],"default_left":[0,0,0,0,0,0,0,0,0,0,0,0,0,0,0,0,0,0,0,0,0,0,0,0,0,0,0,0,0,0,0],"id":9,"left_children":[1,3,5,7,9,11,13,15,17,19,21,23,25,27,29,-1,-1,-1,-1,-1,-1,-1,-1,-1,-1,-1,-1,-1,-1,-1,-1],"loss_changes":[3.9365704E2,2.3311897E2,3.0754517E2,9.504028E1,1.4781567E2,2.0584576E2,1.900549E2,1.1087024E2,5.8680843E1,2.3358115E2,9.778783E1,1.5934361E2,7.361311E1,1.0096864E2,1.1774103E2,0E0,0E0,0E0,0E0,0E0,0E0,0E0,0E0,0E0,0E0,0E0,0E0,0E0,0E0,0E0,0E0],"parents":[2147483647,0,0,1,1,2,2,3,3,4,4,5,5,6,6,7,7,8,8,9,9,10,10,11,11,12,12,13,13,14,14],"right_children":[2,4,6,8,10,12,14,16,18,20,22,24,26,28,30,-1,-1,-1,-1,-1,-1,-1,-1,-1,-1,-1,-1,-1,-1,-1,-1],"split_conditions":[3E0,2E0,1.9E1,3E1,4E0,1E0,8E1,1.77E0,1.5E1,3E0,7.32E2,4E0,9.3E1,1.58E0,8E0,-5.6287486E-2,2.780326E-1,-1.0672138E-2,1.1969302E-1,1.2329005E-2,1.7544237E-1,-3.9061427E-2,6.2928605E-3,2.5858449E-2,-1.7962942E-2,3.4613248E-2,1.1074043E-1,2.2509888E-2,3.1406465E-1,1.3480082E-1,4.384478E-2],"split_indices":[7,2,6,9,4,10,13,12,4,4,15,4,17,12,5,0,0,0,0,0,0,0,0,0,0,0,0,0,0,0,0],"split_type":[0,0,0,0,0,0,0,0,0,0,0,0,0,0,0,0,0,0,0,0,0,0,0,0,0,0,0,0,0,0,0],"sum_hessian":[1.0016909E5,4.2585543E4,5.758355E4,1.9215281E4,2.3370262E4,4.365842E4,1.3925128E4,1.7300514E4,1.9147675E3,6.2288955E3,1.7141367E4,3.735694E4,6.3014805E3,8.592605E3,5.332522E3,1.7211744E4,8.876792E1,1.5255642E3,3.8920325E2,5.3013296E3,9.275657E2,8.922111E3,8.219255E3,1.0316355E4,2.7040588E4,4.8013057E3,1.500175E3,8.485331E3,1.0727482E2,3.190847E3,2.1416753E3],"tree_param":{"num_deleted":"0","num_feature":"20","num_nodes":"31","size_leaf_vector":"1"}},{"base_weights":[-3.3270756E-3,-1.9714968E-1,1.30269015E-2,-7.8634685E-1,-1.7550182E-1,2.122357E-2,-4.1249803E-1,-8.1640387E-1,7.844045E-1,2.3172738E-2,-2.5447148E-1,-1.0938466E-2,1.7908366E-1,-5.217331E-1,-2.8165287E-1,-1.6896619E-1,-2.781673E-1,6.336621E-2,3.6864066E-1,-9.398081E-2,4.6673447E-2,-1.5627788E-1,-6.0183737E-2,2.8659329E-2,-1.8538482E-2,-1.1935274E-1,6.926907E-2,-9.488007E-2,-2.1210536E-1,-1.2073551E-1,-3.217611E-2],"categories":[],"categories_nodes":[],"categories_segments":[],"categories_sizes":[],"default_left":[0,0,0,0,0,0,0,0,0,0,0,0,0,0,0,0,0,0,0,0,0,0,0,0,0,0,0,0,0,0,0],"id":10,"left_children":[1,3,5,7,9,11,13,15,17,19,21,23,25,27,29,-1,-1,-1,-1,-1,-1,-1,-1,-1,-1,-1,-1,-1,-1,-1,-1],"loss_changes":[3.1653976E2,9.8971436E1,3.2121487E2,1.3627838E1,1.1761641E2,4.5873062E2,2.4729004E1,7.0649414E0,1.1860139E0,9.506937E1,7.687689E1,4.0643546E2,4.57224E2,3.5842896E1,1.668557E1,0E0,0E0,0E0,0E0,0E0,0E0,0E0,0E0,0E0,0E0,0E0,0E0,0E0,0E0,0E0,0E0],"parents":[2147483647,0,0,1,1,2,2,3,3,4,4,5,5,6,6,7,7,8,8,9,9,10,10,11,11,12,12,13,13,14,14],"right_children":[2,4,6,8,10,12,14,16,18,20,22,24,26,28,30,-1,-1,-1,-1,-1,-1,-1,-1,-1,-1,-1,-1,-1,-1,-1,-1],"split_conditions":[3.5E1,3E0,1.7E1,1E1,4E0,1.5E1,7.6E1,8.05E0,1E0,3E0,2.3E1,4E0,8E0,7E0,6.2E1,-1.6896619E-1,-2.781673E-1,6.336621E-2,3.6864066E-1,-9.398081E-2,4.6673447E-2,-1.5627788E-1,-6.0183737E-2,2.8659329E-2,-1.8538482E-2,-1.1935274E-1,6.926907E-2,-9.488007E-2,-2.1210536E-1,-1.2073551E-1,-3.217611E-2],"split_indices":[17,8,4,5,8,4,17,16,0,4,17,4,6,8,14,0,0,0,0,0,0,0,0,0,0,0,0,0,0,0,0],"split_type":[0,0,0,0,0,0,0,0,0,0,0,0,0,0,0,0,0,0,0,0,0,0,0,0,0,0,0,0,0,0,0],"sum_hessian":[9.9860234E4,7.76933E3,9.209091E4,2.740869E2,7.495243E3,9.035146E4,1.7394435E3,2.6941183E2,4.675069E0,2.132054E3,5.363189E3,7.5059875E4,1.5291588E4,9.463791E2,7.930644E2,8.387381E1,1.8553804E2,2.6859844E0,1.9890846E0,6.0171936E2,1.5303346E3,9.003327E2,4.4628564E3,2.4263219E4,5.0796656E4,1.2596003E3,1.4031987E4,4.5003384E2,4.9634525E2,4.6775967E2,3.2530475E2],"tree_param":{"num_deleted":"0","num_feature":"20","num_nodes":"31","size_leaf_vector":"1"}},{"base_weights":[-2.9830171E-3,-3.6719045E-1,6.213973E-3,-4.3624407E-1,-2.2788316E-1,-2.859248E-2,9.437943E-2,-6.603196E-1,-2.9770124E-1,-3.7916368E-1,-8.399738E-3,7.412056E-2,-6.389113E-2,3.4756905E-1,7.058862E-2,-1.371132E-1,-2.2152986E-1,-9.639764E-2,2.5244603E-1,-1.3426442E-1,-3.483301E-2,-8.590319E-3,4.067413E-1,3.6149365E-3,1.20638356E-1,-3.4036204E-2,1.0059993E-2,9.2325024E-2,3.2942888E-1,-1.787486E-2,3.6632214E-2],"categories":[],"categories_nodes":[],"categories_segments":[],"categories_sizes":[],"default_left":[0,0,0,0,0,0,0,0,0,0,0,0,0,0,0,0,0,0,0,0,0,0,0,0,0,0,0,0,0,0,0],"id":11,"left_children":[1,3,5,7,9,11,13,15,17,19,21,23,25,27,29,-1,-1,-1,-1,-1,-1,-1,-1,-1,-1,-1,-1,-1,-1,-1,-1],"loss_changes":[3.3353516E2,2.3493073E1,2.9804376E2,5.0673157E1,2.7054173E1,2.5246838E2,1.6556415E2,9.590363E0,2.757016E1,8.625366E0,9.245335E0,3.626048E2,2.5024214E2,7.021982E1,1.6853647E2,0E0,0E0,0E0,0E0,0E0,0E0,0E0,0E0,0E0,0E0,0E0,0E0,0E0,0E0,0E0,0E0],"parents":[2147483647,0,0,1,1,2,2,3,3,4,4,5,5,6,6,7,7,8,8,9,9,10,10,11,11,12,12,13,13,14,14],"right_children":[2,4,6,8,10,12,14,16,18,20,22,24,26,28,30,-1,-1,-1,-1,-1,-1,-1,-1,-1,-1,-1,-1,-1,-1,-1,-1],"split_conditions":[1E0,2E0,1E-2,8.8E1,1E0,4E0,4E1,1.2E1,1.72E0,6.7E1,2.237E1,3E0,9.37E2,8E0,4.6E1,-1.371132E-1,-2.2152986E-1,-9.639764E-2,2.5244603E-1,-1.3426442E-1,-3.483301E-2,-8.590319E-3,4.067413E-1,3.6149365E-3,1.20638356E-1,-3.4036204E-2,1.0059993E-2,9.2325024E-2,3.2942888E-1,-1.787486E-2,3.6632214E-2],"split_indices":[4,8,12,17,1,4,13,6,12,14,16,4,15,8,14,0,0,0,0,0,0,0,0,0,0,0,0,0,0,0,0],"split_type":[0,0,0,0,0,0,0,0,0,0,0,0,0,0,0,0,0,0,0,0,0,0,0,0,0,0,0,0,0,0,0],"sum_hessian":[9.957258E4,2.4515242E3,9.7121055E4,1.6376309E3,8.138934E2,6.9632016E4,2.748904E4,6.242383E2,1.0133926E3,4.8137482E2,3.3251855E2,1.7809197E4,5.1822816E4,2.3599602E3,2.5129078E4,1.751897E2,4.4904858E2,9.935074E2,1.9885195E1,3.8149786E2,9.9876945E1,3.2862323E2,3.8953185E0,1.4976198E4,2.8329983E3,3.4348492E4,1.7474324E4,2.2424006E3,1.1755979E2,7.1253735E3,1.8003705E4],"tree_param":{"num_deleted":"0","num_feature":"20","num_nodes":"31","size_leaf_vector":"1"}},{"base_weights":[-2.6014282E-3,-1.0764596E-1,2.2928527E-2,3.941469E-1,-1.1407144E-1,-3.2737263E-2,8.3844185E-2,2.7299446E-1,9.815812E-1,-1.3150263E-1,6.599295E-2,-4.8837755E-2,1.9457841E-1,9.2892516E-1,7.658615E-2,4.7539845E-2,1.9416894E-1,1.03089385E-1,3.6035523E-1,-5.5955768E-2,-2.2143357E-2,4.8377726E-2,-2.8770326E-2,-1.8584834E-2,6.7365624E-2,2.4649672E-2,1.1786724E-1,2.0423849E-1,6.561817E-1,4.4960566E-2,-1.8205728E-3],"categories":[],"categories_nodes":[],"categories_segments":[],"categories_sizes":[],"default_left":[0,0,0,0,0,0,0,0,0,0,0,0,0,0,0,0,0,0,0,0,0,0,0,0,0,0,0,0,0,0,0],"id":12,"left_children":[1,3,5,7,9,11,13,15,17,19,21,23,25,27,29,-1,-1,-1,-1,-1,-1,-1,-1,-1,-1,-1,-1,-1,-1,-1,-1],"loss_changes":[2.6641513E2,6.2671356E1,2.7100217E2,1.7225292E1,6.0205505E1,1.5284578E2,2.3399066E2,8.690609E0,5.420925E0,5.5487457E1,2.6132765E1,1.3980774E2,6.154847E1,9.994406E1,2.291821E2,0E0,0E0,0E0,0E0,0E0,0E0,0E0,0E0,0E0,0E0,0E0,0E0,0E0,0E0,0E0,0E0],"parents":[2147483647,0,0,1,1,2,2,3,3,4,4,5,5,6,6,7,7,8,8,9,9,10,10,11,11,12,12,13,13,14,14],"right_children":[2,4,6,8,10,12,14,16,18,20,22,24,26,28,30,-1,-1,-1,-1,-1,-1,-1,-1,-1,-1,-1,-1,-1,-1,-1,-1],"split_conditions":[1E0,1.4E1,6E0,2.39E1,1.387E1,1.2E0,1.2E1,8.4E1,1.1E1,1.5E1,1.1E1,3.51E1,7.6E1,1.499E1,8E0,4.7539845E-2,1.9416894E-1,1.03089385E-1,3.6035523E-1,-5.5955768E-2,-2.2143357E-2,4.8377726E-2,-2.8770326E-2,-1.8584834E-2,6.7365624E-2,2.4649672E-2,1.1786724E-1,2.0423849E-1,6.561817E-1,4.4960566E-2,-1.8205728E-3],"split_indices":[2,14,5,9,16,19,14,17,6,6,5,9,17,16,5,0,0,0,0,0,0,0,0,0,0,0,0,0,0,0,0],"split_type":[0,0,0,0,0,0,0,0,0,0,0,0,0,0,0,0,0,0,0,0,0,0,0,0,0,0,0,0,0,0,0],"sum_hessian":[9.9340664E4,1.9422482E4,7.991818E4,2.4479857E2,1.9177684E4,4.175876E4,3.815942E4,2.0415779E2,4.064077E1,1.7485285E4,1.6923976E3,3.8997406E4,2.7613533E3,3.2386264E2,3.783556E4,1.5740894E2,4.6748863E1,1.1064115E1,2.9576656E1,8.948983E3,8.536302E3,1.0654438E3,6.269538E2,3.7213434E4,1.7839716E3,1.7632654E3,9.980878E2,2.718068E2,5.2055843E1,2.005437E4,1.778119E4],"tree_param":{"num_deleted":"0","num_feature":"20","num_nodes":"31","size_leaf_vector":"1"}},{"base_weights":[-2.1956915E-3,-1.6414626E-1,1.10519305E-2,4.15112E-1,-2.0353897E-1,-8.4557354E-2,3.5426788E-2,2.9364455E-2,7.14906E-1,-2.9701486E-1,-1.2200523E-1,-1.9135441E-1,3.7039383E-3,-5.177407E-3,1.0257076E-1,-1.22298636E-1,8.3463505E-2,3.627408E-1,3.671759E-2,-6.3900255E-2,-1.3947657E-1,-4.674075E-2,3.0241797E-2,-1.6886431E-1,-4.2457353E-2,6.336462E-2,-2.3352591E-2,-4.2309E-2,1.1811743E-2,-7.2008334E-3,4.175897E-2],"categories":[],"categories_nodes":[],"categories_segments":[],"categories_sizes":[],"default_left":[0,0,0,0,0,0,0,0,0,0,0,0,0,0,0,0,0,0,0,0,0,0,0,0,0,0,0,0,0,0,0],"id":13,"left_children":[1,3,5,7,9,11,13,15,17,19,21,23,25,27,29,-1,-1,-1,-1,-1,-1,-1,-1,-1,-1,-1,-1,-1,-1,-1,-1],"loss_changes":[2.1259438E2,1.7105754E2,2.1346822E2,5.519123E1,5.343805E1,1.7540477E2,1.9899606E2,2.293274E1,7.850896E1,4.6002045E1,2.8248951E1,1.5580258E2,1.7243776E2,2.752928E2,1.2751709E2,0E0,0E0,0E0,0E0,0E0,0E0,0E0,0E0,0E0,0E0,0E0,0E0,0E0,0E0,0E0,0E0],"parents":[2147483647,0,0,1,1,2,2,3,3,4,4,5,5,6,6,7,7,8,8,9,9,10,10,11,11,12,12,13,13,14,14],"right_children":[2,4,6,8,10,12,14,16,18,20,22,24,26,28,30,-1,-1,-1,-1,-1,-1,-1,-1,-1,-1,-1,-1,-1,-1,-1,-1],"split_conditions":[8E0,4E0,3.86E2,5E0,7E0,3E0,7.6E1,5.1E1,7E0,1.4E1,1E0,6.7E1,5E0,3E0,4E0,-1.22298636E-1,8.3463505E-2,3.627408E-1,3.671759E-2,-6.3900255E-2,-1.3947657E-1,-4.674075E-2,3.0241797E-2,-1.6886431E-1,-4.2457353E-2,6.336462E-2,-2.3352591E-2,-4.2309E-2,1.1811743E-2,-7.2008334E-3,4.175897E-2],"split_indices":[6,6,15,4,6,8,17,17,4,4,10,17,8,8,5,0,0,0,0,0,0,0,0,0,0,0,0,0,0,0,0],"split_type":[0,0,0,0,0,0,0,0,0,0,0,0,0,0,0,0,0,0,0,0,0,0,0,0,0,0,0,0,0,0,0],"sum_hessian":[9.908851E4,7.491722E3,9.159679E4,4.764294E2,7.015293E3,1.8607445E4,7.298934E4,2.0882736E2,2.6760205E2,3.2670635E3,3.7482292E3,8.419092E3,1.01883545E4,4.5484355E4,2.7504982E4,7.553474E1,1.3329262E2,1.4533444E2,1.222676E2,2.1790312E3,1.0880322E3,3.2548203E3,4.9340897E2,9.944297E2,7.424662E3,2.8737856E3,7.314569E3,1.1231699E4,3.425266E4,6.172847E3,2.1332137E4],"tree_param":{"num_deleted":"0","num_feature":"20","num_nodes":"31","size_leaf_vector":"1"}},{"base_weights":[-2.0907912E-3,-1.4057104E-1,1.3334258E-2,-4.0341684E-1,-1.07054725E-1,1.932339E-2,-3.2594717E-1,4.7150645E-1,-4.2291453E-1,-7.014072E-1,-8.803226E-2,-5.959813E-3,1.4119674E-1,-4.620599E-1,-2.2364503E-1,2.7675167E-1,-9.189664E-2,-1.7429896E-1,-9.633938E-2,-1.5194657E-1,-2.4601467E-1,-3.4038994E-2,6.2021885E-2,1.0549977E-2,-1.9431666E-2,-4.476753E-2,5.403284E-2,-7.747728E-2,-2.0227984E-1,-7.533699E-2,5.828425E-2],"categories":[],"categories_nodes":[],"categories_segments":[],"categories_sizes":[],"default_left":[0,0,0,0,0,0,0,0,0,0,0,0,0,0,0,0,0,0,0,0,0,0,0,0,0,0,0,0,0,0,0],"id":14,"left_children":[1,3,5,7,9,11,13,15,17,19,21,23,25,27,29,-1,-1,-1,-1,-1,-1,-1,-1,-1,-1,-1,-1,-1,-1,-1,-1],"loss_changes":[2.1129108E2,8.7293564E1,1.8085922E2,1.9319366E1,9.936336E1,2.69494E2,2.139502E1,9.019514E0,1.7462769E1,5.8882446E0,6.3910362E1,1.7520119E2,1.6984387E2,2.843631E1,1.0193268E1,0E0,0E0,0E0,0E0,0E0,0E0,0E0,0E0,0E0,0E0,0E0,0E0,0E0,0E0,0E0,0E0],"parents":[2147483647,0,0,1,1,2,2,3,3,4,4,5,5,6,6,7,7,8,8,9,9,10,10,11,11,12,12,13,13,14,14],"right_children":[2,4,6,8,10,12,14,16,18,20,22,24,26,28,30,-1,-1,-1,-1,-1,-1,-1,-1,-1,-1,-1,-1,-1,-1,-1,-1],"split_conditions":[3.7E1,2.2E1,1.7E1,3.4E1,3E0,1.5E1,7.1E1,2.3E1,1.6E1,1.4E1,5E-1,9E0,9E0,7E0,3.11E1,2.7675167E-1,-9.189664E-2,-1.7429896E-1,-9.633938E-2,-1.5194657E-1,-2.4601467E-1,-3.4038994E-2,6.2021885E-2,1.0549977E-2,-1.9431666E-2,-4.476753E-2,5.403284E-2,-7.747728E-2,-2.0227984E-1,-7.533699E-2,5.828425E-2],"split_indices":[17,17,4,13,8,4,17,9,17,6,12,4,6,8,9,0,0,0,0,0,0,0,0,0,0,0,0,0,0,0,0],"split_type":[0,0,0,0,0,0,0,0,0,0,0,0,0,0,0,0,0,0,0,0,0,0,0,0,0,0,0,0,0,0,0],"sum_hessian":[9.8914164E4,9.912788E3,8.9001375E4,1.1198136E3,8.792975E3,8.745847E4,1.542909E3,2.3905733E1,1.0959078E3,2.7158215E2,8.521393E3,7.2432875E4,1.5025591E4,6.6054236E2,8.823667E2,1.5014217E1,8.891515E0,4.2739804E2,6.685098E2,1.0475206E2,1.6683008E2,7.845176E3,6.762169E2,4.2625836E4,2.980704E4,1.7750223E3,1.3250568E4,3.3807394E2,3.2246838E2,8.283054E2,5.4061268E1],"tree_param":{"num_deleted":"0","num_feature":"20","num_nodes":"31","size_leaf_vector":"1"}},{"base_weights":[-1.827505E-3,-5.418626E-2,3.6106333E-2,4.2293776E-2,-1.0551183E-1,-2.8523582E-3,1.1044535E-1,-3.3204752E-1,5.205875E-2,1.1103924E-1,-1.1903263E-1,-5.796363E-2,4.934121E-2,8.1449315E-2,3.5486153E-1,-1.12891905E-1,5.1801335E-2,-2.3614587E-2,2.2953719E-2,1.3406836E-2,1.561539E-1,-6.462841E-2,-2.6928222E-2,-2.5657792E-2,1.3482841E-2,2.6305938E-2,-2.884878E-2,2.271371E-2,2.7597728E-1,9.488685E-2,2.580263E-1],"categories":[],"categories_nodes":[],"categories_segments":[],"categories_sizes":[],"default_left":[0,0,0,0,0,0,0,0,0,0,0,0,0,0,0,0,0,0,0,0,0,0,0,0,0,0,0,0,0,0,0],"id":15,"left_children":[1,3,5,7,9,11,13,15,17,19,21,23,25,27,29,-1,-1,-1,-1,-1,-1,-1,-1,-1,-1,-1,-1,-1,-1,-1,-1],"loss_changes":[1.9597488E2,2.0527661E2,1.6570808E2,5.2638653E1,7.924008E1,1.079935E2,1.3940683E2,8.243084E0,4.487348E1,4.3193836E1,7.1846436E1,5.179979E1,1.0759247E2,8.454022E1,4.038376E1,0E0,0E0,0E0,0E0,0E0,0E0,0E0,0E0,0E0,0E0,0E0,0E0,0E0,0E0,0E0,0E0],"parents":[2147483647,0,0,1,1,2,2,3,3,4,4,5,5,6,6,7,7,8,8,9,9,10,10,11,11,12,12,13,13,14,14],"right_children":[2,4,6,8,10,12,14,16,18,20,22,24,26,28,30,-1,-1,-1,-1,-1,-1,-1,-1,-1,-1,-1,-1,-1,-1,-1,-1],"split_conditions":[3E0,1E0,1E0,2.9E1,4E1,1.5E1,3.11E1,5.9E-1,1E0,2E-1,4E0,1.448E3,7E0,2.85E0,1.2E1,-1.12891905E-1,5.1801335E-2,-2.3614587E-2,2.2953719E-2,1.3406836E-2,1.561539E-1,-6.462841E-2,-2.6928222E-2,-2.5657792E-2,1.3482841E-2,2.6305938E-2,-2.884878E-2,2.271371E-2,2.7597728E-1,9.488685E-2,2.580263E-1],"split_indices":[7,7,1,17,13,6,9,12,8,12,5,15,8,12,5,0,0,0,0,0,0,0,0,0,0,0,0,0,0,0,0],"split_type":[0,0,0,0,0,0,0,0,0,0,0,0,0,0,0,0,0,0,0,0,0,0,0,0,0,0,0,0,0,0,0],"sum_hessian":[9.866783E4,4.1452273E4,5.721556E4,1.4394384E4,2.7057889E4,3.7541977E4,1.9673582E4,3.6510345E2,1.402928E4,1.5897063E3,2.5468184E4,1.8260535E4,1.928144E4,1.7588342E4,2.08524E3,3.3590256E2,2.920089E1,2.2097397E3,1.1819541E4,1.3689889E3,2.2071736E2,5.9308647E3,1.9537318E4,1.4403018E4,3.8575188E3,1.526024E4,4.0211997E3,1.74699E4,1.1844102E2,1.9388429E3,1.4639699E2],"tree_param":{"num_deleted":"0","num_feature":"20","num_nodes":"31","size_leaf_vector":"1"}},{"base_weights":[-1.5893201E-3,-2.8220212E-1,4.9935295E-3,-3.1944448E-1,-4.3067563E-2,-5.146873E-2,3.441234E-2,-3.987874E-1,-2.0032394E-1,1.0388663E-2,-7.769273E-1,-1.510201E-1,-2.4597134E-2,1.1327911E-1,6.959347E-3,-6.4226605E-2,-1.4445731E-1,-7.837151E-2,1.1249268E-2,-1.5614806E-2,1.7835489E-1,-2.6689595E-1,-1.0560863E-2,-2.0823972E-1,-4.124073E-2,-9.6381465E-3,1.0393015E-1,1.5818603E-2,1.1610946E-1,-2.9488612E-2,1.0559969E-2],"categories":[],"categories_nodes":[],"categories_segments":[],"categories_sizes":[],"default_left":[0,0,0,0,0,0,0,0,0,0,0,0,0,0,0,0,0,0,0,0,0,0,0,0,0,0,0,0,0,0,0],"id":16,"left_children":[1,3,5,7,9,11,13,15,17,19,21,23,25,27,29,-1,-1,-1,-1,-1,-1,-1,-1,-1,-1,-1,-1,-1,-1,-1,-1],"loss_changes":[1.8186606E2,2.0083923E1,1.5978984E2,1.8373108E1,1.1982663E1,8.8148766E1,1.3693268E2,1.778926E1,1.1346527E1,1.0443894E1,1.7026482E0,5.1452393E1,7.251169E1,2.7067136E2,1.3945729E2,0E0,0E0,0E0,0E0,0E0,0E0,0E0,0E0,0E0,0E0,0E0,0E0,0E0,0E0,0E0,0E0],"parents":[2147483647,0,0,1,1,2,2,3,3,4,4,5,5,6,6,7,7,8,8,9,9,10,10,11,11,12,12,13,13,14,14],"right_children":[2,4,6,8,10,12,14,16,18,20,22,24,26,28,30,-1,-1,-1,-1,-1,-1,-1,-1,-1,-1,-1,-1,-1,-1,-1,-1],"split_conditions":[1E0,1.11E2,1.7E1,2E0,2.2E1,4.5E1,4E0,1.3E1,2E-1,2.71E1,2.2E-1,3E0,1.02E2,3E0,5E0,-6.4226605E-2,-1.4445731E-1,-7.837151E-2,1.1249268E-2,-1.5614806E-2,1.7835489E-1,-2.6689595E-1,-1.0560863E-2,-2.0823972E-1,-4.124073E-2,-9.6381465E-3,1.0393015E-1,1.5818603E-2,1.1610946E-1,-2.9488612E-2,1.0559969E-2],"split_indices":[4,17,9,8,6,17,4,6,12,9,12,8,13,4,4,0,0,0,0,0,0,0,0,0,0,0,0,0,0,0,0],"split_type":[0,0,0,0,0,0,0,0,0,0,0,0,0,0,0,0,0,0,0,0,0,0,0,0,0,0,0,0,0,0,0],"sum_hessian":[9.845153E4,2.255661E3,9.619587E4,1.9514154E3,3.0424554E2,3.2951918E4,6.3243953E4,1.1698574E3,7.81558E2,2.8450714E2,1.9738386E1,7.0030513E3,2.5948867E4,1.6329513E4,4.6914438E4,3.6303024E2,8.068272E2,6.221142E2,1.5944376E2,2.578556E2,2.6651562E1,1.6961216E1,2.7771702E0,1.6925447E2,6.833797E3,2.543361E4,5.1525793E2,1.3372814E4,2.9566982E3,9.924093E3,3.6990348E4],"tree_param":{"num_deleted":"0","num_feature":"20","num_nodes":"31","size_leaf_vector":"1"}},{"base_weights":[-1.4275516E-3,1.531958E-1,-1.0952445E-2,1.4038534E-1,1.4238235E0,-1.8019978E-2,2.1987025E-1,-5.382039E-2,2.1368828E-1,-3.9298918E-2,1.5978229E0,-6.2761836E-2,1.4814613E-2,2.3138422E-1,-1.3287929E0,-3.430418E-2,1.0672101E-1,4.509019E-2,1.6663921E-1,-9.020285E-2,2.2131051E-1,3.3204192E-1,5.785263E-1,-2.3049384E-2,4.6498425E-2,2.096183E-2,-1.9331448E-2,3.9807465E-2,1.3143596E-1,-1.52523E-1,-4.1967544E-1],"categories":[],"categories_nodes":[],"categories_segments":[],"categories_sizes":[],"default_left":[0,0,0,0,0,0,0,0,0,0,0,0,0,0,0,0,0,0,0,0,0,0,0,0,0,0,0,0,0,0,0],"id":17,"left_children":[1,3,5,7,9,11,13,15,17,19,21,23,25,27,29,-1,-1,-1,-1,-1,-1,-1,-1,-1,-1,-1,-1,-1,-1,-1,-1],"loss_changes":[1.4480934E2,9.266855E1,1.5109755E2,8.043769E1,1.4532768E1,1.3202455E2,4.9373917E1,3.8436516E1,8.877632E1,1.6468856E0,6.1153564E0,1.1654738E2,2.2617345E2,5.5688858E1,4.6558E-1,0E0,0E0,0E0,0E0,0E0,0E0,0E0,0E0,0E0,0E0,0E0,0E0,0E0,0E0,0E0,0E0],"parents":[2147483647,0,0,1,1,2,2,3,3,4,4,5,5,6,6,7,7,8,8,9,9,10,10,11,11,12,12,13,13,14,14],"right_children":[2,4,6,8,10,12,14,16,18,20,22,24,26,28,30,-1,-1,-1,-1,-1,-1,-1,-1,-1,-1,-1,-1,-1,-1,-1,-1],"split_conditions":[2.4E1,8E0,9.7E-1,6.4E1,3.1E1,5.3E1,1.31E2,1.499E1,1.32E1,5E0,1.81E1,1.655E1,8E0,8.7E1,9E0,-3.430418E-2,1.0672101E-1,4.509019E-2,1.6663921E-1,-9.020285E-2,2.2131051E-1,3.3204192E-1,5.785263E-1,-2.3049384E-2,4.6498425E-2,2.096183E-2,-1.9331448E-2,3.9807465E-2,1.3143596E-1,-1.52523E-1,-4.1967544E-1],"split_indices":[14,8,12,17,17,14,17,16,16,4,9,16,5,17,6,0,0,0,0,0,0,0,0,0,0,0,0,0,0,0,0],"split_type":[0,0,0,0,0,0,0,0,0,0,0,0,0,0,0,0,0,0,0,0,0,0,0,0,0,0,0,0,0,0,0],"sum_hessian":[9.832229E4,5.7043906E3,9.26179E4,5.6485522E3,5.5838135E1,8.986719E4,2.7507112E3,1.5478936E3,4.1006587E3,6.0169606E0,4.9821175E1,3.803632E4,5.183087E4,2.7312554E3,1.9455685E1,1.3492185E3,1.9867503E2,3.460327E3,6.403318E2,4.9611096E0,1.055851E0,2.179634E1,2.8024834E1,3.5728516E4,2.3078037E3,3.058388E4,2.1246988E4,1.8498196E3,8.814359E2,2.1817508E0,1.7273933E1],"tree_param":{"num_deleted":"0","num_feature":"20","num_nodes":"31","size_leaf_vector":"1"}},{"base_weights":[-1.2452959E-3,3.1755737E-3,-2.5202703E-1,-1.2187253E-2,7.728394E-2,-3.3076853E-1,-1.4370357E-1,1.731754E-2,-5.6507923E-2,-3.3745012E-1,9.3781225E-2,-4.2739552E-1,-2.0639572E-1,2.524324E-1,-1.8313041E-1,-5.653425E-3,1.3262312E-1,-1.0840059E-1,-1.4669119E-4,-1.1539736E-1,-8.56199E-3,-1.19793415E-1,3.1768136E-2,-5.284983E-2,-1.5567705E-1,-6.819653E-2,3.8529953E-1,-4.5349237E-2,1.7025714E-1,-9.31106E-3,-9.4408065E-2],"categories":[],"categories_nodes":[],"categories_segments":[],"categories_sizes":[],"default_left":[0,0,0,0,0,0,0,0,0,0,0,0,0,0,0,0,0,0,0,0,0,0,0,0,0,0,0,0,0,0,0],"id":18,"left_children":[1,3,5,7,9,11,13,15,17,19,21,23,25,27,29,-1,-1,-1,-1,-1,-1,-1,-1,-1,-1,-1,-1,-1,-1,-1,-1],"loss_changes":[1.08807014E2,1.09801285E2,1.4453598E1,1.0446167E2,1.1333401E2,1.173378E1,1.1250795E1,7.366565E2,5.4517053E2,9.230743E0,9.516884E1,1.2616989E1,1.3769398E1,8.3974285E0,1.3057442E1,0E0,0E0,0E0,0E0,0E0,0E0,0E0,0E0,0E0,0E0,0E0,0E0,0E0,0E0,0E0,0E0],"parents":[2147483647,0,0,1,1,2,2,3,3,4,4,5,5,6,6,7,7,8,8,9,9,10,10,11,11,12,12,13,13,14,14],"right_children":[2,4,6,8,10,12,14,16,18,20,22,24,26,28,30,-1,-1,-1,-1,-1,-1,-1,-1,-1,-1,-1,-1,-1,-1,-1,-1],"split_conditions":[1.7E1,1.5E1,5.7E1,9E0,7E0,4E0,9E0,6E0,1E1,6E0,2.8E1,1E0,2.192E1,8.05E0,7E0,-5.653425E-3,1.3262312E-1,-1.0840059E-1,-1.4669119E-4,-1.1539736E-1,-8.56199E-3,-1.19793415E-1,3.1768136E-2,-5.284983E-2,-1.5567705E-1,-6.819653E-2,3.8529953E-1,-4.5349237E-2,1.7025714E-1,-9.31106E-3,-9.4408065E-2],"split_indices":[4,4,14,4,6,7,6,4,4,7,17,7,16,16,8,0,0,0,0,0,0,0,0,0,0,0,0,0,0,0,0],"split_type":[0,0,0,0,0,0,0,0,0,0,0,0,0,0,0,0,0,0,0,0,0,0,0,0,0,0,0,0,0,0,0],"sum_hessian":[9.813991E4,9.6440805E4,1.6991053E3,7.988194E4,1.6558865E4,9.827098E2,7.163956E2,4.7957004E4,3.1924934E4,6.3273535E2,1.5926129E4,5.5167175E2,4.3103802E2,6.435861E1,6.52037E2,4.4195348E4,3.761656E3,4.955284E3,2.696965E4,5.4864594E2,8.408942E1,3.810708E2,1.5545059E4,1.480962E2,4.0357556E2,4.2590686E2,5.1311483E0,2.8444576E1,3.591404E1,3.0299524E2,3.4904175E2],"tree_param":{"num_deleted":"0","num_feature":"20","num_nodes":"31","size_leaf_vector":"1"}},{"base_weights":[-1.3874549E-3,-7.347669E-2,1.47615895E-2,-6.553488E-1,-5.6061268E-2,-6.6979155E-2,3.3348538E-2,1.7325589E-1,-6.962914E-1,-9.317289E-2,7.485966E-2,-2.912497E-1,-1.7244784E-2,8.085696E-2,9.374876E-4,-2.1428137E-1,1.7975435E-1,-1.537684E-1,-2.5122595E-1,-3.9437212E-2,2.8457066E-2,9.222612E-2,-1.3687597E-3,6.349428E-1,-9.293677E-2,-2.0404834E-2,4.1884918E-2,1.705185E-2,8.698422E-2,-7.803644E-2,1.0792124E-2],"categories":[],"categories_nodes":[],"categories_segments":[],"categories_sizes":[],"default_left":[0,0,0,0,0,0,0,0,0,0,0,0,0,0,0,0,0,0,0,0,0,0,0,0,0,0,0,0,0,0,0],"id":19,"left_children":[1,3,5,7,9,11,13,15,17,19,21,23,25,27,29,-1,-1,-1,-1,-1,-1,-1,-1,-1,-1,-1,-1,-1,-1,-1,-1],"loss_changes":[1.14099846E2,1.8173193E2,1.2165675E2,1.7801407E1,8.463147E1,1.6546048E2,1.0045398E2,1.0006991E1,1.2453308E1,9.770387E1,7.106291E1,1.20846634E2,9.671795E1,1.3284691E2,3.5473242E2,0E0,0E0,0E0,0E0,0E0,0E0,0E0,0E0,0E0,0E0,0E0,0E0,0E0,0E0,0E0,0E0],"parents":[2147483647,0,0,1,1,2,2,3,3,4,4,5,5,6,6,7,7,8,8,9,9,10,10,11,11,12,12,13,13,14,14],"right_children":[2,4,6,8,10,12,14,16,18,20,22,24,26,28,30,-1,-1,-1,-1,-1,-1,-1,-1,-1,-1,-1,-1,-1,-1,-1,-1],"split_conditions":[4.3E1,3E0,1E0,3E0,1.9E1,8.2E1,8E0,1.3E1,8.95E0,9E0,4E0,2E1,6E0,6E0,1E1,-2.1428137E-1,1.7975435E-1,-1.537684E-1,-2.5122595E-1,-3.9437212E-2,2.8457066E-2,9.222612E-2,-1.3687597E-3,6.349428E-1,-9.293677E-2,-2.0404834E-2,4.1884918E-2,1.705185E-2,8.698422E-2,-7.803644E-2,1.0792124E-2],"split_indices":[17,8,8,5,6,17,4,9,16,8,8,14,4,4,4,0,0,0,0,0,0,0,0,0,0,0,0,0,0,0,0],"split_type":[0,0,0,0,0,0,0,0,0,0,0,0,0,0,0,0,0,0,0,0,0,0,0,0,0,0,0,0,0,0,0],"sum_hessian":[9.8007484E4,1.7936318E4,8.007117E4,5.201687E2,1.741615E4,1.4833692E4,6.5237477E4,2.4339952E1,4.9582877E2,1.3569849E4,3.8463015E3,2.6915679E3,1.2142125E4,2.6456215E4,3.878126E4,7.673407E0,1.6666546E1,2.174153E2,2.7841348E2,1.1274554E4,2.2952952E3,9.7843085E2,2.8678706E3,1.9702055E1,2.671866E3,9.1735E3,2.9686245E3,2.3731531E4,2.7246826E3,4.588136E3,3.4193125E4],"tree_param":{"num_deleted":"0","num_feature":"20","num_nodes":"31","size_leaf_vector":"1"}},{"base_weights":[-1.4240446E-3,-3.272348E-2,3.4704976E-2,-2.2358508E-1,1.8002496E-3,-3.040561E-2,6.333615E-2,-4.808135E-1,-1.1857089E-1,1.0641818E-1,-4.3049604E-2,2.5788894E-2,-1.2938432E-1,3.775975E-3,1.0830778E-1,-7.2638616E-2,-1.9297032E-1,-1.3612358E-2,-9.7147524E-2,-5.124663E-2,4.9191996E-2,-2.142597E-2,2.6459647E-2,-4.2009957E-2,2.515728E-2,-5.7728365E-2,1.8060112E-2,2.86594E-2,-9.960435E-3,2.0312682E-2,6.6947505E-2],"categories":[],"categories_nodes":[],"categories_segments":[],"categories_sizes":[],"default_left":[0,0,0,0,0,0,0,0,0,0,0,0,0,0,0,0,0,0,0,0,0,0,0,0,0,0,0,0,0,0,0],"id":20,"left_children":[1,3,5,7,9,11,13,15,17,19,21,23,25,27,29,-1,-1,-1,-1,-1,-1,-1,-1,-1,-1,-1,-1,-1,-1,-1,-1],"loss_changes":[1.1067232E2,3.4553806E2,8.469159E1,2.1692242E2,2.0837155E2,7.7182945E1,8.451919E1,9.0106384E1,8.569966E1,2.126582E2,1.15747536E2,8.524662E1,6.0073914E1,4.6066376E1,8.3818115E1,0E0,0E0,0E0,0E0,0E0,0E0,0E0,0E0,0E0,0E0,0E0,0E0,0E0,0E0,0E0,0E0],"parents":[2147483647,0,0,1,1,2,2,3,3,4,4,5,5,6,6,7,7,8,8,9,9,10,10,11,11,12,12,13,13,14,14],"right_children":[2,4,6,8,10,12,14,16,18,20,22,24,26,28,30,-1,-1,-1,-1,-1,-1,-1,-1,-1,-1,-1,-1,-1,-1,-1,-1],"split_conditions":[7E1,3E0,1E0,5.8E1,5E0,8E0,2E0,6.6E1,5.7E1,3E0,9E0,6.6E1,6E0,2E0,1E-2,-7.2638616E-2,-1.9297032E-1,-1.3612358E-2,-9.7147524E-2,-5.124663E-2,4.9191996E-2,-2.142597E-2,2.6459647E-2,-4.2009957E-2,2.515728E-2,-5.7728365E-2,1.8060112E-2,2.86594E-2,-9.960435E-3,2.0312682E-2,6.6947505E-2],"split_indices":[17,8,8,17,8,5,2,13,14,4,8,13,4,4,12,0,0,0,0,0,0,0,0,0,0,0,0,0,0,0,0],"split_type":[0,0,0,0,0,0,0,0,0,0,0,0,0,0,0,0,0,0,0,0,0,0,0,0,0,0,0,0,0,0,0],"sum_hessian":[9.786726E4,5.2438566E4,4.5428688E4,8.031515E3,4.4407055E4,1.3875084E4,3.1553605E4,2.3273003E3,5.704215E3,1.3324532E4,3.1082521E4,8.850826E3,5.024258E3,1.3575446E4,1.7978158E4,9.4340906E2,1.3838912E3,4.205647E3,1.4985682E3,2.2903003E3,1.1034231E4,2.5558354E4,5.5241675E3,2.2951995E3,6.5556265E3,3.7704397E3,1.253818E3,3.8989795E3,9.676467E3,1.3283963E4,4.6941953E3],"tree_param":{"num_deleted":"0","num_feature":"20","num_nodes":"31","size_leaf_vector":"1"}},{"base_weights":[-1.4842706E-3,-2.6000394E-2,4.4537343E-2,-1.5496458E-1,-1.5791956E-2,-7.1336776E-3,8.174647E-2,-1.8854295E-1,9.92296E-2,-7.866157E-2,4.827768E-3,7.479863E-2,-5.1275406E-2,5.4669774E-1,7.479873E-2,-4.0991068E-2,-9.973398E-2,1.5116068E-2,1.0616934E0,6.7918547E-3,-3.105784E-2,9.514499E-3,-2.7883817E-2,7.3029124E-3,6.32818E-2,-2.3819065E-2,4.9961027E-2,2.0782474E-1,-6.821908E-2,1.8826555E-2,9.327835E-2],"categories":[],"categories_nodes":[],"categories_segments":[],"categories_sizes":[],"default_left":[0,0,0,0,0,0,0,0,0,0,0,0,0,0,0,0,0,0,0,0,0,0,0,0,0,0,0,0,0,0,0],"id":21,"left_children":[1,3,5,7,9,11,13,15,17,19,21,23,25,27,29,-1,-1,-1,-1,-1,-1,-1,-1,-1,-1,-1,-1,-1,-1,-1,-1],"loss_changes":[1.1021307E2,8.390259E1,6.5275505E1,3.9919327E1,7.65612E1,5.1411423E1,6.3718613E1,3.080043E1,9.157301E1,3.674169E1,1.1691806E2,3.418329E1,5.659809E1,3.299359E1,5.5287758E1,0E0,0E0,0E0,0E0,0E0,0E0,0E0,0E0,0E0,0E0,0E0,0E0,0E0,0E0,0E0,0E0],"parents":[2147483647,0,0,1,1,2,2,3,3,4,4,5,5,6,6,7,7,8,8,9,9,10,10,11,11,12,12,13,13,14,14],"right_children":[2,4,6,8,10,12,14,16,18,20,22,24,26,28,30,-1,-1,-1,-1,-1,-1,-1,-1,-1,-1,-1,-1,-1,-1,-1,-1],"split_conditions":[1E0,2E0,3E0,1.387E1,1.1E1,1E0,7E0,2.1E1,7.7E1,6.2E1,7E0,8.5E1,7.7E-1,5.9E0,1.29E0,-4.0991068E-2,-9.973398E-2,1.5116068E-2,1.0616934E0,6.7918547E-3,-3.105784E-2,9.514499E-3,-2.7883817E-2,7.3029124E-3,6.32818E-2,-2.3819065E-2,4.9961027E-2,2.0782474E-1,-6.821908E-2,1.8826555E-2,9.327835E-2],"split_indices":[1,5,7,16,6,7,14,9,13,13,8,17,12,19,12,0,0,0,0,0,0,0,0,0,0,0,0,0,0,0,0],"split_type":[0,0,0,0,0,0,0,0,0,0,0,0,0,0,0,0,0,0,0,0,0,0,0,0,0,0,0,0,0,0,0],"sum_hessian":[9.768108E4,6.373129E4,3.394979E4,4.6737075E3,5.9057582E4,1.4213209E4,1.9736582E4,4.1285903E3,5.451174E2,1.4585013E4,4.447257E4,4.976163E3,9.237046E3,2.8943665E2,1.9447145E4,3.0355986E3,1.0929916E3,5.384858E2,6.63158E0,2.8744133E3,1.17106E4,3.4881137E4,9.591434E3,3.6314697E3,1.3446934E3,8.1813916E3,1.0556545E3,2.4358385E2,4.5852795E1,1.85046E4,9.425446E2],"tree_param":{"num_deleted":"0","num_feature":"20","num_nodes":"31","size_leaf_vector":"1"}},{"base_weights":[-1.2511127E-3,-2.7794873E-2,3.3758644E-2,-1.4580323E-1,-1.8516336E-2,3.423628E-1,2.9795498E-2,1.6169015E-1,-1.7022012E-1,-1.4033344E-2,-2.8168955E-1,5.087386E-1,-1.2670742E-1,-5.2467536E-2,4.539528E-2,1.2124634E-1,-3.578876E-2,-6.3462235E-2,-2.1729577E-2,3.7095048E-2,-6.5144217E-3,-1.09287776E-1,-8.768191E-3,3.639812E-2,2.0100187E-1,5.6066338E-2,-1.4204313E-1,2.1983966E-2,-2.73114E-2,2.7755795E-2,-4.010676E-3],"categories":[],"categories_nodes":[],"categories_segments":[],"categories_sizes":[],"default_left":[0,0,0,0,0,0,0,0,0,0,0,0,0,0,0,0,0,0,0,0,0,0,0,0,0,0,0,0,0,0,0],"id":22,"left_children":[1,3,5,7,9,11,13,15,17,19,21,23,25,27,29,-1,-1,-1,-1,-1,-1,-1,-1,-1,-1,-1,-1,-1,-1,-1,-1],"loss_changes":[9.058272E1,6.070197E1,5.1399517E1,3.0368958E1,6.0638702E1,4.165077E1,5.3261803E1,2.0337215E1,1.5114555E1,5.3454678E1,1.7941856E1,2.4506592E1,1.5347599E1,3.2095833E1,9.661127E1,0E0,0E0,0E0,0E0,0E0,0E0,0E0,0E0,0E0,0E0,0E0,0E0,0E0,0E0,0E0,0E0],"parents":[2147483647,0,0,1,1,2,2,3,3,4,4,5,5,6,6,7,7,8,8,9,9,10,10,11,11,12,12,13,13,14,14],"right_children":[2,4,6,8,10,12,14,16,18,20,22,24,26,28,30,-1,-1,-1,-1,-1,-1,-1,-1,-1,-1,-1,-1,-1,-1,-1,-1],"split_conditions":[4E0,8E0,8E0,4E0,1.7E1,3.9E0,3E0,2E0,7.9E1,3.9E1,1.2E-1,1.2E0,1.5E1,2.8E1,8E0,1.2124634E-1,-3.578876E-2,-6.3462235E-2,-2.1729577E-2,3.7095048E-2,-6.5144217E-3,-1.09287776E-1,-8.768191E-3,3.639812E-2,2.0100187E-1,5.6066338E-2,-1.4204313E-1,2.1983966E-2,-2.73114E-2,2.7755795E-2,-4.010676E-3],"split_indices":[7,6,14,6,4,19,5,7,17,13,12,19,13,14,5,0,0,0,0,0,0,0,0,0,0,0,0,0,0,0,0],"split_type":[0,0,0,0,0,0,0,0,0,0,0,0,0,0,0,0,0,0,0,0,0,0,0,0,0,0,0,0,0,0,0],"sum_hessian":[9.747311E4,5.543984E4,4.203327E4,4.040197E3,5.139964E4,5.318713E2,4.15014E4,2.968024E2,3.7433945E3,5.053978E4,8.5986035E2,3.9255154E2,1.3931975E2,6.6151367E3,3.488626E4,1.5908702E2,1.3771538E2,2.6306453E3,1.1127491E3,2.6698335E3,4.786995E4,6.475469E2,2.1231346E2,1.1589369E2,2.7665787E2,7.340146E1,6.59183E1,1.5525648E3,5.0625723E3,1.9360314E4,1.5525947E4],"tree_param":{"num_deleted":"0","num_feature":"20","num_nodes":"31","size_leaf_vector":"1"}},{"base_weights":[-1.0433482E-3,-2.536148E-1,2.3224645E-3,-5.0645834E-1,-1.9134445E-1,-1.567182E-2,4.137059E-2,4.4094142E-1,-5.559703E-1,-1.3422288E-2,-2.688945E-1,-2.4830563E-2,1.4115833E-1,7.184681E-2,-5.1301584E-2,1.4473653E-2,5.8949816E-1,-4.67069E-3,-1.7629588E-1,-8.044237E-2,9.0375975E-2,-6.511029E-2,-1.6138203E-1,-2.6073022E-2,-2.8822117E-3,1.7704217E-2,1.3864942E-1,1.357588E-2,1.0171208E-1,-3.519954E-2,1.9054195E-2],"categories":[],"categories_nodes":[],"categories_segments":[],"categories_sizes":[],"default_left":[0,0,0,0,0,0,0,0,0,0,0,0,0,0,0,0,0,0,0,0,0,0,0,0,0,0,0,0,0,0,0],"id":23,"left_children":[1,3,5,7,9,11,13,15,17,19,21,23,25,27,29,-1,-1,-1,-1,-1,-1,-1,-1,-1,-1,-1,-1,-1,-1,-1,-1],"loss_changes":[8.275553E1,2.0059448E1,6.7501564E1,1.2083557E1,1.4192017E1,9.4463425E1,8.5594284E1,7.740661E0,4.104843E0,2.5197691E1,9.879963E0,5.872004E1,9.565861E1,1.6203563E2,5.6869854E1,0E0,0E0,0E0,0E0,0E0,0E0,0E0,0E0,0E0,0E0,0E0,0E0,0E0,0E0,0E0,0E0],"parents":[2147483647,0,0,1,1,2,2,3,3,4,4,5,5,6,6,7,7,8,8,9,9,10,10,11,11,12,12,13,13,14,14],"right_children":[2,4,6,8,10,12,14,16,18,20,22,24,26,28,30,-1,-1,-1,-1,-1,-1,-1,-1,-1,-1,-1,-1,-1,-1,-1,-1],"split_conditions":[2.4E1,1.4E1,1.8E1,7E0,4E0,9E0,7E0,6E0,1.96E2,2E0,1.9E1,4.6E1,1E-2,6E0,7.2E1,1.4473653E-2,5.8949816E-1,-4.67069E-3,-1.7629588E-1,-8.044237E-2,9.0375975E-2,-6.511029E-2,-1.6138203E-1,-2.6073022E-2,-2.8822117E-3,1.7704217E-2,1.3864942E-1,1.357588E-2,1.0171208E-1,-3.519954E-2,1.9054195E-2],"split_indices":[17,17,6,6,8,8,8,7,15,2,6,17,12,8,17,0,0,0,0,0,0,0,0,0,0,0,0,0,0,0,0],"split_type":[0,0,0,0,0,0,0,0,0,0,0,0,0,0,0,0,0,0,0,0,0,0,0,0,0,0,0,0,0,0,0],"sum_hessian":[9.734536E4,1.2792041E3,9.606616E4,2.5137674E2,1.0278274E3,6.576207E4,3.030409E4,1.2092073E1,2.3928467E2,3.1235892E2,7.1546844E2,6.213432E4,3.6277488E3,2.2804736E4,7.4993535E3,1.0434991E1,1.6570826E0,1.3334442E1,2.2595023E2,1.7270671E2,1.396522E2,6.013594E2,1.1410906E2,1.223516E4,4.9899156E4,2.8895166E3,7.3823206E2,2.0741494E4,2.063241E3,4.7611836E3,2.7381697E3],"tree_param":{"num_deleted":"0","num_feature":"20","num_nodes":"31","size_leaf_vector":"1"}},{"base_weights":[-9.171724E-4,3.5595112E-3,-1.3922387E-1,-8.989347E-2,1.08460365E-2,1.8125166E-1,-1.687955E-1,1.594046E-1,-1.1114567E-1,-1.749636E-1,1.52414255E-2,2.6794946E-1,-2.2012931E-1,-2.828321E-1,-1.0499496E-1,-4.5006126E-2,8.3860174E-2,-5.5599343E-2,-1.4698638E-2,-3.7875686E-2,-1.09367214E-1,2.1918317E-2,-1.7610817E-3,1.605336E-1,3.499509E-2,-1.8412909E-1,2.3033129E-2,-6.1897676E-2,-1.4832106E-1,-6.29947E-2,-1.1427218E-2],"categories":[],"categories_nodes":[],"categories_segments":[],"categories_sizes":[],"default_left":[0,0,0,0,0,0,0,0,0,0,0,0,0,0,0,0,0,0,0,0,0,0,0,0,0,0,0,0,0,0,0],"id":24,"left_children":[1,3,5,7,9,11,13,15,17,19,21,23,25,27,29,-1,-1,-1,-1,-1,-1,-1,-1,-1,-1,-1,-1,-1,-1,-1,-1],"loss_changes":[6.0176094E1,6.410783E1,2.8908981E1,3.609562E1,7.1329704E1,9.033875E0,2.0271454E1,1.9940058E1,2.8923782E1,1.859351E1,1.0414534E2,8.5290165E0,5.4654903E0,1.609195E1,1.2571125E1,0E0,0E0,0E0,0E0,0E0,0E0,0E0,0E0,0E0,0E0,0E0,0E0,0E0,0E0,0E0,0E0],"parents":[2147483647,0,0,1,1,2,2,3,3,4,4,5,5,6,6,7,7,8,8,9,9,10,10,11,11,12,12,13,13,14,14],"right_children":[2,4,6,8,10,12,14,16,18,20,22,24,26,28,30,-1,-1,-1,-1,-1,-1,-1,-1,-1,-1,-1,-1,-1,-1,-1,-1],"split_conditions":[1.6E1,8E0,9E0,4E0,1E0,9E1,7.1E1,4E0,7E0,2E1,4E0,1.7E1,8.05E0,7E0,6E0,-4.5006126E-2,8.3860174E-2,-5.5599343E-2,-1.4698638E-2,-3.7875686E-2,-1.09367214E-1,2.1918317E-2,-1.7610817E-3,1.605336E-1,3.499509E-2,-1.8412909E-1,2.3033129E-2,-6.1897676E-2,-1.4832106E-1,-6.29947E-2,-1.1427218E-2],"split_indices":[4,6,6,6,4,13,17,5,6,6,4,4,16,8,5,0,0,0,0,0,0,0,0,0,0,0,0,0,0,0,0],"split_type":[0,0,0,0,0,0,0,0,0,0,0,0,0,0,0,0,0,0,0,0,0,0,0,0,0,0,0,0,0,0,0],"sum_hessian":[9.718882E4,9.414261E4,3.0462146E3,6.8085493E3,8.733406E4,2.569077E2,2.789307E3,5.343129E2,6.2742363E3,2.017279E3,8.531678E4,2.1154639E2,4.5361336E1,9.994553E2,1.7898516E3,1.493565E2,3.849564E2,2.8592803E3,3.4149563E3,1.6062577E3,4.1102136E2,2.2818951E4,6.249783E4,7.5569595E1,1.3597679E2,1.9044806E1,2.6316528E1,7.354749E2,2.6398044E2,6.9581964E2,1.0940319E3],"tree_param":{"num_deleted":"0","num_feature":"20","num_nodes":"31","size_leaf_vector":"1"}},{"base_weights":[-7.9576165E-4,-4.1010547E-3,1.9215773E-1,-9.878337E-3,9.615376E-2,1.578087E-1,1.1457173E0,3.6605784E-1,-1.1506625E-2,8.6506054E-2,9.383349E-1,1.3754626E-1,1.2432619E0,2.5123397E-1,1.2854139E0,7.8656465E-2,3.448238E-1,-1.5864111E-2,5.2130956E-4,-2.3348313E-2,3.7351523E-2,4.9880385E-1,9.551995E-2,-7.649586E-2,5.8193572E-2,7.6855814E-1,2.0390604E-1,3.1576946E-1,-7.551323E-2,3.050821E-1,4.9236348E-1],"categories":[],"categories_nodes":[],"categories_segments":[],"categories_sizes":[],"default_left":[0,0,0,0,0,0,0,0,0,0,0,0,0,0,0,0,0,0,0,0,0,0,0,0,0,0,0,0,0,0,0],"id":25,"left_children":[1,3,5,7,9,11,13,15,17,19,21,23,25,27,29,-1,-1,-1,-1,-1,-1,-1,-1,-1,-1,-1,-1,-1,-1,-1,-1],"loss_changes":[6.1929127E1,5.529567E1,5.338351E1,5.525932E1,4.2183563E1,3.457191E1,6.762169E0,3.137595E1,4.9250446E1,3.2131073E1,2.5880241E1,3.4424973E1,1.9678062E1,3.8526926E0,2.9923553E0,0E0,0E0,0E0,0E0,0E0,0E0,0E0,0E0,0E0,0E0,0E0,0E0,0E0,0E0,0E0,0E0],"parents":[2147483647,0,0,1,1,2,2,3,3,4,4,5,5,6,6,7,7,8,8,9,9,10,10,11,11,12,12,13,13,14,14],"right_children":[2,4,6,8,10,12,14,16,18,20,22,24,26,28,30,-1,-1,-1,-1,-1,-1,-1,-1,-1,-1,-1,-1,-1,-1,-1,-1],"split_conditions":[3.1E0,6.2E-1,8E0,2.4E1,3.67E0,1.834E1,3.1E1,1.2E1,4E0,6.93E0,1.81E1,5E1,3E0,1.1E1,4E1,7.8656465E-2,3.448238E-1,-1.5864111E-2,5.2130956E-4,-2.3348313E-2,3.7351523E-2,4.9880385E-1,9.551995E-2,-7.649586E-2,5.8193572E-2,7.6855814E-1,2.0390604E-1,3.1576946E-1,-7.551323E-2,3.050821E-1,4.9236348E-1],"split_indices":[19,12,8,13,12,16,17,5,5,16,9,17,8,6,17,0,0,0,0,0,0,0,0,0,0,0,0,0,0,0,0],"split_type":[0,0,0,0,0,0,0,0,0,0,0,0,0,0,0,0,0,0,0,0,0,0,0,0,0,0,0,0,0,0,0],"sum_hessian":[9.7100695E4,9.5466336E4,1.6343595E3,9.026559E4,5.2007427E3,1.5786587E3,5.570079E1,3.8831503E2,8.987727E4,5.14293E3,5.7812695E1,1.5508356E3,2.7823147E1,7.9020524E0,4.779874E1,3.4403244E2,4.4282597E1,2.1793598E4,6.808368E4,9.6566864E2,4.177261E3,2.5885515E1,3.192718E1,1.9448895E2,1.3563466E3,7.269335E0,2.0553812E1,2.62573E0,5.2763224E0,2.9441397E1,1.8357342E1],"tree_param":{"num_deleted":"0","num_feature":"20","num_nodes":"31","size_leaf_vector":"1"}},{"base_weights":[-6.055221E-4,-5.0654195E-2,1.108002E-2,-5.5135857E-2,2.094579E-1,-2.6456917E-2,2.842192E-2,-1.280708E-1,-4.096737E-2,2.685829E-1,-6.526577E-1,-4.1395385E-2,9.515878E-2,5.9310063E-3,9.7229876E-2,-2.123047E-2,-7.109699E-2,-2.7383463E-2,-4.5779482E-3,5.5744138E-2,3.0970675E-1,-3.2330963E-1,-9.850118E-2,-8.175097E-3,-6.186176E-2,2.0298135E-2,1.942062E-1,-1.7951863E-2,1.1136373E-2,2.583163E-2,1.6528726E-1],"categories":[],"categories_nodes":[],"categories_segments":[],"categories_sizes":[],"default_left":[0,0,0,0,0,0,0,0,0,0,0,0,0,0,0,0,0,0,0,0,0,0,0,0,0,0,0,0,0,0,0],"id":26,"left_children":[1,3,5,7,9,11,13,15,17,19,21,23,25,27,29,-1,-1,-1,-1,-1,-1,-1,-1,-1,-1,-1,-1,-1,-1,-1,-1],"loss_changes":[5.673061E1,2.1415726E1,5.1192314E1,1.8648151E1,1.6038319E1,4.5152027E1,8.324217E1,1.8306198E1,1.954937E1,1.8263828E1,2.4396353E0,5.159224E1,4.1241196E1,8.316623E1,6.683528E1,0E0,0E0,0E0,0E0,0E0,0E0,0E0,0E0,0E0,0E0,0E0,0E0,0E0,0E0,0E0,0E0],"parents":[2147483647,0,0,1,1,2,2,3,3,4,4,5,5,6,6,7,7,8,8,9,9,10,10,11,11,12,12,13,13,14,14],"right_children":[2,4,6,8,10,12,14,16,18,20,22,24,26,28,30,-1,-1,-1,-1,-1,-1,-1,-1,-1,-1,-1,-1,-1,-1,-1,-1],"split_conditions":[1E0,1.857E1,4E0,4.1E1,8.8E1,3E1,8.7E1,1.199E3,1E1,4.29E1,7.17E2,1.02E2,1.02E0,3E0,1.32E0,-2.123047E-2,-7.109699E-2,-2.7383463E-2,-4.5779482E-3,5.5744138E-2,3.0970675E-1,-3.2330963E-1,-9.850118E-2,-8.175097E-3,-6.186176E-2,2.0298135E-2,1.942062E-1,-1.7951863E-2,1.1136373E-2,2.583163E-2,1.6528726E-1],"split_indices":[2,16,5,17,13,9,17,15,5,9,15,17,12,8,12,0,0,0,0,0,0,0,0,0,0,0,0,0,0,0,0],"split_type":[0,0,0,0,0,0,0,0,0,0,0,0,0,0,0,0,0,0,0,0,0,0,0,0,0,0,0,0,0,0,0],"sum_hessian":[9.699899E4,1.836011E4,7.863888E4,1.8049902E4,3.1020697E2,2.484999E4,5.3788895E4,2.9347388E3,1.5115163E4,2.9094223E2,1.9264732E1,2.213209E4,2.7179E3,4.0539152E4,1.3249744E4,1.9241102E3,1.01062854E3,5.1107134E3,1.0004449E4,2.636176E2,2.732463E1,7.332333E0,1.19324E1,2.0383793E4,1.7482985E3,2.590043E3,1.2785699E2,1.3040292E4,2.749886E4,1.2933824E4,3.1592035E2],"tree_param":{"num_deleted":"0","num_feature":"20","num_nodes":"31","size_leaf_vector":"1"}},{"base_weights":[-5.4433366E-4,-2.2643216E-1,1.6203122E-3,-4.086745E-1,-1.6777597E-1,-1.724174E-2,2.6263902E-2,3.4608176E-1,-4.5630074E-1,-1.593137E-2,-2.4918702E-1,2.7880061E-2,-3.3172328E-2,2.067367E-2,1.4636381E-1,3.4050354E-1,-2.7262544E-2,-1.441883E-1,1.0467355E-1,-4.7070093E-2,6.036283E-2,-8.303109E-2,7.028058E-2,-1.0464018E-1,9.611967E-3,-1.5817141E-2,1.5346004E-2,4.870256E-3,5.6762233E-2,6.447562E-2,-5.743448E-2],"categories":[],"categories_nodes":[],"categories_segments":[],"categories_sizes":[],"default_left":[0,0,0,0,0,0,0,0,0,0,0,0,0,0,0,0,0,0,0,0,0,0,0,0,0,0,0,0,0,0,0],"id":27,"left_children":[1,3,5,7,9,11,13,15,17,19,21,23,25,27,29,-1,-1,-1,-1,-1,-1,-1,-1,-1,-1,-1,-1,-1,-1,-1,-1],"loss_changes":[4.7378395E1,9.76284E0,4.4612556E1,8.1826935E0,8.618032E0,3.9079727E1,2.7933989E1,4.8671365E0,4.289562E0,7.515732E0,6.1186543E0,2.2240044E1,6.624736E1,2.9746513E1,4.2897087E1,0E0,0E0,0E0,0E0,0E0,0E0,0E0,0E0,0E0,0E0,0E0,0E0,0E0,0E0,0E0,0E0],"parents":[2147483647,0,0,1,1,2,2,3,3,4,4,5,5,6,6,7,7,8,8,9,9,10,10,11,11,12,12,13,13,14,14],"right_children":[2,4,6,8,10,12,14,16,18,20,22,24,26,28,30,-1,-1,-1,-1,-1,-1,-1,-1,-1,-1,-1,-1,-1,-1,-1,-1],"split_conditions":[2.2E1,1.4E1,4E0,7E0,4E0,1E0,1.633E1,7.62E2,7.9E0,7.4E1,2.475E3,2.8E1,1.5E1,8.1E1,8.4E1,3.4050354E-1,-2.7262544E-2,-1.441883E-1,1.0467355E-1,-4.7070093E-2,6.036283E-2,-8.303109E-2,7.028058E-2,-1.0464018E-1,9.611967E-3,-1.5817141E-2,1.5346004E-2,4.870256E-3,5.6762233E-2,6.447562E-2,-5.743448E-2],"split_indices":[17,17,7,6,4,7,16,15,19,13,15,17,4,14,13,0,0,0,0,0,0,0,0,0,0,0,0,0,0,0,0],"split_type":[0,0,0,0,0,0,0,0,0,0,0,0,0,0,0,0,0,0,0,0,0,0,0,0,0,0,0,0,0,0,0],"sum_hessian":[9.6893086E4,9.1871375E2,9.5974375E4,2.222439E2,6.9646985E2,5.4364453E4,4.1609918E4,1.2819551E1,2.0942435E2,2.4349971E2,4.5297015E2,1.418529E4,4.0179164E4,3.9760383E4,1.8495354E3,3.999991E0,8.81956E0,2.0367409E2,5.750254E0,1.4781493E2,9.568479E1,4.289256E2,2.4044563E1,1.5403749E2,1.4031252E4,3.2617057E4,7.5621084E3,3.8740973E4,1.0194109E3,1.5378176E3,3.117178E2],"tree_param":{"num_deleted":"0","num_feature":"20","num_nodes":"31","size_leaf_vector":"1"}},{"base_weights":[-4.7967597E-4,-6.4269556E-3,7.12259E-2,-2.6935516E-2,2.5805822E-2,1.2964082E-1,-3.587792E-2,-1.1163404E-1,-2.9540386E-3,3.5509944E-2,-1.2649615E-1,4.8045313E-1,1.1285764E-1,1.20252386E-1,-1.2367224E-1,-9.071802E-2,-8.123145E-3,2.2787772E-2,-1.059694E-2,-1.0002354E-2,1.7622527E-2,2.265086E-2,-5.5513043E-2,1.9045804E-1,-1.3127631E-1,2.324659E-2,9.041429E-2,7.3058665E-1,3.086635E-2,-5.146267E-2,3.1993106E-2],"categories":[],"categories_nodes":[],"categories_segments":[],"categories_sizes":[],"default_left":[0,0,0,0,0,0,0,0,0,0,0,0,0,0,0,0,0,0,0,0,0,0,0,0,0,0,0,0,0,0,0],"id":28,"left_children":[1,3,5,7,9,11,13,15,17,19,21,23,25,27,29,-1,-1,-1,-1,-1,-1,-1,-1,-1,-1,-1,-1,-1,-1,-1,-1],"loss_changes":[4.1291267E1,5.910444E1,4.6400246E1,1.1098981E2,5.138926E1,2.8199425E1,3.589948E1,1.944798E2,1.08782875E2,5.228384E1,2.4645962E1,3.1291203E1,3.0521774E1,3.764782E1,1.8498266E1,0E0,0E0,0E0,0E0,0E0,0E0,0E0,0E0,0E0,0E0,0E0,0E0,0E0,0E0,0E0,0E0],"parents":[2147483647,0,0,1,1,2,2,3,3,4,4,5,5,6,6,7,7,8,8,9,9,10,10,11,11,12,12,13,13,14,14],"right_children":[2,4,6,8,10,12,14,16,18,20,22,24,26,28,30,-1,-1,-1,-1,-1,-1,-1,-1,-1,-1,-1,-1,-1,-1,-1,-1],"split_conditions":[1.2E1,7.6E1,7.6E1,3E0,1.1E1,3.2E1,3.2E1,6.4E1,5E0,4E0,5E1,1E0,2.4E-1,1.01E1,5.3E1,-9.071802E-2,-8.123145E-3,2.2787772E-2,-1.059694E-2,-1.0002354E-2,1.7622527E-2,2.265086E-2,-5.5513043E-2,1.9045804E-1,-1.3127631E-1,2.324659E-2,9.041429E-2,7.3058665E-1,3.086635E-2,-5.146267E-2,3.1993106E-2],"split_indices":[5,17,17,8,5,13,14,17,8,5,13,11,12,9,14,0,0,0,0,0,0,0,0,0,0,0,0,0,0,0,0],"split_type":[0,0,0,0,0,0,0,0,0,0,0,0,0,0,0,0,0,0,0,0,0,0,0,0,0,0,0,0,0,0,0],"sum_hessian":[9.6822805E4,8.940818E4,7.414629E3,5.4641754E4,3.4766426E4,4.797719E3,2.6169094E3,1.2056518E4,4.258524E4,3.2684645E4,2.081779E3,2.1778651E2,4.579933E3,9.417553E2,1.675154E3,3.7020835E3,8.354434E3,1.2386525E4,3.019871E4,8.245973E3,2.4438672E4,4.6773114E2,1.614048E3,1.8669449E2,3.1092026E1,3.857614E3,7.2231885E2,5.974637E0,9.357807E2,1.3871062E3,2.8804782E2],"tree_param":{"num_deleted":"0","num_feature":"20","num_nodes":"31","size_leaf_vector":"1"}},{"base_weights":[-5.4693595E-4,-1.643485E-2,2.8984556E-2,3.6136914E-2,-2.9227933E-2,1.1523769E-1,1.8832773E-2,8.5311554E-2,-5.7438187E-2,-1.0909074E-1,-1.6980382E-2,8.916635E-2,5.856234E-1,-4.3603446E-2,3.3978976E-2,9.328985E-3,9.963935E-2,-2.6911141E-2,6.2816784E-2,-6.264225E-2,-1.9829772E-2,9.232984E-3,-1.0763579E-2,-6.383329E-2,4.308563E-2,1.527844E-1,4.8403078E-1,-1.0969312E-2,-2.1202834E-1,9.054165E-3,1.0517118E-1],"categories":[],"categories_nodes":[],"categories_segments":[],"categories_sizes":[],"default_left":[0,0,0,0,0,0,0,0,0,0,0,0,0,0,0,0,0,0,0,0,0,0,0,0,0,0,0,0,0,0,0],"id":29,"left_children":[1,3,5,7,9,11,13,15,17,19,21,23,25,27,29,-1,-1,-1,-1,-1,-1,-1,-1,-1,-1,-1,-1,-1,-1,-1,-1],"loss_changes":[4.5381664E1,4.2297104E1,2.9623688E1,5.66445E1,4.947234E1,4.3638638E1,2.8629211E1,1.0796486E2,3.6529144E1,2.8817528E1,3.9582447E1,5.554943E1,1.3844421E1,2.7564133E1,2.928707E1,0E0,0E0,0E0,0E0,0E0,0E0,0E0,0E0,0E0,0E0,0E0,0E0,0E0,0E0,0E0,0E0],"parents":[2147483647,0,0,1,1,2,2,3,3,4,4,5,5,6,6,7,7,8,8,9,9,10,10,11,11,12,12,13,13,14,14],"right_children":[2,4,6,8,10,12,14,16,18,20,22,24,26,28,30,-1,-1,-1,-1,-1,-1,-1,-1,-1,-1,-1,-1,-1,-1,-1,-1],"split_conditions":[1E0,6E1,4.1E1,7E0,4.6E1,8E0,5.6E1,4E0,9E0,5.77E2,4E0,6.26E0,2.59E1,1.21E2,1.28E2,9.328985E-3,9.963935E-2,-2.6911141E-2,6.2816784E-2,-6.264225E-2,-1.9829772E-2,9.232984E-3,-1.0763579E-2,-6.383329E-2,4.308563E-2,1.527844E-1,4.8403078E-1,-1.0969312E-2,-2.1202834E-1,9.054165E-3,1.0517118E-1],"split_indices":[1,13,13,8,14,8,13,8,8,15,4,16,9,17,17,0,0,0,0,0,0,0,0,0,0,0,0,0,0,0,0],"split_type":[0,0,0,0,0,0,0,0,0,0,0,0,0,0,0,0,0,0,0,0,0,0,0,0,0,0,0,0,0,0,0],"sum_hessian":[9.672063E4,6.2887605E4,3.3833027E4,1.2307885E4,5.057972E4,3.5616487E3,3.0271379E4,8.068105E3,4.2397803E3,6.724335E3,4.3855387E4,3.3757363E3,1.8591222E2,5.909431E3,2.4361947E4,6.6159995E3,1.4521055E3,3.7829927E3,4.567875E2,2.0245743E3,4.6997603E3,1.2433785E4,3.14216E4,5.153213E2,2.860415E3,1.7445021E2,1.1462002E1,5.8484087E3,6.1022667E1,2.4074203E4,2.8774387E2],"tree_param":{"num_deleted":"0","num_feature":"20","num_nodes":"31","size_leaf_vector":"1"}},{"base_weights":[-5.290801E-4,-1.366256E-1,2.3144206E-3,7.163636E-2,-1.7925209E-1,5.9279585E-3,-1.090032E-1,-1.0705663E-1,3.319724E-1,-7.0052415E-2,-2.3556171E-1,-5.0447986E-2,1.4196844E-2,1.09040655E-1,-1.3076143E-1,-4.3468826E-2,4.3261194E-1,2.6590857E-1,5.7327732E-2,-6.6810265E-2,1.9685643E-2,-1.1580508E-1,-3.667855E-2,-6.6042016E-3,-3.864774E-2,6.054939E-4,2.237763E-2,5.8890406E-2,-3.3351433E-2,-6.660018E-2,-2.6240949E-2],"categories":[],"categories_nodes":[],"categories_segments":[],"categories_sizes":[],"default_left":[0,0,0,0,0,0,0,0,0,0,0,0,0,0,0,0,0,0,0,0,0,0,0,0,0,0,0,0,0,0,0],"id":30,"left_children":[1,3,5,7,9,11,13,15,17,19,21,23,25,27,29,-1,-1,-1,-1,-1,-1,-1,-1,-1,-1,-1,-1,-1,-1,-1,-1],"loss_changes":[3.7398994E1,1.7570839E1,3.807886E1,1.5701196E1,1.0080547E1,4.2742386E1,1.4134754E1,1.1958259E1,1.0554632E1,1.16140175E1,1.8413857E1,2.6134588E1,5.881276E1,5.221649E0,1.0671894E1,0E0,0E0,0E0,0E0,0E0,0E0,0E0,0E0,0E0,0E0,0E0,0E0,0E0,0E0,0E0,0E0],"parents":[2147483647,0,0,1,1,2,2,3,3,4,4,5,5,6,6,7,7,8,8,9,9,10,10,11,11,12,12,13,13,14,14],"right_children":[2,4,6,8,10,12,14,16,18,20,22,24,26,28,30,-1,-1,-1,-1,-1,-1,-1,-1,-1,-1,-1,-1,-1,-1,-1,-1],"split_conditions":[1E0,3E0,1.6E1,8.8E1,5.6E1,9E0,9E0,1.1E0,6.04E0,5.4E1,9.3E1,1.3E1,1.5E1,7.37E2,6.9E1,-4.3468826E-2,4.3261194E-1,2.6590857E-1,5.7327732E-2,-6.6810265E-2,1.9685643E-2,-1.1580508E-1,-3.667855E-2,-6.6042016E-3,-3.864774E-2,6.054939E-4,2.237763E-2,5.8890406E-2,-3.3351433E-2,-6.660018E-2,-2.6240949E-2],"split_indices":[4,5,4,17,17,6,6,18,16,14,17,4,4,15,17,0,0,0,0,0,0,0,0,0,0,0,0,0,0,0,0],"split_type":[0,0,0,0,0,0,0,0,0,0,0,0,0,0,0,0,0,0,0,0,0,0,0,0,0,0,0,0,0,0,0],"sum_hessian":[9.663877E4,1.9768145E3,9.466196E4,3.357494E2,1.6410651E3,9.168662E4,2.975339E3,1.9944226E2,1.3630713E2,5.590871E2,1.0819779E3,1.1727218E4,7.99594E4,2.6960083E2,2.7057383E3,1.9557155E2,3.87072E0,2.6547205E1,1.09759926E2,2.6278125E2,2.9630588E2,4.6374554E2,6.1823236E2,8.606298E3,3.12092E3,6.654236E4,1.3417044E4,1.9316597E2,7.643487E1,8.693705E2,1.8363678E3],"tree_param":{"num_deleted":"0","num_feature":"20","num_nodes":"31","size_leaf_vector":"1"}},{"base_weights":[-4.5956188E-4,2.3316789E-1,-2.11422E-3,-7.165201E-2,3.618798E-1,-1.0384812E-1,1.4227878E-3,-1.306789E-1,7.15477E-1,2.043759E-1,6.904816E-1,1.3943896E-1,-1.3649972E-1,-6.147621E-2,7.1587153E-3,-7.8376815E-2,2.274846E-2,3.8046113E-1,5.7711717E-2,8.2972944E-2,-1.4780062E-1,1.4484081E-2,2.5202516E-1,6.824202E-2,-6.471805E-2,2.1468632E-2,-4.743466E-2,-4.630134E-3,-4.4068974E-2,7.272312E-3,-4.820241E-3],"categories":[],"categories_nodes":[],"categories_segments":[],"categories_sizes":[],"default_left":[0,0,0,0,0,0,0,0,0,0,0,0,0,0,0,0,0,0,0,0,0,0,0,0,0,0,0,0,0,0,0],"id":31,"left_children":[1,3,5,7,9,11,13,15,17,19,21,23,25,27,29,-1,-1,-1,-1,-1,-1,-1,-1,-1,-1,-1,-1,-1,-1,-1,-1],"loss_changes":[3.731382E1,2.6658867E1,3.4488544E1,9.496046E0,2.4569916E1,2.560043E1,3.3418453E1,5.1189127E0,3.8824534E0,1.645089E1,1.4781807E1,1.1979052E1,1.2783009E1,3.0442818E1,3.3679546E1,0E0,0E0,0E0,0E0,0E0,0E0,0E0,0E0,0E0,0E0,0E0,0E0,0E0,0E0,0E0,0E0],"parents":[2147483647,0,0,1,1,2,2,3,3,4,4,5,5,6,6,7,7,8,8,9,9,10,10,11,11,12,12,13,13,14,14],"right_children":[2,4,6,8,10,12,14,16,18,20,22,24,26,28,30,-1,-1,-1,-1,-1,-1,-1,-1,-1,-1,-1,-1,-1,-1,-1,-1],"split_conditions":[3E0,1E1,1.75E2,1.521E1,1.7E1,3E1,3.6E1,7.9E1,1E1,1.32E1,1.41E1,2E1,8.6E1,1.211E3,1.1E1,-7.8376815E-2,2.274846E-2,3.8046113E-1,5.7711717E-2,8.2972944E-2,-1.4780062E-1,1.4484081E-2,2.5202516E-1,6.824202E-2,-6.471805E-2,2.1468632E-2,-4.743466E-2,-4.630134E-3,-4.4068974E-2,7.272312E-3,-4.820241E-3],"split_indices":[14,4,15,16,6,14,17,17,6,16,9,6,15,15,4,0,0,0,0,0,0,0,0,0,0,0,0,0,0,0,0],"split_type":[0,0,0,0,0,0,0,0,0,0,0,0,0,0,0,0,0,0,0,0,0,0,0,0,0,0,0,0,0,0,0],"sum_hessian":[9.652223E4,6.7782367E2,9.58444E4,2.013717E2,4.7645193E2,3.2193328E3,9.262507E4,1.8810005E2,1.3271663E1,3.2317236E2,1.5327957E2,3.80554E2,2.8387788E3,7.7400093E3,8.488506E4,1.1507286E2,7.302719E1,5.760539E0,7.5111237E0,2.9338635E2,2.9786036E1,2.921033E1,1.24069244E2,3.052513E2,7.530268E1,2.669505E2,2.5718281E3,5.02998E3,2.710029E3,4.8911633E4,3.5973426E4],"tree_param":{"num_deleted":"0","num_feature":"20","num_nodes":"31","size_leaf_vector":"1"}},{"base_weights":[-3.8014492E-4,-4.9974737E-3,7.5560674E-2,8.164537E-3,-5.373988E-2,4.37155E-2,3.737512E-1,-3.2109206E-3,1.1400312E-1,-1.2863152E-1,4.2715627E-3,-2.1823025E-1,6.651599E-2,5.131085E-1,-1.0398519E-2,-2.157831E-2,3.645613E-3,6.291081E-2,-1.6062532E-2,-1.0151868E-1,-1.7162034E-2,-6.9506053E-4,2.3443638E-1,3.241995E-1,-7.213745E-2,5.7848703E-2,-1.1665998E-3,7.614331E-3,1.853755E-1,-7.2730415E-2,7.6181814E-2],"categories":[],"categories_nodes":[],"categories_segments":[],"categories_sizes":[],"default_left":[0,0,0,0,0,0,0,0,0,0,0,0,0,0,0,0,0,0,0,0,0,0,0,0,0,0,0,0,0,0,0],"id":32,"left_children":[1,3,5,7,9,11,13,15,17,19,21,23,25,27,29,-1,-1,-1,-1,-1,-1,-1,-1,-1,-1,-1,-1,-1,-1,-1,-1],"loss_changes":[3.383334E1,5.8354824E1,5.250039E1,8.6228264E1,8.40229E1,2.9864704E1,2.8565804E1,6.827302E1,1.11457886E2,1.2645657E2,5.580898E1,1.1821093E1,4.089542E1,1.9997406E1,8.832471E0,0E0,0E0,0E0,0E0,0E0,0E0,0E0,0E0,0E0,0E0,0E0,0E0,0E0,0E0,0E0,0E0],"parents":[2147483647,0,0,1,1,2,2,3,3,4,4,5,5,6,6,7,7,8,8,9,9,10,10,11,11,12,12,13,13,14,14],"right_children":[2,4,6,8,10,12,14,16,18,20,22,24,26,28,30,-1,-1,-1,-1,-1,-1,-1,-1,-1,-1,-1,-1,-1,-1,-1,-1],"split_conditions":[9E0,7E0,2.2E-1,6E0,6.4E1,8E0,1.995E3,4.9E1,1.1E1,8E0,1.2E2,2.64E2,1.3E1,1E1,5E0,-2.157831E-2,3.645613E-3,6.291081E-2,-1.6062532E-2,-1.0151868E-1,-1.7162034E-2,-6.9506053E-4,2.3443638E-1,3.241995E-1,-7.213745E-2,5.7848703E-2,-1.1665998E-3,7.614331E-3,1.853755E-1,-7.2730415E-2,7.6181814E-2],"split_indices":[8,8,12,8,17,6,15,17,4,8,17,15,6,6,4,0,0,0,0,0,0,0,0,0,0,0,0,0,0,0,0],"split_type":[0,0,0,0,0,0,0,0,0,0,0,0,0,0,0,0,0,0,0,0,0,0,0,0,0,0,0,0,0,0,0],"sum_hessian":[9.648715E4,9.09577E4,5.5294463E3,7.1619086E4,1.9338615E4,4.9969453E3,5.325008E2,6.4669434E4,6.9496562E3,8.440665E3,1.089795E4,3.9943417E2,4.597511E3,3.9050302E2,1.419978E2,1.1815659E4,5.2853773E4,4.4230264E3,2.5266296E3,2.1430627E3,6.297602E3,1.080733E4,9.062021E1,5.9193254E0,3.9351483E2,1.644813E3,2.9526982E3,6.929308E1,3.2120993E2,7.566331E1,6.63345E1],"tree_param":{"num_deleted":"0","num_feature":"20","num_nodes":"31","size_leaf_vector":"1"}},{"base_weights":[-4.6083966E-4,-2.9014065E-3,1.4033261E-1,-3.4183036E-3,6.753977E-1,1.3190931E-1,1.9503341E0,-2.4338132E-2,1.1351894E-2,1.12922736E-1,1.3302231E0,1.1653465E-1,9.408619E-1,2.3569598E0,2.5334854E-2,4.1718194E-3,-1.3713264E-2,-2.8419096E-2,6.110504E-3,-7.343023E-2,2.650433E-1,7.6923543E-1,2.127223E-1,8.310627E-2,1.1318656E-2,3.2719943E-1,-1.4480646E-1,2.990306E-2,8.9277637E-1],"categories":[],"categories_nodes":[],"categories_segments":[],"categories_sizes":[],"default_left":[0,0,0,0,0,0,0,0,0,0,0,0,0,0,0,0,0,0,0,0,0,0,0,0,0,0,0,0,0],"id":33,"left_children":[1,3,5,7,9,11,13,15,17,19,21,23,25,27,-1,-1,-1,-1,-1,-1,-1,-1,-1,-1,-1,-1,-1,-1,-1],"loss_changes":[3.313504E1,3.323573E1,2.4793438E1,2.9266584E1,2.6436256E1,2.0244637E1,5.520565E0,3.2040623E1,5.3104836E1,1.1219568E1,2.3673717E1,2.0315702E1,7.0054836E0,8.299435E0,0E0,0E0,0E0,0E0,0E0,0E0,0E0,0E0,0E0,0E0,0E0,0E0,0E0,0E0,0E0],"parents":[2147483647,0,0,1,1,2,2,3,3,4,4,5,5,6,6,7,7,8,8,9,9,10,10,11,11,12,12,13,13],"right_children":[2,4,6,8,10,12,14,16,18,20,22,24,26,28,-1,-1,-1,-1,-1,-1,-1,-1,-1,-1,-1,-1,-1,-1,-1],"split_conditions":[3.1E0,1.14E2,5.7E1,3E0,1.5E1,9.8E1,2E1,1E0,2E0,9.2E1,7E0,3.9E0,3E0,7E0,2.5334854E-2,4.1718194E-3,-1.3713264E-2,-2.8419096E-2,6.110504E-3,-7.343023E-2,2.650433E-1,7.6923543E-1,2.127223E-1,8.310627E-2,1.1318656E-2,3.2719943E-1,-1.4480646E-1,2.990306E-2,8.9277637E-1],"split_indices":[19,13,13,7,4,17,6,7,5,14,5,19,0,4,0,0,0,0,0,0,0,0,0,0,0,0,0,0,0],"split_type":[0,0,0,0,0,0,0,0,0,0,0,0,0,0,0,0,0,0,0,0,0,0,0,0,0,0,0,0,0],"sum_hessian":[9.64283E4,9.478622E4,1.6420807E3,9.471504E4,7.118252E1,1.6355421E3,6.538528E0,3.919723E4,5.5517805E4,3.892209E1,3.2260433E1,1.6061602E3,2.9382042E1,5.1524796E0,1.3860486E0,1.4052379E4,2.5144852E4,4.348338E3,5.116947E4,2.704855E1,1.1873538E1,9.754789E0,2.2505642E1,5.281267E2,1.0780334E3,2.679608E1,2.5859616E0,1.3586552E0,3.7938244E0],"tree_param":{"num_deleted":"0","num_feature":"20","num_nodes":"29","size_leaf_vector":"1"}},{"base_weights":[-3.609946E-4,-4.2248495E-2,7.0166304E-3,-4.609296E-1,-3.12356E-2,-4.247103E-3,5.439387E-2,4.175489E-1,-5.1972365E-1,2.4896713E-1,-4.2240232E-2,2.3146585E-2,-3.63525E-2,3.212757E-2,2.578521E-1,3.3040074E-1,-5.3493734E-2,1.5177825E-1,-1.7093696E-1,5.5409417E-2,3.1718618E-1,-2.2721304E-2,1.7212266E-2,1.3946582E-3,6.4769335E-2,-5.535617E-2,-2.0928408E-3,-1.9111978E-2,2.2836741E-2,-1.6401444E-2,9.920283E-2],"categories":[],"categories_nodes":[],"categories_segments":[],"categories_sizes":[],"default_left":[0,0,0,0,0,0,0,0,0,0,0,0,0,0,0,0,0,0,0,0,0,0,0,0,0,0,0,0,0,0,0],"id":34,"left_children":[1,3,5,7,9,11,13,15,17,19,21,23,25,27,29,-1,-1,-1,-1,-1,-1,-1,-1,-1,-1,-1,-1,-1,-1,-1,-1],"loss_changes":[2.9785614E1,6.653856E1,4.3732567E1,1.9320099E1,4.3380333E1,5.8231785E1,7.130281E1,9.875372E0,1.8112312E1,2.7424286E1,4.5166138E1,1.2738328E2,1.3268428E2,5.983057E1,3.5354317E1,0E0,0E0,0E0,0E0,0E0,0E0,0E0,0E0,0E0,0E0,0E0,0E0,0E0,0E0,0E0,0E0],"parents":[2147483647,0,0,1,1,2,2,3,3,4,4,5,5,6,6,7,7,8,8,9,9,10,10,11,11,12,12,13,13,14,14],"right_children":[2,4,6,8,10,12,14,16,18,20,22,24,26,28,30,-1,-1,-1,-1,-1,-1,-1,-1,-1,-1,-1,-1,-1,-1,-1,-1],"split_conditions":[1E0,6.4E1,1.5E1,3.1E1,3.2E1,7E0,1.464E3,3E-2,3.1E1,3.2E1,6E0,6E0,1E1,4.9E1,1E1,3.3040074E-1,-5.3493734E-2,1.5177825E-1,-1.7093696E-1,5.5409417E-2,3.1718618E-1,-2.2721304E-2,1.7212266E-2,1.3946582E-3,6.4769335E-2,-5.535617E-2,-2.0928408E-3,-1.9111978E-2,2.2836741E-2,-1.6401444E-2,9.920283E-2],"split_indices":[8,17,4,17,14,4,15,12,14,9,4,4,4,17,6,0,0,0,0,0,0,0,0,0,0,0,0,0,0,0,0],"split_type":[0,0,0,0,0,0,0,0,0,0,0,0,0,0,0,0,0,0,0,0,0,0,0,0,0,0,0,0,0,0,0],"sum_hessian":[9.638217E4,1.4432859E4,8.194931E4,3.6886166E2,1.4063997E4,6.620926E4,1.5740054E4,2.2755497E1,3.4610617E2,5.306568E2,1.3533341E4,3.572632E4,3.0482936E4,1.418844E4,1.5516129E3,1.0200965E1,1.2554532E1,1.5684743E1,3.3042142E2,4.9271017E2,3.7946613E1,1.0127871E4,3.4054692E3,3.259893E4,3.1273923E3,5.0428096E3,2.5440125E4,4.464017E3,9.724424E3,2.9327487E2,1.258338E3],"tree_param":{"num_deleted":"0","num_feature":"20","num_nodes":"31","size_leaf_vector":"1"}},{"base_weights":[-4.3888323E-4,-8.862015E-2,2.6857392E-3,-1.8412758E-1,-7.098393E-4,-2.9966664E-1,3.6717912E-3,1.1734867E0,-1.8869211E-1,2.1984215E-1,-1.7729492E-1,7.002909E-1,-3.499035E-1,-1.6301592E-4,8.382673E-2,4.5167637E-1,8.488564E-2,-2.6996085E-2,-7.354746E-2,2.6478726E-1,5.0716646E-2,-6.403138E-2,7.967775E-3,3.3852744E-1,1.4194666E-1,-5.0438374E-2,-1.3458706E-1,-4.147056E-4,8.870946E-2,8.395344E-2,1.14090685E-2],"categories":[],"categories_nodes":[],"categories_segments":[],"categories_sizes":[],"default_left":[0,0,0,0,0,0,0,0,0,0,0,0,0,0,0,0,0,0,0,0,0,0,0,0,0,0,0,0,0,0,0],"id":35,"left_children":[1,3,5,7,9,11,13,15,17,19,21,23,25,27,29,-1,-1,-1,-1,-1,-1,-1,-1,-1,-1,-1,-1,-1,-1,-1,-1],"loss_changes":[2.6523317E1,2.7658438E1,2.7718044E1,1.000555E1,6.688379E1,1.5426926E1,2.8483723E1,1.1796627E0,8.753151E0,2.5554188E1,7.032654E0,9.043298E-1,5.100399E0,3.190426E1,3.797055E1,0E0,0E0,0E0,0E0,0E0,0E0,0E0,0E0,0E0,0E0,0E0,0E0,0E0,0E0,0E0,0E0],"parents":[2147483647,0,0,1,1,2,2,3,3,4,4,5,5,6,6,7,7,8,8,9,9,10,10,11,11,12,12,13,13,14,14],"right_children":[2,4,6,8,10,12,14,16,18,20,22,24,26,28,30,-1,-1,-1,-1,-1,-1,-1,-1,-1,-1,-1,-1,-1,-1,-1,-1],"split_conditions":[7E0,5E0,1.6E1,-6E0,1.1E1,3.3E1,1.633E1,1.5E1,4E0,1E0,6E0,7.62E2,1.99E1,2.717E3,3.2E1,4.5167637E-1,8.488564E-2,-2.6996085E-2,-7.354746E-2,2.6478726E-1,5.0716646E-2,-6.403138E-2,7.967775E-3,3.3852744E-1,1.4194666E-1,-5.0438374E-2,-1.3458706E-1,-4.147056E-4,8.870946E-2,8.395344E-2,1.14090685E-2],"split_indices":[6,4,17,14,4,13,16,13,8,8,7,15,9,15,14,0,0,0,0,0,0,0,0,0,0,0,0,0,0,0,0],"split_type":[0,0,0,0,0,0,0,0,0,0,0,0,0,0,0,0,0,0,0,0,0,0,0,0,0,0,0,0,0,0,0],"sum_hessian":[9.625993E4,3.293221E3,9.296671E4,1.5778835E3,1.7153373E3,3.0121912E2,9.266549E4,4.429199E0,1.5734543E3,7.6260754E2,9.527298E2,1.3790061E1,2.8742905E2,8.8435516E4,4.229972E3,2.7230535E0,1.706146E0,5.7351654E2,9.9993787E2,5.3111168E1,7.094964E2,8.092111E2,1.4351868E2,3.404587E0,1.0385474E1,1.021116E2,1.8531744E2,8.807354E4,3.619831E2,8.001333E2,3.4298389E3],"tree_param":{"num_deleted":"0","num_feature":"20","num_nodes":"31","size_leaf_vector":"1"}},{"base_weights":[-3.9234167E-4,-1.2461913E-2,2.1942295E-2,4.3606672E-2,-2.1901947E-2,3.3107273E-2,-4.2588573E-2,3.8531542E-1,2.8271973E-2,-1.5442912E-4,-5.6400098E-2,4.2820773E-3,5.5172425E-2,-1.7826158E-1,-1.1027779E-2,2.1014395E-1,6.564199E-2,-3.0056806E-2,2.0031475E-2,-2.0259887E-2,6.8495986E-3,-3.037665E-2,-4.8099225E-3,8.402172E-4,5.560711E-1,7.3259803E-3,4.308994E-2,-2.5712118E-2,-1.0272634E-1,-7.0914924E-2,1.8505253E-3],"categories":[],"categories_nodes":[],"categories_segments":[],"categories_sizes":[],"default_left":[0,0,0,0,0,0,0,0,0,0,0,0,0,0,0,0,0,0,0,0,0,0,0,0,0,0,0,0,0,0,0],"id":36,"left_children":[1,3,5,7,9,11,13,15,17,19,21,23,25,27,29,-1,-1,-1,-1,-1,-1,-1,-1,-1,-1,-1,-1,-1,-1,-1,-1],"loss_changes":[2.5935408E1,3.3059425E1,2.4319431E1,4.7153275E1,4.0107124E1,1.8301228E1,2.13171E1,2.0129173E1,4.2615456E1,5.0785797E1,3.742479E1,3.4175365E1,4.4334076E1,1.4245903E1,1.56585455E1,0E0,0E0,0E0,0E0,0E0,0E0,0E0,0E0,0E0,0E0,0E0,0E0,0E0,0E0,0E0,0E0],"parents":[2147483647,0,0,1,1,2,2,3,3,4,4,5,5,6,6,7,7,8,8,9,9,10,10,11,11,12,12,13,13,14,14],"right_children":[2,4,6,8,10,12,14,16,18,20,22,24,26,28,30,-1,-1,-1,-1,-1,-1,-1,-1,-1,-1,-1,-1,-1,-1,-1,-1],"split_conditions":[1E0,5.6E1,1.721E3,4.03E0,8E0,2E0,2E0,2E0,2E0,4E0,3E0,9.1E0,8.8E1,1.7E1,1.744E3,2.1014395E-1,6.564199E-2,-3.0056806E-2,2.0031475E-2,-2.0259887E-2,6.8495986E-3,-3.037665E-2,-4.8099225E-3,8.402172E-4,5.560711E-1,7.3259803E-3,4.308994E-2,-2.5712118E-2,-1.0272634E-1,-7.0914924E-2,1.8505253E-3],"split_indices":[1,13,15,16,5,2,4,7,5,5,8,19,17,6,15,0,0,0,0,0,0,0,0,0,0,0,0,0,0,0,0],"split_type":[0,0,0,0,0,0,0,0,0,0,0,0,0,0,0,0,0,0,0,0,0,0,0,0,0,0,0,0,0,0,0],"sum_hessian":[9.620847E4,6.245722E4,3.3751254E4,8.999794E3,5.3457426E4,2.8773428E4,4.977824E3,3.8549695E2,8.614298E3,3.2788605E4,2.066882E4,1.2476165E4,1.6297264E4,9.385505E2,4.0392737E3,1.3215321E2,2.5334373E2,1.9860059E3,6.6282915E3,8.340051E3,2.4448555E4,9.789417E3,1.0879402E4,1.246718E4,8.98519E0,1.2094134E4,4.20313E3,6.0114307E2,3.3740744E2,2.8546912E2,3.7538044E3],"tree_param":{"num_deleted":"0","num_feature":"20","num_nodes":"31","size_leaf_vector":"1"}},{"base_weights":[-3.8372984E-4,-1.319614E-2,2.0192169E-2,-1.9211799E-2,7.7512205E-2,3.4707334E-2,-6.747977E-2,-2.1652006E-2,2.4670163E-1,-8.297796E-2,1.4760892E-1,1.2771171E-1,4.6220836E-3,-2.6244056E-1,1.1106571E-2,-5.306311E-3,-4.6795707E-2,1.2422259E-1,-2.7195515E-2,-6.2498E-2,-3.8493914E-3,7.936432E-2,1.3861275E-2,2.340421E-2,1.3223584E-1,-9.394137E-3,1.5690234E-2,-8.2765E-2,6.5861456E-2,-3.1540323E-2,9.007202E-3],"categories":[],"categories_nodes":[],"categories_segments":[],"categories_sizes":[],"default_left":[0,0,0,0,0,0,0,0,0,0,0,0,0,0,0,0,0,0,0,0,0,0,0,0,0,0,0,0,0,0,0],"id":37,"left_children":[1,3,5,7,9,11,13,15,17,19,21,23,25,27,29,-1,-1,-1,-1,-1,-1,-1,-1,-1,-1,-1,-1,-1,-1,-1,-1],"loss_changes":[2.5345228E1,3.233116E1,4.6951267E1,3.6059647E1,4.1468437E1,8.856676E1,8.029846E1,2.9318457E1,2.857076E1,9.852884E0,3.0406067E1,1.20338974E2,4.098145E1,9.815857E0,8.218871E0,0E0,0E0,0E0,0E0,0E0,0E0,0E0,0E0,0E0,0E0,0E0,0E0,0E0,0E0,0E0,0E0],"parents":[2147483647,0,0,1,1,2,2,3,3,4,4,5,5,6,6,7,7,8,8,9,9,10,10,11,11,12,12,13,13,14,14],"right_children":[2,4,6,8,10,12,14,16,18,20,22,24,26,28,30,-1,-1,-1,-1,-1,-1,-1,-1,-1,-1,-1,-1,-1,-1,-1,-1],"split_conditions":[1.7E1,9E0,1.709E3,2.677E3,1E1,4E0,3E0,2.475E3,6E1,5E0,1.3E1,3E0,1.4E1,1.04E2,3E0,-5.306311E-3,-4.6795707E-2,1.2422259E-1,-2.7195515E-2,-6.2498E-2,-3.8493914E-3,7.936432E-2,1.3861275E-2,2.340421E-2,1.3223584E-1,-9.394137E-3,1.5690234E-2,-8.2765E-2,6.5861456E-2,-3.1540323E-2,9.007202E-3],"split_indices":[6,8,15,15,6,4,4,15,14,4,6,4,4,17,5,0,0,0,0,0,0,0,0,0,0,0,0,0,0,0,0],"split_type":[0,0,0,0,0,0,0,0,0,0,0,0,0,0,0,0,0,0,0,0,0,0,0,0,0,0,0,0,0,0,0],"sum_hessian":[9.613853E4,5.924661E4,3.689192E4,5.5562562E4,3.6840488E3,3.1652127E4,5.2397944E3,5.5058227E4,5.043342E2,1.1198679E3,2.564181E3,7.735539E3,2.3916588E4,1.5046489E3,3.7351458E3,5.3481086E4,1.577142E3,3.3693878E2,1.6739542E2,4.0111853E2,7.1874945E2,1.1901283E3,1.3740525E3,6.676893E3,1.058646E3,1.3637911E4,1.0278677E4,1.4642378E3,4.0411133E1,5.221514E2,3.2129941E3],"tree_param":{"num_deleted":"0","num_feature":"20","num_nodes":"31","size_leaf_vector":"1"}},{"base_weights":[-4.031265E-4,1.3058874E-2,-1.8611982E-2,-5.87706E-3,2.7514488E-1,-7.140069E-2,2.111257E-3,6.704939E-3,-1.4865637E-1,4.157944E-1,1.2933235E-1,-1.16494976E-1,6.551341E-2,-1.0259865E-1,2.2913337E-2,-2.5001955E-3,4.8025962E-2,-7.655832E-2,6.7677465E-3,1.4321426E-1,4.924159E-2,7.468378E-3,9.077756E-2,-5.655264E-2,-1.1580545E-2,4.4339895E-2,-4.4344147E-3,1.7086966E-1,-3.3382397E-2,-4.0560186E-2,1.1108564E-2],"categories":[],"categories_nodes":[],"categories_segments":[],"categories_sizes":[],"default_left":[0,0,0,0,0,0,0,0,0,0,0,0,0,0,0,0,0,0,0,0,0,0,0,0,0,0,0,0,0,0,0],"id":38,"left_children":[1,3,5,7,9,11,13,15,17,19,21,23,25,27,29,-1,-1,-1,-1,-1,-1,-1,-1,-1,-1,-1,-1,-1,-1,-1,-1],"loss_changes":[2.3541113E1,2.7402542E2,4.4656475E1,9.251009E1,7.624887E1,7.105614E1,6.385463E1,1.0916817E2,7.607842E1,2.926587E1,3.3073364E1,4.855233E1,1.88442E1,2.8397835E1,5.4587894E1,0E0,0E0,0E0,0E0,0E0,0E0,0E0,0E0,0E0,0E0,0E0,0E0,0E0,0E0,0E0,0E0],"parents":[2147483647,0,0,1,1,2,2,3,3,4,4,5,5,6,6,7,7,8,8,9,9,10,10,11,11,12,12,13,13,14,14],"right_children":[2,4,6,8,10,12,14,16,18,20,22,24,26,28,30,-1,-1,-1,-1,-1,-1,-1,-1,-1,-1,-1,-1,-1,-1,-1,-1],"split_conditions":[1.1E1,1E1,1.4E1,9E0,7E0,3E0,3E0,6E0,1E0,1.546E3,6E0,7E1,1.5E1,1E1,1E0,-2.5001955E-3,4.8025962E-2,-7.655832E-2,6.7677465E-3,1.4321426E-1,4.924159E-2,7.468378E-3,9.077756E-2,-5.655264E-2,-1.1580545E-2,4.4339895E-2,-4.4344147E-3,1.7086966E-1,-3.3382397E-2,-4.0560186E-2,1.1108564E-2],"split_indices":[4,4,4,4,5,2,5,4,1,15,8,17,6,13,8,0,0,0,0,0,0,0,0,0,0,0,0,0,0,0,0],"split_type":[0,0,0,0,0,0,0,0,0,0,0,0,0,0,0,0,0,0,0,0,0,0,0,0,0,0,0,0,0,0,0],"sum_hessian":[9.603415E4,5.521408E4,4.082007E4,5.1494535E4,3.7195454E3,1.1506612E4,2.9313457E4,4.7325105E4,4.16943E3,1.8923497E3,1.8271958E3,8.655853E3,2.850759E3,4.857696E3,2.4455762E4,4.310012E4,4.224982E3,2.569858E3,1.5995723E3,1.5195751E3,3.727746E2,1.1407285E3,6.864673E2,4.4969297E3,4.1589233E3,1.407505E3,1.4432542E3,6.107822E1,4.7966177E3,2.0035928E3,2.2452168E4],"tree_param":{"num_deleted":"0","num_feature":"20","num_nodes":"31","size_leaf_vector":"1"}},{"base_weights":[-5.621271E-4,-3.249318E-2,8.714722E-3,-4.0619367E-1,-2.2937287E-2,6.2972773E-3,1.6556364E-1,7.708483E-2,-4.7519735E-1,5.142011E-2,-4.4263463E-2,4.527767E-3,2.0313121E-1,3.6164454E-1,9.28826E-2,2.0244105E-1,-4.4035435E-2,4.427389E-2,-1.5730053E-1,4.120677E-2,-4.1419707E-2,-3.858108E-2,-4.070519E-3,1.4766959E-3,-2.237462E-1,7.4759655E-2,-2.4414748E-1,1.4058658E-2,1.6204256E-1,-1.2065743E-2,7.80092E-2],"categories":[],"categories_nodes":[],"categories_segments":[],"categories_sizes":[],"default_left":[0,0,0,0,0,0,0,0,0,0,0,0,0,0,0,0,0,0,0,0,0,0,0,0,0,0,0,0,0,0,0],"id":39,"left_children":[1,3,5,7,9,11,13,15,17,19,21,23,25,27,29,-1,-1,-1,-1,-1,-1,-1,-1,-1,-1,-1,-1,-1,-1,-1,-1],"loss_changes":[2.8423668E1,7.713096E1,2.8191706E1,1.7995941E1,3.3404823E1,2.5503536E1,1.6049631E1,9.217929E0,1.4502953E1,7.647495E1,4.2376827E1,2.1489376E1,3.076694E1,1.7103203E1,1.8358017E1,0E0,0E0,0E0,0E0,0E0,0E0,0E0,0E0,0E0,0E0,0E0,0E0,0E0,0E0,0E0,0E0],"parents":[2147483647,0,0,1,1,2,2,3,3,4,4,5,5,6,6,7,7,8,8,9,9,10,10,11,11,12,12,13,13,14,14],"right_children":[2,4,6,8,10,12,14,16,18,20,22,24,26,28,30,-1,-1,-1,-1,-1,-1,-1,-1,-1,-1,-1,-1,-1,-1,-1,-1],"split_conditions":[4.6E1,3E0,1.05E2,3.2E1,4E0,1.7E0,4E0,1.2E1,3E0,1.605E3,6E0,8.7E1,4.81E1,6.8E1,1.5E1,2.0244105E-1,-4.4035435E-2,4.427389E-2,-1.5730053E-1,4.120677E-2,-4.1419707E-2,-3.858108E-2,-4.070519E-3,1.4766959E-3,-2.237462E-1,7.4759655E-2,-2.4414748E-1,1.4058658E-2,1.6204256E-1,-1.2065743E-2,7.80092E-2],"split_indices":[17,8,13,17,8,12,4,6,5,15,8,14,9,17,4,0,0,0,0,0,0,0,0,0,0,0,0,0,0,0,0],"split_type":[0,0,0,0,0,0,0,0,0,0,0,0,0,0,0,0,0,0,0,0,0,0,0,0,0,0,0,0,0,0,0],"sum_hessian":[9.595278E4,2.160062E4,7.4352164E4,5.375424E2,2.1063076E4,7.3224625E4,1.127539E3,6.714742E1,4.70395E2,4.6942725E3,1.6368804E4,7.257322E4,6.514002E2,3.0384415E2,8.2369476E2,1.7747738E1,4.9399685E1,3.4253914E1,4.3614105E2,3.2297764E3,1.4644962E3,4.3668687E3,1.2001935E4,7.253607E4,3.7147846E1,6.238931E2,2.7507105E1,1.1040537E2,1.9343878E2,4.5897086E2,3.6472394E2],"tree_param":{"num_deleted":"0","num_feature":"20","num_nodes":"31","size_leaf_vector":"1"}},{"base_weights":[-5.0185324E-4,2.3192419E-3,-9.012048E-2,-1.02237694E-1,4.51763E-3,1.1640997E-1,-1.08390935E-1,-6.026352E-2,-2.7307263E-1,-4.416339E-3,3.179046E-2,-4.1430812E-2,3.5270056E-1,8.319108E-2,-1.2829924E-1,3.037962E-2,-2.944879E-2,-9.574216E-2,9.778934E-2,6.549701E-3,-5.002496E-3,8.496213E-3,1.352052E-1,1.638767E-2,-1.3845254E-1,2.5666577E-1,6.6504814E-2,2.1972378E-1,1.4260729E-2,-2.5844987E-2,-7.461813E-2],"categories":[],"categories_nodes":[],"categories_segments":[],"categories_sizes":[],"default_left":[0,0,0,0,0,0,0,0,0,0,0,0,0,0,0,0,0,0,0,0,0,0,0,0,0,0,0,0,0,0,0],"id":40,"left_children":[1,3,5,7,9,11,13,15,17,19,21,23,25,27,29,-1,-1,-1,-1,-1,-1,-1,-1,-1,-1,-1,-1,-1,-1,-1,-1],"loss_changes":[2.4247278E1,2.137244E1,1.1056948E1,1.3713556E1,2.2188745E1,8.904623E0,1.0268726E1,9.427536E0,1.0518326E1,2.2072834E1,3.2647102E1,5.827627E0,6.1063204E0,5.839756E0,1.23473625E1,0E0,0E0,0E0,0E0,0E0,0E0,0E0,0E0,0E0,0E0,0E0,0E0,0E0,0E0,0E0,0E0],"parents":[2147483647,0,0,1,1,2,2,3,3,4,4,5,5,6,6,7,7,8,8,9,9,10,10,11,11,12,12,13,13,14,14],"right_children":[2,4,6,8,10,12,14,16,18,20,22,24,26,28,30,-1,-1,-1,-1,-1,-1,-1,-1,-1,-1,-1,-1,-1,-1,-1,-1],"split_conditions":[1.6E1,1E0,2E0,2E1,1.9E1,2.3E1,9E0,1.5E1,1.23E2,6.4E1,1.5E0,4E1,2.51E1,1.3E1,7E0,3.037962E-2,-2.944879E-2,-9.574216E-2,9.778934E-2,6.549701E-3,-5.002496E-3,8.496213E-3,1.352052E-1,1.638767E-2,-1.3845254E-1,2.5666577E-1,6.6504814E-2,2.1972378E-1,1.4260729E-2,-2.5844987E-2,-7.461813E-2],"split_indices":[4,4,5,6,6,9,6,9,17,13,18,14,9,9,8,0,0,0,0,0,0,0,0,0,0,0,0,0,0,0,0],"split_type":[0,0,0,0,0,0,0,0,0,0,0,0,0,0,0,0,0,0,0,0,0,0,0,0,0,0,0,0,0,0,0],"sum_hessian":[9.5904445E4,9.2978555E4,2.925888E3,1.9137494E3,9.1064805E4,2.373618E2,2.6885261E3,1.53737E3,3.763793E2,6.859534E4,2.2469463E4,1.4279813E2,9.456368E1,2.5278093E2,2.435745E3,2.918426E2,1.2455275E3,3.499354E2,2.6443918E1,2.1836797E4,4.6758547E4,2.2285934E4,1.8352994E2,1.1693039E2,2.5867733E1,1.8402826E1,7.616086E1,1.2142662E1,2.4063826E2,1.8055314E3,6.3021375E2],"tree_param":{"num_deleted":"0","num_feature":"20","num_nodes":"31","size_leaf_vector":"1"}},{"base_weights":[-3.9732596E-4,-8.066802E-3,2.5164187E-2,-4.0166106E-2,7.732804E-3,2.7356345E-2,-5.205063E-1,-1.8411517E-1,-6.2156073E-3,6.033281E-2,-1.1992321E-2,2.5086084E-2,6.6222507E-1,-8.386767E-1,-1.3493556E-1,-3.3149227E-2,-1.3730414E-1,-1.24022085E-2,1.8464556E-2,-2.9890718E-2,2.7310122E-2,-4.277689E-3,1.5920693E-1,-9.722322E-3,1.3314337E-2,-2.443753E-1,2.2021846E-1,-9.041372E-2,-3.2124028E-1,-1.9547172E-1,-6.8574534E-3],"categories":[],"categories_nodes":[],"categories_segments":[],"categories_sizes":[],"default_left":[0,0,0,0,0,0,0,0,0,0,0,0,0,0,0,0,0,0,0,0,0,0,0,0,0,0,0,0,0,0,0],"id":41,"left_children":[1,3,5,7,9,11,13,15,17,19,21,23,25,27,29,-1,-1,-1,-1,-1,-1,-1,-1,-1,-1,-1,-1,-1,-1,-1,-1],"loss_changes":[1.8791801E1,3.739424E1,2.6477364E1,1.1885942E2,5.1268223E1,3.1743034E1,1.0752277E1,9.3424164E1,4.684685E1,6.61939E1,4.4212574E1,2.4360088E1,8.923431E0,5.7055283E0,2.3727546E0,0E0,0E0,0E0,0E0,0E0,0E0,0E0,0E0,0E0,0E0,0E0,0E0,0E0,0E0,0E0,0E0],"parents":[2147483647,0,0,1,1,2,2,3,3,4,4,5,5,6,6,7,7,8,8,9,9,10,10,11,11,12,12,13,13,14,14],"right_children":[2,4,6,8,10,12,14,16,18,20,22,24,26,28,30,-1,-1,-1,-1,-1,-1,-1,-1,-1,-1,-1,-1,-1,-1,-1,-1],"split_conditions":[8.7E1,3E0,1.9E0,6.6E1,5E0,1.3E0,1.4E1,8.7E1,1.3E1,3E0,3.1E0,4.6E1,7E0,1.4E-1,1.41E1,-3.3149227E-2,-1.3730414E-1,-1.24022085E-2,1.8464556E-2,-2.9890718E-2,2.7310122E-2,-4.277689E-3,1.5920693E-1,-9.722322E-3,1.3314337E-2,-2.443753E-1,2.2021846E-1,-9.041372E-2,-3.2124028E-1,-1.9547172E-1,-6.8574534E-3],"split_indices":[17,8,18,17,8,18,6,13,4,4,18,14,6,12,9,0,0,0,0,0,0,0,0,0,0,0,0,0,0,0,0],"split_type":[0,0,0,0,0,0,0,0,0,0,0,0,0,0,0,0,0,0,0,0,0,0,0,0,0,0,0,0,0,0,0],"sum_hessian":[9.585327E4,7.373155E4,2.2121729E4,2.4320074E4,4.9411473E4,2.203416E4,8.756942E1,4.6404185E3,1.9679654E4,1.3475356E4,3.5936113E4,2.1956684E4,7.747652E1,4.7334316E1,4.0235104E1,3.6575564E3,9.828623E2,1.2961524E4,6.7181304E3,2.169393E3,1.1305963E4,3.5787613E4,1.4850182E2,5.5169707E3,1.6439713E4,3.114263E0,7.436225E1,1.4973508E1,3.236081E1,6.314396E0,3.3920708E1],"tree_param":{"num_deleted":"0","num_feature":"20","num_nodes":"31","size_leaf_vector":"1"}},{"base_weights":[-4.192945E-4,2.616455E-2,-1.0804402E-2,4.089484E-2,-1.3916168E-1,-5.7802793E-2,3.4819494E-3,1.3199421E-2,1.9532153E-1,-4.2140793E-2,-2.1159095E-1,-1.861586E-2,-1.2751797E-1,1.524443E-1,-7.3351897E-3,1.9221509E-2,-1.0039774E-2,1.9711953E-2,7.9537414E-2,-6.843106E-2,9.874596E-3,-7.403301E-2,-3.256147E-2,-2.6109219E-2,8.820067E-3,1.0529299E-1,-4.1081138E-2,2.2057606E-1,3.0212544E-2,-3.0733641E-2,8.542155E-4],"categories":[],"categories_nodes":[],"categories_segments":[],"categories_sizes":[],"default_left":[0,0,0,0,0,0,0,0,0,0,0,0,0,0,0,0,0,0,0,0,0,0,0,0,0,0,0,0,0,0,0],"id":42,"left_children":[1,3,5,7,9,11,13,15,17,19,21,23,25,27,29,-1,-1,-1,-1,-1,-1,-1,-1,-1,-1,-1,-1,-1,-1,-1,-1],"loss_changes":[2.6435707E1,6.551289E1,4.6232655E1,1.0563364E2,1.5456535E1,4.3848846E1,8.508943E1,4.972316E1,3.396466E1,1.3155018E1,4.5414314E0,3.3761654E1,2.6079254E1,1.0772023E2,4.7679604E1,0E0,0E0,0E0,0E0,0E0,0E0,0E0,0E0,0E0,0E0,0E0,0E0,0E0,0E0,0E0,0E0],"parents":[2147483647,0,0,1,1,2,2,3,3,4,4,5,5,6,6,7,7,8,8,9,9,10,10,11,11,12,12,13,13,14,14],"right_children":[2,4,6,8,10,12,14,16,18,20,22,24,26,28,30,-1,-1,-1,-1,-1,-1,-1,-1,-1,-1,-1,-1,-1,-1,-1,-1],"split_conditions":[4E0,2.475E3,6E0,3E0,1.3E1,8E0,7E0,3E0,1.3E1,4E0,9E0,3E0,2.3E1,1E0,1E1,1.9221509E-2,-1.0039774E-2,1.9711953E-2,7.9537414E-2,-6.843106E-2,9.874596E-3,-7.403301E-2,-3.256147E-2,-2.6109219E-2,8.820067E-3,1.0529299E-1,-4.1081138E-2,2.2057606E-1,3.0212544E-2,-3.0733641E-2,8.542155E-4],"split_indices":[4,15,4,4,6,5,4,8,6,8,5,7,14,8,4,0,0,0,0,0,0,0,0,0,0,0,0,0,0,0,0],"split_type":[0,0,0,0,0,0,0,0,0,0,0,0,0,0,0,0,0,0,0,0,0,0,0,0,0,0,0,0,0,0,0],"sum_hessian":[9.5753125E4,2.6897994E4,6.885513E4,2.4698182E4,2.1998137E3,1.6050407E4,5.2804723E4,2.0943234E4,3.7549468E3,9.4095807E2,1.2588556E3,1.0275699E4,5.774708E3,3.5740159E3,4.9230707E4,1.0019782E4,1.0923452E4,1.3150393E3,2.4399075E3,2.699867E2,6.709714E2,9.374003E2,3.2145523E2,4.23736E3,6.03834E3,1.1078041E2,5.6639272E3,2.9032E2,3.2836958E3,4.7600864E3,4.447062E4],"tree_param":{"num_deleted":"0","num_feature":"20","num_nodes":"31","size_leaf_vector":"1"}},{"base_weights":[-4.562472E-4,-3.264021E-2,6.511E-3,-4.9796715E-2,4.7563214E-2,-8.605395E-2,9.6126655E-3,-8.6893804E-2,5.1749325E-3,6.90259E-1,3.6654588E-2,6.425664E-2,-1.1782888E-1,-1.4439664E-2,2.2840958E-2,-7.6661296E-3,-4.6031017E-2,7.8055314E-3,-5.8175925E-2,-4.311987E-3,2.605911E-1,5.775891E-1,1.0360261E-2,-3.7268046E-2,5.6361903E-2,2.4663167E-1,-3.680801E-2,-1.0987336E-1,-6.453045E-4,1.3633289E-2,-3.3221166E-3],"categories":[],"categories_nodes":[],"categories_segments":[],"categories_sizes":[],"default_left":[0,0,0,0,0,0,0,0,0,0,0,0,0,0,0,0,0,0,0,0,0,0,0,0,0,0,0,0,0,0,0],"id":43,"left_children":[1,3,5,7,9,11,13,15,17,19,21,23,25,27,29,-1,-1,-1,-1,-1,-1,-1,-1,-1,-1,-1,-1,-1,-1,-1,-1],"loss_changes":[2.1446241E1,2.3422436E1,2.257369E1,2.859431E1,2.100592E1,1.2182625E1,2.4204895E1,3.416801E1,2.345407E1,6.298298E0,1.1750292E1,1.0403078E1,9.72403E0,1.1669974E2,3.762529E1,0E0,0E0,0E0,0E0,0E0,0E0,0E0,0E0,0E0,0E0,0E0,0E0,0E0,0E0,0E0,0E0],"parents":[2147483647,0,0,1,1,2,2,3,3,4,4,5,5,6,6,7,7,8,8,9,9,10,10,11,11,12,12,13,13,14,14],"right_children":[2,4,6,8,10,12,14,16,18,20,22,24,26,28,30,-1,-1,-1,-1,-1,-1,-1,-1,-1,-1,-1,-1,-1,-1,-1,-1],"split_conditions":[4.3E1,9E0,7E0,8E1,8.9E0,4E0,2E0,5E0,1.01E2,3.2E1,3.6E1,5E1,-6E0,5.7E1,1.2E1,-7.6661296E-3,-4.6031017E-2,7.8055314E-3,-5.8175925E-2,-4.311987E-3,2.605911E-1,5.775891E-1,1.0360261E-2,-3.7268046E-2,5.6361903E-2,2.4663167E-1,-3.680801E-2,-1.0987336E-1,-6.453045E-4,1.3633289E-2,-3.3221166E-3],"split_indices":[17,8,6,13,9,6,8,8,13,17,14,14,14,17,4,0,0,0,0,0,0,0,0,0,0,0,0,0,0,0,0],"split_type":[0,0,0,0,0,0,0,0,0,0,0,0,0,0,0,0,0,0,0,0,0,0,0,0,0,0,0,0,0,0,0],"sum_hessian":[9.5640445E4,1.7019268E4,7.862117E4,1.402049E4,2.9987776E3,2.5481582E3,7.6073016E4,8.370893E3,5.6495977E3,4.901006E1,2.9497676E3,4.4448926E2,2.103669E3,2.6992975E4,4.9080043E4,4.3564497E3,4.0144426E3,5.114973E3,5.3462445E2,1.0086316E1,3.892374E1,2.2908547E0,2.9474768E3,1.7605116E2,2.6843808E2,9.96616E0,2.0937026E3,9.100773E2,2.6082896E4,2.9451182E4,1.9628861E4],"tree_param":{"num_deleted":"0","num_feature":"20","num_nodes":"31","size_leaf_vector":"1"}},{"base_weights":[-4.2721682E-4,-1.3653812E-1,7.7156146E-4,-9.3763255E-2,-3.8244796E-1,-2.4788708E-3,5.4569878E-2,1.22073265E-2,-1.6278026E-1,-4.534778E-1,7.816166E-2,-2.870382E-2,5.55941E-3,1.7669247E-2,1.9352816E-1,1.9986942E-2,-1.5797132E-1,1.06781185E-1,-5.7393085E-2,-1.4493495E-1,2.0170175E-1,-3.831076E-2,2.9505068E-1,-1.0189669E-1,-5.5977013E-3,2.8919295E-4,1.7320655E-2,3.2021478E-2,-9.8802E-3,3.397871E-2,1.504272E-1],"categories":[],"categories_nodes":[],"categories_segments":[],"categories_sizes":[],"default_left":[0,0,0,0,0,0,0,0,0,0,0,0,0,0,0,0,0,0,0,0,0,0,0,0,0,0,0,0,0,0,0],"id":44,"left_children":[1,3,5,7,9,11,13,15,17,19,21,23,25,27,29,-1,-1,-1,-1,-1,-1,-1,-1,-1,-1,-1,-1,-1,-1,-1,-1],"loss_changes":[1.5596564E1,8.742217E0,1.656929E1,5.2107797E0,4.0703297E0,1.8836458E1,2.76792E1,8.297662E0,6.4518576E0,3.8950577E0,3.355529E0,6.547101E1,1.6398575E1,1.9235586E1,2.7936523E1,0E0,0E0,0E0,0E0,0E0,0E0,0E0,0E0,0E0,0E0,0E0,0E0,0E0,0E0,0E0,0E0],"parents":[2147483647,0,0,1,1,2,2,3,3,4,4,5,5,6,6,7,7,8,8,9,9,10,10,11,11,12,12,13,13,14,14],"right_children":[2,4,6,8,10,12,14,16,18,20,22,24,26,28,30,-1,-1,-1,-1,-1,-1,-1,-1,-1,-1,-1,-1,-1,-1,-1,-1],"split_conditions":[2.2E1,1.9E1,9E0,1.99E1,2.378E3,4.9E1,1E-2,9.4E1,7E0,1.15E0,1.476E1,3E0,3.11E1,1E0,5.3E1,1.9986942E-2,-1.5797132E-1,1.06781185E-1,-5.7393085E-2,-1.4493495E-1,2.0170175E-1,-3.831076E-2,2.9505068E-1,-1.0189669E-1,-5.5977013E-3,2.8919295E-4,1.7320655E-2,3.2021478E-2,-9.8802E-3,3.397871E-2,1.504272E-1],"split_indices":[17,6,8,9,15,17,12,13,6,12,16,8,9,11,14,0,0,0,0,0,0,0,0,0,0,0,0,0,0,0,0],"split_type":[0,0,0,0,0,0,0,0,0,0,0,0,0,0,0,0,0,0,0,0,0,0,0,0,0,0,0,0,0,0,0],"sum_hessian":[9.5584984E4,8.335164E2,9.475147E4,7.1118964E2,1.223268E2,8.935377E4,5.3976978E3,2.8082556E2,4.3036407E2,1.05996704E2,1.6330091E1,2.0962123E4,6.839165E4,4.265985E3,1.1317131E3,2.5586038E2,2.4965174E1,2.183817E1,4.085259E2,1.0383401E2,2.162698E0,1.4004559E1,2.3255324E0,6.5493243E2,2.030719E4,6.285655E4,5.5351E3,1.5451641E3,2.7208208E3,8.9877747E2,2.3293564E2],"tree_param":{"num_deleted":"0","num_feature":"20","num_nodes":"31","size_leaf_vector":"1"}},{"base_weights":[-3.640387E-4,-7.149184E-4,4.493665E-1,1.7257078E-2,-8.8836085E-3,8.098917E-2,8.462296E-1,1.0871062E-2,1.9698006E-1,-1.03547305E-1,-3.7207427E-3,-1.627564E-1,5.978337E-1,4.0956825E-1,1.5720385E0,3.522001E-3,-1.6493641E-1,7.838281E-2,-3.6273677E-2,-3.931892E-2,6.5179825E-2,-4.923392E-3,9.637993E-3,-1.2346827E-1,6.982903E-2,3.759582E-2,3.517218E-1,-2.054794E-1,2.1306692E-1,5.4390115E-1,7.36586E-2],"categories":[],"categories_nodes":[],"categories_segments":[],"categories_sizes":[],"default_left":[0,0,0,0,0,0,0,0,0,0,0,0,0,0,0,0,0,0,0,0,0,0,0,0,0,0,0,0,0,0,0],"id":45,"left_children":[1,3,5,7,9,11,13,15,17,19,21,23,25,27,29,-1,-1,-1,-1,-1,-1,-1,-1,-1,-1,-1,-1,-1,-1,-1,-1],"loss_changes":[1.507685E1,1.4015544E1,1.0820783E1,3.42376E1,3.2078148E1,5.102999E0,1.0686546E1,1.4042288E1,2.0953365E1,2.9993458E1,2.831596E1,2.83022E0,3.3682847E0,8.276641E0,3.7346954E0,0E0,0E0,0E0,0E0,0E0,0E0,0E0,0E0,0E0,0E0,0E0,0E0,0E0,0E0,0E0,0E0],"parents":[2147483647,0,0,1,1,2,2,3,3,4,4,5,5,6,6,7,7,8,8,9,9,10,10,11,11,12,12,13,13,14,14],"right_children":[2,4,6,8,10,12,14,16,18,20,22,24,26,28,30,-1,-1,-1,-1,-1,-1,-1,-1,-1,-1,-1,-1,-1,-1,-1,-1],"split_conditions":[1.14E2,6.4E1,1.5E1,5.3E1,4.3E1,1.524E3,6.26E0,1.3E2,8.2E-1,1E0,8.7E1,1.6E1,9.2E1,1E1,6E0,3.522001E-3,-1.6493641E-1,7.838281E-2,-3.6273677E-2,-3.931892E-2,6.5179825E-2,-4.923392E-3,9.637993E-3,-1.2346827E-1,6.982903E-2,3.759582E-2,3.517218E-1,-2.054794E-1,2.1306692E-1,5.4390115E-1,7.36586E-2],"split_indices":[13,13,4,14,14,15,16,17,12,11,17,6,14,6,7,0,0,0,0,0,0,0,0,0,0,0,0,0,0,0,0],"split_type":[0,0,0,0,0,0,0,0,0,0,0,0,0,0,0,0,0,0,0,0,0,0,0,0,0,0,0,0,0,0,0],"sum_hessian":[9.55402E4,9.546671E4,7.348471E1,2.9831998E4,6.563472E4,3.873452E1,3.475019E1,2.8809387E4,1.0226104E3,3.393534E3,6.2241184E4,2.678685E1,1.1947669E1,2.2673592E1,1.2076598E1,2.8765783E4,4.360377E1,8.5072363E2,1.7188676E2,3.1260115E3,2.675225E2,4.5968223E4,1.6272962E4,1.6418268E1,1.0368582E1,7.224513E0,4.723156E0,4.610707E0,1.8062885E1,9.909717E0,2.1668813E0],"tree_param":{"num_deleted":"0","num_feature":"20","num_nodes":"31","size_leaf_vector":"1"}},{"base_weights":[-2.9731347E-4,-1.101947E-2,1.35573605E-2,-3.75531E-2,2.2048273E-3,1.4562156E-2,-3.35309E-1,-4.172957E-2,3.4862134E-1,4.5857187E-2,-1.4679817E-2,1.3268906E-2,7.812267E-1,-4.7319886E-1,1.5385439E-1,-6.3290587E-3,-4.140259E-2,2.7799174E-1,6.1256927E-2,6.1796517E-3,4.6242587E-2,-8.063475E-3,2.0337462E-2,3.51888E-3,6.953143E-2,3.271967E-2,3.1381327E-1,-9.7264044E-2,-2.561057E-1,-5.980116E-2,2.101991E-1],"categories":[],"categories_nodes":[],"categories_segments":[],"categories_sizes":[],"default_left":[0,0,0,0,0,0,0,0,0,0,0,0,0,0,0,0,0,0,0,0,0,0,0,0,0,0,0,0,0,0,0],"id":46,"left_children":[1,3,5,7,9,11,13,15,17,19,21,23,25,27,29,-1,-1,-1,-1,-1,-1,-1,-1,-1,-1,-1,-1,-1,-1,-1,-1],"loss_changes":[1.4189854E1,1.8894741E1,1.4612947E1,2.8902239E1,2.6488953E1,4.119037E1,8.148178E0,3.519835E1,1.5818151E1,2.7413065E1,2.6073006E1,1.3950575E1,1.233894E1,5.031439E0,5.369937E0,0E0,0E0,0E0,0E0,0E0,0E0,0E0,0E0,0E0,0E0,0E0,0E0,0E0,0E0,0E0,0E0],"parents":[2147483647,0,0,1,1,2,2,3,3,4,4,5,5,6,6,7,7,8,8,9,9,10,10,11,11,12,12,13,13,14,14],"right_children":[2,4,6,8,10,12,14,16,18,20,22,24,26,28,30,-1,-1,-1,-1,-1,-1,-1,-1,-1,-1,-1,-1,-1,-1,-1,-1],"split_conditions":[4E0,5E0,1.32E2,6.9E1,7E0,1.3E2,1.41E2,5.5E1,3.9E1,1.5E1,2E-1,1.23E2,1.2E1,6E0,1.7E1,-6.3290587E-3,-4.140259E-2,2.7799174E-1,6.1256927E-2,6.1796517E-3,4.6242587E-2,-8.063475E-3,2.0337462E-2,3.51888E-3,6.953143E-2,3.271967E-2,3.1381327E-1,-9.7264044E-2,-2.561057E-1,-5.980116E-2,2.101991E-1],"split_indices":[7,5,17,14,5,17,17,14,17,4,12,17,6,4,6,0,0,0,0,0,0,0,0,0,0,0,0,0,0,0,0],"split_type":[0,0,0,0,0,0,0,0,0,0,0,0,0,0,0,0,0,0,0,0,0,0,0,0,0,0,0,0,0,0,0],"sum_hessian":[9.5519125E4,5.3847023E4,4.16721E4,1.7910006E4,3.5937016E4,4.155338E4,1.1872268E2,1.7719264E4,1.907416E2,1.0022874E4,2.5914143E4,4.1484418E4,6.896083E1,9.264086E1,2.6081816E1,1.4593154E4,3.12611E3,3.7050213E1,1.5369138E2,8.128113E3,1.8947616E3,2.2575629E4,3.3385132E3,4.1195258E4,2.8915845E2,1.9889374E1,4.907146E1,6.790409E1,2.4736774E1,1.6232485E1,9.84933E0],"tree_param":{"num_deleted":"0","num_feature":"20","num_nodes":"31","size_leaf_vector":"1"}},{"base_weights":[-2.6430644E-4,1.9801508E-3,-7.216504E-2,-2.7360624E-2,7.160075E-3,-6.215682E-2,-3.5042632E-1,-6.053437E-3,-1.6241743E-1,-2.5836595E-3,5.585442E-2,-1.04393445E-1,9.7433105E-3,6.817985E-1,-3.9544347E-1,-1.2911201E-2,7.709858E-2,-6.848907E-2,6.5506384E-2,3.9506587E-3,-1.0299149E-2,1.0342193E-2,6.008448E-2,-4.898113E-2,-8.036443E-3,4.5230735E-2,-1.839016E-2,3.2318935E-1,2.6832817E-2,-9.017244E-2,-2.186077E-1],"categories":[],"categories_nodes":[],