{"learner":{"attributes":{"scikit_learn":"{\"_estimator_type\": \"classifier\"}"},"feature_names":[],"feature_types":[],"gradient_booster":{"model":{"cats":{"enc":[],"feature_segments":[],"sorted_idx":[]},"gbtree_model_param":{"num_parallel_tree":"1","num_trees":"100"},"iteration_indptr":[0,1,2,3,4,5,6,7,8,9,10,11,12,13,14,15,16,17,18,19,20,21,22,23,24,25,26,27,28,29,30,31,32,33,34,35,36,37,38,39,40,41,42,43,44,45,46,47,48,49,50,51,52,53,54,55,56,57,58,59,60,61,62,63,64,65,66,67,68,69,70,71,72,73,74,75,76,77,78,79,80,81,82,83,84,85,86,87,88,89,90,91,92,93,94,95,96,97,98,99,100],"tree_info":[0,0,0,0,0,0,0,0,0,0,0,0,0,0,0,0,0,0,0,0,0,0,0,0,0,0,0,0,0,0,0,0,0,0,0,0,0,0,0,0,0,0,0,0,0,0,0,0,0,0,0,0,0,0,0,0,0,0,0,0,0,0,0,0,0,0,0,0,0,0,0,0,0,0,0,0,0,0,0,0,0,0,0,0,0,0,0,0,0,0,0,0,0,0,0,0,0,0,0,0],"trees":[{"base_weights":[3.580591E-8,-3.5977513E-1,2.9792672E-1,-5.684147E-1,-2.071123E-1,1.4170413E-1,1.3995067E0,2.023328E-1,-5.8973646E-1,-2.843622E-1,1.4701621E-1,2.9309146E-2,7.189934E-1,8.718442E-1,1.7774E0,-4.8991658E-2,1.4900129E-1,-1.8139069E-1,5.2317105E-2,1.6127147E-1,-9.151992E-2,3.7271592E-1,2.2108497E-2,-1.6790166E-4,3.6965245E-1,2.8394097E-1,-4.539027E-2,2.251152E-1,4.4024318E-1,4.270939E-1,6.6429305E-1],"categories":[],"categories_nodes":[],"categories_segments":[],"categories_sizes":[],"default_left":[0,0,0,0,0,0,0,0,0,0,0,0,0,0,0,0,0,0,0,0,0,0,0,0,0,0,0,0,0,0,0],"id":0,"left_children":[1,3,5,7,9,11,13,15,17,19,21,23,25,27,29,-1,-1,-1,-1,-1,-1,-1,-1,-1,-1,-1,-1,-1,-1,-1,-1],"loss_changes":[1.1194533E4,1.5067524E3,9.831474E3,3.2861523E2,7.474457E2,3.2465222E3,1.4133232E3,5.8071198E1,2.2155615E2,3.8184607E2,3.9290173E2,1.5047695E3,1.6144175E3,2.1326001E2,6.357363E2,0E0,0E0,0E0,0E0,0E0,0E0,0E0,0E0,0E0,0E0,0E0,0E0,0E0,0E0,0E0,0E0],"parents":[2147483647,0,0,1,1,2,2,3,3,4,4,5,5,6,6,7,7,8,8,9,9,10,10,11,11,12,12,13,13,14,14],"right_children":[2,4,6,8,10,12,14,16,18,20,22,24,26,28,30,-1,-1,-1,-1,-1,-1,-1,-1,-1,-1,-1,-1,-1,-1,-1,-1],"split_conditions":[1.3E1,9E0,1E0,4E0,6E-2,1.5E1,1E0,5E0,2E0,1.6E1,4E1,1E-1,1.6E1,7.1E-1,2.51E1,-4.8991658E-2,1.4900129E-1,-1.8139069E-1,5.2317105E-2,1.6127147E-1,-9.151992E-2,3.7271592E-1,2.2108497E-2,-1.6790166E-4,3.6965245E-1,2.8394097E-1,-4.539027E-2,2.251152E-1,4.4024318E-1,4.270939E-1,6.6429305E-1],"split_indices":[6,6,10,6,12,4,0,4,19,14,13,18,4,12,9,0,0,0,0,0,0,0,0,0,0,0,0,0,0,0,0],"split_type":[0,0,0,0,0,0,0,0,0,0,0,0,0,0,0,0,0,0,0,0,0,0,0,0,0,0,0,0,0,0,0],"sum_hessian":[1.0443764E5,4.7308215E4,5.712943E4,1.9988213E4,2.732E4,5.003478E4,7.094647E3,5.3783466E2,1.9450379E4,2.2427783E4,4.892218E3,4.18817E4,8.153081E3,2.9620146E3,4.1326323E3,2.4006354E2,2.9777112E2,1.9078588E4,3.717907E2,5.5045337E2,2.1877328E4,3.0592712E2,4.586291E3,4.0867895E4,1.0138068E3,6.463557E3,1.689524E3,2.4621902E3,4.9982462E2,2.2859897E3,1.8466426E3],"tree_param":{"num_deleted":"0","num_feature":"20","num_nodes":"31","size_leaf_vector":"1"}},{"base_weights":[-8.836553E-3,-2.4820213E-1,2.1663648E-1,-4.0526426E-1,-9.761793E-2,1.1572489E-1,7.889582E-1,-4.2198107E-1,3.5897002E-1,-1.593167E-1,2.1333823E-1,3.9868485E-2,4.586288E-1,4.2101657E-1,9.2875874E-1,-2.0024545E-1,-1.1615903E-1,3.9348643E-2,2.191976E-1,-1.4299093E-1,-3.1673554E-2,-4.92778E-2,1.0066101E-1,-4.2010117E-2,6.2249694E-2,-9.127309E-2,1.7607394E-1,-1.1752557E-1,1.7847523E-1,3.2690899E-3,2.9760072E-1],"categories":[],"categories_nodes":[],"categories_segments":[],"categories_sizes":[],"default_left":[0,0,0,0,0,0,0,0,0,0,0,0,0,0,0,0,0,0,0,0,0,0,0,0,0,0,0,0,0,0,0],"id":1,"left_children":[1,3,5,7,9,11,13,15,17,19,21,23,25,27,29,-1,-1,-1,-1,-1,-1,-1,-1,-1,-1,-1,-1,-1,-1,-1,-1],"loss_changes":[5.637728E3,1.1983303E3,3.1065337E3,3.1699365E2,4.963493E2,1.189464E3,4.1433496E2,2.0700098E2,4.4900993E1,3.680498E2,1.9770193E2,1.129311E3,8.1084204E2,3.1425897E2,3.391006E2,0E0,0E0,0E0,0E0,0E0,0E0,0E0,0E0,0E0,0E0,0E0,0E0,0E0,0E0,0E0,0E0],"parents":[2147483647,0,0,1,1,2,2,3,3,4,4,5,5,6,6,7,7,8,8,9,9,10,10,11,11,12,12,13,13,14,14],"right_children":[2,4,6,8,10,12,14,16,18,20,22,24,26,28,30,-1,-1,-1,-1,-1,-1,-1,-1,-1,-1,-1,-1,-1,-1,-1,-1],"split_conditions":[1.4E1,1E1,1E0,2E-1,9E-2,1.5E1,1E0,3.6E1,2E0,1E0,1E0,7.17E2,3.9E1,8E1,3.3E1,-2.0024545E-1,-1.1615903E-1,3.9348643E-2,2.191976E-1,-1.4299093E-1,-3.1673554E-2,-4.92778E-2,1.0066101E-1,-4.2010117E-2,6.2249694E-2,-9.127309E-2,1.7607394E-1,-1.1752557E-1,1.7847523E-1,3.2690899E-3,2.9760072E-1],"split_indices":[6,6,10,18,12,4,8,17,19,8,8,15,17,17,17,0,0,0,0,0,0,0,0,0,0,0,0,0,0,0,0],"split_type":[0,0,0,0,0,0,0,0,0,0,0,0,0,0,0,0,0,0,0,0,0,0,0,0,0,0,0,0,0,0,0],"sum_hessian":[1.04457484E5,5.0667742E4,5.3789742E4,2.4799604E4,2.5868139E4,4.5728168E4,8.061574E3,2.4269188E4,5.3041516E2,2.1585676E4,4.2824624E3,3.7445645E4,8.282521E3,2.2207593E3,5.840815E3,3.0095989E3,2.125959E4,3.296969E2,2.0071829E2,3.1249902E3,1.8460686E4,1.0469636E3,3.235499E3,1.8061781E4,1.9383865E4,1.192093E3,7.0904287E3,3.911888E2,1.8295704E3,3.7658395E2,5.464231E3],"tree_param":{"num_deleted":"0","num_feature":"20","num_nodes":"31","size_leaf_vector":"1"}},{"base_weights":[-9.95861E-3,-2.4183618E-1,1.1399028E-1,-3.681474E-1,-1.3595083E-1,3.4005683E-2,4.3839625E-1,2.6913068E-1,-3.888433E-1,3.971289E-1,-1.630556E-1,-1.21918015E-1,1.7530058E-1,2.2782344E-1,6.1830527E-1,1.15584195E-1,-9.268233E-2,-1.6636005E-1,-9.788429E-2,3.6067528E-1,8.760251E-2,-5.5780698E-2,1.3492094E-1,-7.59804E-2,1.1491389E-3,-3.8043253E-2,9.306125E-2,2.4519127E-2,1.6052279E-1,7.554696E-2,2.2886182E-1],"categories":[],"categories_nodes":[],"categories_segments":[],"categories_sizes":[],"default_left":[0,0,0,0,0,0,0,0,0,0,0,0,0,0,0,0,0,0,0,0,0,0,0,0,0,0,0,0,0,0,0],"id":2,"left_children":[1,3,5,7,9,11,13,15,17,19,21,23,25,27,29,-1,-1,-1,-1,-1,-1,-1,-1,-1,-1,-1,-1,-1,-1,-1,-1],"loss_changes":[2.980699E3,4.831184E2,1.7535938E3,2.1737402E2,2.840397E2,1.1944845E3,5.0626147E2,3.4949276E1,1.6521558E2,8.0156906E1,2.6231805E2,4.2572412E2,1.1592627E3,2.7647772E2,3.816902E2,0E0,0E0,0E0,0E0,0E0,0E0,0E0,0E0,0E0,0E0,0E0,0E0,0E0,0E0,0E0,0E0],"parents":[2147483647,0,0,1,1,2,2,3,3,4,4,5,5,6,6,7,7,8,8,9,9,10,10,11,11,12,12,13,13,14,14],"right_children":[2,4,6,8,10,12,14,16,18,20,22,24,26,28,30,-1,-1,-1,-1,-1,-1,-1,-1,-1,-1,-1,-1,-1,-1,-1,-1],"split_conditions":[1.2E1,9E0,6E-2,4E0,2.1E1,2E0,2E0,1.3E1,7E0,2E0,7.6E-1,7.31E2,3E0,2.59E1,1E0,1.15584195E-1,-9.268233E-2,-1.6636005E-1,-9.788429E-2,3.6067528E-1,8.760251E-2,-5.5780698E-2,1.3492094E-1,-7.59804E-2,1.1491389E-3,-3.8043253E-2,9.306125E-2,2.4519127E-2,1.6052279E-1,7.554696E-2,2.2886182E-1],"split_indices":[6,6,12,6,14,2,2,4,6,14,12,15,5,9,8,0,0,0,0,0,0,0,0,0,0,0,0,0,0,0,0],"split_type":[0,0,0,0,0,0,0,0,0,0,0,0,0,0,0,0,0,0,0,0,0,0,0,0,0,0,0,0,0,0,0],"sum_hessian":[1.0370711E5,3.612509E4,6.7582016E4,1.6472486E4,1.9652605E4,5.421583E4,1.3366192E4,5.1774713E2,1.5954739E4,9.502391E2,1.8702365E4,2.5773754E4,2.8442072E4,6.15933E3,7.2068623E3,4.314008E2,8.6346344E1,4.3709214E3,1.1583818E4,1.0853428E2,8.417048E2,1.8029875E4,6.724915E2,1.2605609E4,1.31681455E4,8.779895E3,1.9662178E4,4.175311E3,1.9840189E3,2.039477E3,5.1673853E3],"tree_param":{"num_deleted":"0","num_feature":"20","num_nodes":"31","size_leaf_vector":"1"}},{"base_weights":[-9.53824E-3,-1.40156E-1,1.2913807E-1,-5.874515E-1,-1.1041069E-1,-1.3360967E-1,1.9677044E-1,7.485144E-1,-6.0691243E-1,-2.6208767E-1,-4.959613E-2,-1.9382669E-1,1.3046628E-1,7.801836E-2,3.9820105E-1,-1.0519377E-1,3.7410647E-1,-2.2550285E-1,-1.3995124E-1,1.761012E-1,-8.2122706E-2,-9.095024E-2,8.715745E-5,-1.3083231E-1,-4.0249385E-2,6.233929E-2,-1.5595299E-1,1.3816329E-3,1.090431E-1,-2.2101177E-1,1.256678E-1],"categories":[],"categories_nodes":[],"categories_segments":[],"categories_sizes":[],"default_left":[0,0,0,0,0,0,0,0,0,0,0,0,0,0,0,0,0,0,0,0,0,0,0,0,0,0,0,0,0,0,0],"id":3,"left_children":[1,3,5,7,9,11,13,15,17,19,21,23,25,27,29,-1,-1,-1,-1,-1,-1,-1,-1,-1,-1,-1,-1,-1,-1,-1,-1],"loss_changes":[1.8655988E3,7.056057E2,8.87761E2,8.643103E1,4.5872632E2,1.6265646E2,9.503235E2,2.6698689E1,6.591162E1,1.410091E2,4.4907245E2,1.2033014E2,9.564022E1,5.238205E2,3.463352E2,0E0,0E0,0E0,0E0,0E0,0E0,0E0,0E0,0E0,0E0,0E0,0E0,0E0,0E0,0E0,0E0],"parents":[2147483647,0,0,1,1,2,2,3,3,4,4,5,5,6,6,7,7,8,8,9,9,10,10,11,11,12,12,13,13,14,14],"right_children":[2,4,6,8,10,12,14,16,18,20,22,24,26,28,30,-1,-1,-1,-1,-1,-1,-1,-1,-1,-1,-1,-1,-1,-1,-1,-1],"split_conditions":[1.5E1,3.1E1,1E0,3.4E1,9E0,1.5E1,6.1E1,3E0,2.5E1,1E1,1E0,1E0,1.7E1,2.59E1,2.5E1,-1.0519377E-1,3.7410647E-1,-2.2550285E-1,-1.3995124E-1,1.761012E-1,-8.2122706E-2,-9.095024E-2,8.715745E-5,-1.3083231E-1,-4.0249385E-2,6.233929E-2,-1.5595299E-1,1.3816329E-3,1.090431E-1,-2.2101177E-1,1.256678E-1],"split_indices":[6,17,2,13,6,4,14,7,17,14,8,8,4,9,17,0,0,0,0,0,0,0,0,0,0,0,0,0,0,0,0],"split_type":[0,0,0,0,0,0,0,0,0,0,0,0,0,0,0,0,0,0,0,0,0,0,0,0,0,0,0,0,0,0,0],"sum_hessian":[1.0299243E5,5.303722E4,4.9955215E4,3.3059036E3,4.9731316E4,1.0226173E4,3.972904E4,4.6927624E1,3.2589758E3,1.4232033E4,3.549928E4,8.3275205E3,1.898652E3,2.4994867E4,1.4734174E4,1.4734992E1,3.2192635E1,1.6024579E3,1.6565181E3,1.9203589E2,1.4039997E4,5.835032E3,2.966425E4,1.6442196E3,6.6833013E3,1.6974775E3,2.0117453E2,1.9882576E4,5.1122915E3,2.6320328E2,1.447097E4],"tree_param":{"num_deleted":"0","num_feature":"20","num_nodes":"31","size_leaf_vector":"1"}},{"base_weights":[-8.457747E-3,-4.6017107E-1,1.643443E-2,-1.4990692E-1,-5.807233E-1,-2.4918891E-2,2.8728518E-1,-9.299734E-1,-2.2999814E-2,-7.702785E-1,-4.5831937E-1,-2.4480963E-1,1.6309084E-2,2.596535E-1,1.0492098E0,1.4599825E-1,-2.8402406E-1,-1.7504631E-1,6.470516E-2,-2.3943065E-1,-1.5620671E-1,-1.4720573E-1,1.1042992E-1,-2.0127536E-1,-5.49445E-2,-4.8088457E-2,2.4825707E-2,3.9044067E-2,1.2657276E-1,7.0871845E-2,3.769086E-1],"categories":[],"categories_nodes":[],"categories_segments":[],"categories_sizes":[],"default_left":[0,0,0,0,0,0,0,0,0,0,0,0,0,0,0,0,0,0,0,0,0,0,0,0,0,0,0,0,0,0,0],"id":4,"left_children":[1,3,5,7,9,11,13,15,17,19,21,23,25,27,29,-1,-1,-1,-1,-1,-1,-1,-1,-1,-1,-1,-1,-1,-1,-1,-1],"loss_changes":[1.1506978E3,1.9982812E2,1.0863859E3,1.4817279E2,8.895093E1,7.6284845E2,2.7020703E2,5.437317E0,1.7250517E2,1.0061829E1,6.280313E1,3.489577E2,8.3151483E2,2.6049005E2,7.536658E1,0E0,0E0,0E0,0E0,0E0,0E0,0E0,0E0,0E0,0E0,0E0,0E0,0E0,0E0,0E0,0E0],"parents":[2147483647,0,0,1,1,2,2,3,3,4,4,5,5,6,6,7,7,8,8,9,9,10,10,11,11,12,12,13,13,14,14],"right_children":[2,4,6,8,10,12,14,16,18,20,22,24,26,28,30,-1,-1,-1,-1,-1,-1,-1,-1,-1,-1,-1,-1,-1,-1,-1,-1],"split_conditions":[3.1E1,4E0,1.8E-1,3E0,2.4E1,1E0,9E0,1E0,1.9E1,1.432E1,6.7E-1,7.6E1,1.1E1,1.6E1,1E1,1.4599825E-1,-2.8402406E-1,-1.7504631E-1,6.470516E-2,-2.3943065E-1,-1.5620671E-1,-1.4720573E-1,1.1042992E-1,-2.0127536E-1,-5.49445E-2,-4.8088457E-2,2.4825707E-2,3.9044067E-2,1.2657276E-1,7.0871845E-2,3.769086E-1],"split_indices":[17,8,12,8,17,8,8,2,17,16,12,17,6,6,6,0,0,0,0,0,0,0,0,0,0,0,0,0,0,0,0],"split_type":[0,0,0,0,0,0,0,0,0,0,0,0,0,0,0,0,0,0,0,0,0,0,0,0,0,0,0,0,0,0,0],"sum_hessian":[1.0233599E5,5.343896E3,9.699209E4,1.4959716E3,3.8479246E3,8.4145695E4,1.2846402E4,2.0843643E2,1.2875352E3,1.5077397E3,2.3401848E3,1.3284965E4,7.086073E4,1.2398118E4,4.482846E2,2.1112614E0,2.0632518E2,3.841088E2,9.0342633E2,1.3545411E3,1.5319862E2,2.2523774E3,8.780725E1,1.6781676E3,1.1606798E4,1.9371236E4,5.1489492E4,6.895879E3,5.5022393E3,9.1466E1,3.568186E2],"tree_param":{"num_deleted":"0","num_feature":"20","num_nodes":"31","size_leaf_vector":"1"}},{"base_weights":[-7.3274053E-3,-1.8721499E-1,3.9078306E-2,-1.9761206E-1,5.812435E-1,-5.243841E-2,1.4316691E-1,-2.0676339E-1,7.03927E-1,7.223149E-2,8.143968E-1,-7.1096234E-2,5.594153E-1,7.886988E-2,3.3757755E-1,-8.9902654E-2,-4.1330356E-2,4.105628E-2,2.9640916E-1,-8.030737E-2,4.416022E-1,3.1907386E-1,-8.177022E-2,-2.5953399E-2,1.432763E-1,3.5992348E-1,1.0267258E-1,-9.841231E-2,3.210299E-2,7.331525E-2,2.2718845E-1],"categories":[],"categories_nodes":[],"categories_segments":[],"categories_sizes":[],"default_left":[0,0,0,0,0,0,0,0,0,0,0,0,0,0,0,0,0,0,0,0,0,0,0,0,0,0,0,0,0,0,0],"id":5,"left_children":[1,3,5,7,9,11,13,15,17,19,21,23,25,27,29,-1,-1,-1,-1,-1,-1,-1,-1,-1,-1,-1,-1,-1,-1,-1,-1],"loss_changes":[8.49668E2,1.6688092E2,7.7075214E2,1.7005756E2,3.303869E1,4.9156448E2,4.73169E2,1.3065973E2,3.3242775E1,4.2603603E1,5.207023E1,3.5344327E2,1.7678513E2,3.2578558E2,3.6780774E2,0E0,0E0,0E0,0E0,0E0,0E0,0E0,0E0,0E0,0E0,0E0,0E0,0E0,0E0,0E0,0E0],"parents":[2147483647,0,0,1,1,2,2,3,3,4,4,5,5,6,6,7,7,8,8,9,9,10,10,11,11,12,12,13,13,14,14],"right_children":[2,4,6,8,10,12,14,16,18,20,22,24,26,28,30,-1,-1,-1,-1,-1,-1,-1,-1,-1,-1,-1,-1,-1,-1,-1,-1],"split_conditions":[1E0,1.857E1,6E0,8E-1,4.9E1,7E-1,1.9E1,3E0,7.83E0,5.6E1,7.6E1,1.03E0,2.9E1,3.3E1,1.5E1,-8.9902654E-2,-4.1330356E-2,4.105628E-2,2.9640916E-1,-8.030737E-2,4.416022E-1,3.1907386E-1,-8.177022E-2,-2.5953399E-2,1.432763E-1,3.5992348E-1,1.0267258E-1,-9.841231E-2,3.210299E-2,7.331525E-2,2.2718845E-1],"split_indices":[2,16,5,18,17,18,6,7,16,14,13,12,13,17,4,0,0,0,0,0,0,0,0,0,0,0,0,0,0,0,0],"split_type":[0,0,0,0,0,0,0,0,0,0,0,0,0,0,0,0,0,0,0,0,0,0,0,0,0,0,0,0,0,0,0],"sum_hessian":[1.0178145E5,2.0871586E4,8.090987E4,2.0593701E4,2.7788528E2,4.3055305E4,3.7854562E4,2.0387521E4,2.0617856E2,8.7709915E1,1.9017535E2,4.178209E4,1.2732162E3,2.8447562E4,9.406999E3,8.68654E3,1.1700982E4,6.931233E1,1.3686623E2,7.122286E1,1.6487057E1,1.5472641E2,3.544895E1,4.0641133E4,1.1409572E3,3.213121E2,9.519041E2,1.8393635E3,2.66082E4,7.6990874E3,1.7079119E3],"tree_param":{"num_deleted":"0","num_feature":"20","num_nodes":"31","size_leaf_vector":"1"}},{"base_weights":[-6.0994835E-3,-1.2458768E-1,5.3840164E-2,-1.8668091E-1,5.1696073E-2,-2.9113414E-2,1.7305927E-1,-2.685635E-1,-4.0572755E-2,1.21409826E-1,-4.178335E-1,-2.254945E-1,1.1753942E-2,1.2792556E-1,4.124044E-1,-1.8054518E-1,-7.1639456E-2,1.2698853E-1,-2.20154E-2,-1.5199046E-1,5.030435E-2,-1.4575064E-1,3.3178132E-3,-2.0982178E-1,-3.517154E-2,3.278549E-2,-4.4614263E-2,9.6299626E-2,8.927453E-3,1.6944833E-1,-2.8066615E-2],"categories":[],"categories_nodes":[],"categories_segments":[],"categories_sizes":[],"default_left":[0,0,0,0,0,0,0,0,0,0,0,0,0,0,0,0,0,0,0,0,0,0,0,0,0,0,0,0,0,0,0],"id":6,"left_children":[1,3,5,7,9,11,13,15,17,19,21,23,25,27,29,-1,-1,-1,-1,-1,-1,-1,-1,-1,-1,-1,-1,-1,-1,-1,-1],"loss_changes":[7.194759E2,3.725171E2,6.653102E2,3.0107898E2,2.9023782E2,3.1838486E2,2.9812854E2,1.598374E2,1.3762105E2,2.2443225E2,3.343918E1,3.50507E2,5.1395703E2,4.40186E2,3.3775116E2,0E0,0E0,0E0,0E0,0E0,0E0,0E0,0E0,0E0,0E0,0E0,0E0,0E0,0E0,0E0,0E0],"parents":[2147483647,0,0,1,1,2,2,3,3,4,4,5,5,6,6,7,7,8,8,9,9,10,10,11,11,12,12,13,13,14,14],"right_children":[2,4,6,8,10,12,14,16,18,20,22,24,26,28,30,-1,-1,-1,-1,-1,-1,-1,-1,-1,-1,-1,-1,-1,-1,-1,-1],"split_conditions":[5.81E2,1.4E1,7.1E1,1E0,1.7E1,3E0,1.5E1,1E0,3.9E1,8E0,2.6E-1,5.4E1,7E0,4E0,1.6E1,-1.8054518E-1,-7.1639456E-2,1.2698853E-1,-2.20154E-2,-1.5199046E-1,5.030435E-2,-1.4575064E-1,3.3178132E-3,-2.0982178E-1,-3.517154E-2,3.278549E-2,-4.4614263E-2,9.6299626E-2,8.927453E-3,1.6944833E-1,-2.8066615E-2],"split_indices":[15,4,17,1,4,8,4,4,13,6,12,17,8,4,4,0,0,0,0,0,0,0,0,0,0,0,0,0,0,0,0],"split_type":[0,0,0,0,0,0,0,0,0,0,0,0,0,0,0,0,0,0,0,0,0,0,0,0,0,0,0,0,0,0,0],"sum_hessian":[1.0130214E5,3.403028E4,6.727186E4,2.5165916E4,8.864366E3,3.9669953E4,2.7601906E4,1.6127072E4,9.038845E3,7.71902E3,1.1453458E3,6.832591E3,3.2837363E4,2.3224043E4,4.377863E3,1.3207457E3,1.4806326E4,5.963426E2,8.442502E3,5.289938E2,7.1900264E3,9.884863E2,1.568595E2,1.2695283E3,5.5630625E3,2.0424104E4,1.2413258E4,7.8272773E3,1.5396766E4,3.364247E3,1.01361566E3],"tree_param":{"num_deleted":"0","num_feature":"20","num_nodes":"31","size_leaf_vector":"1"}},{"base_weights":[-5.601485E-3,-6.088483E-2,1.1507496E-1,-2.7059108E-1,-3.465731E-2,3.145762E-2,2.2432135E-1,-3.560665E-2,-3.467707E-1,4.6838614E-1,-4.536211E-2,4.7205523E-1,1.15275225E-2,1.353324E-1,3.3379674E-1,-2.3903339E-1,1.7699713E-2,-1.7710651E-1,-8.00935E-2,6.774106E-1,1.2528142E-1,-1.4494015E-1,-1.0014501E-2,6.470131E-2,3.0266294E-1,-5.138447E-3,8.900112E-2,1.9701733E-1,3.4506314E-2,7.3355466E-2,1.6637269E-1],"categories":[],"categories_nodes":[],"categories_segments":[],"categories_sizes":[],"default_left":[0,0,0,0,0,0,0,0,0,0,0,0,0,0,0,0,0,0,0,0,0,0,0,0,0,0,0,0,0,0,0],"id":7,"left_children":[1,3,5,7,9,11,13,15,17,19,21,23,25,27,29,-1,-1,-1,-1,-1,-1,-1,-1,-1,-1,-1,-1,-1,-1,-1,-1],"loss_changes":[6.7394836E2,3.8104507E2,2.8992365E2,1.3785297E2,3.3163446E2,1.5787456E2,1.3401025E2,1.359043E2,1.1288165E2,1.15678406E2,3.1623352E2,1.0686926E2,1.405648E2,8.032622E1,1.2146655E2,0E0,0E0,0E0,0E0,0E0,0E0,0E0,0E0,0E0,0E0,0E0,0E0,0E0,0E0,0E0,0E0],"parents":[2147483647,0,0,1,1,2,2,3,3,4,4,5,5,6,6,7,7,8,8,9,9,10,10,11,11,12,12,13,13,14,14],"right_children":[2,4,6,8,10,12,14,16,18,20,22,24,26,28,30,-1,-1,-1,-1,-1,-1,-1,-1,-1,-1,-1,-1,-1,-1,-1,-1],"split_conditions":[2.3E1,3.8E1,1E-2,4E0,1.2E1,2E1,1.6E1,3E0,2.8E1,-1.1E1,1E0,1.2E1,7.5E1,3.6E1,1.4E1,-2.3903339E-1,1.7699713E-2,-1.7710651E-1,-8.00935E-2,6.774106E-1,1.2528142E-1,-1.4494015E-1,-1.0014501E-2,6.470131E-2,3.0266294E-1,-5.138447E-3,8.900112E-2,1.9701733E-1,3.4506314E-2,7.3355466E-2,1.6637269E-1],"split_indices":[9,17,12,8,14,14,6,8,17,14,4,5,14,13,4,0,0,0,0,0,0,0,0,0,0,0,0,0,0,0,0],"split_type":[0,0,0,0,0,0,0,0,0,0,0,0,0,0,0,0,0,0,0,0,0,0,0,0,0,0,0,0,0,0,0],"sum_hessian":[1.0101851E5,6.928068E4,3.1737824E4,7.7005337E3,6.158015E4,1.797841E4,1.3759414E4,1.8856149E3,5.814919E3,1.282234E3,6.0297914E4,7.7706384E2,1.7201348E4,7.5910977E3,6.1683164E3,2.0763322E2,1.6779817E3,1.4332375E3,4.381681E3,3.4180244E1,1.2480538E3,1.6051608E3,5.8692754E4,5.2684564E2,2.5021815E2,1.5631396E4,1.5699508E3,2.834563E2,7.307641E3,4.3937E3,1.7746162E3],"tree_param":{"num_deleted":"0","num_feature":"20","num_nodes":"31","size_leaf_vector":"1"}},{"base_weights":[-4.6548713E-3,-9.830409E-2,4.5720067E-2,1.6534556E-2,-1.4016944E-1,-4.4427297E-1,5.7706006E-2,-5.053377E-2,4.929344E-1,5.808257E-1,-1.4862432E-1,-7.0463896E-1,-3.750111E-1,-1.8249592E-2,1.3149695E-1,-1.2616989E-1,-8.9708046E-4,1.8454349E-1,-1.3708638E-3,1.3767233E-1,6.009687E-1,-5.7570726E-2,-4.4269525E-3,1.3307025E-1,-2.2574787E-1,-1.761488E-2,-1.4644021E-1,-5.6239594E-2,3.9117727E-3,2.5756082E-2,9.7353555E-2],"categories":[],"categories_nodes":[],"categories_segments":[],"categories_sizes":[],"default_left":[0,0,0,0,0,0,0,0,0,0,0,0,0,0,0,0,0,0,0,0,0,0,0,0,0,0,0,0,0,0,0],"id":8,"left_children":[1,3,5,7,9,11,13,15,17,19,21,23,25,27,29,-1,-1,-1,-1,-1,-1,-1,-1,-1,-1,-1,-1,-1,-1,-1,-1],"loss_changes":[4.7462354E2,1.691836E2,3.8422955E2,3.0043506E2,1.5728882E2,2.7906372E1,3.579118E2,1.4501004E2,7.055472E1,5.0950905E1,1.4767456E2,1.8306656E1,4.4196854E1,1.6661154E2,2.8532562E2,0E0,0E0,0E0,0E0,0E0,0E0,0E0,0E0,0E0,0E0,0E0,0E0,0E0,0E0,0E0,0E0],"parents":[2147483647,0,0,1,1,2,2,3,3,4,4,5,5,6,6,7,7,8,8,9,9,10,10,11,11,12,12,13,13,14,14],"right_children":[2,4,6,8,10,12,14,16,18,20,22,24,26,28,30,-1,-1,-1,-1,-1,-1,-1,-1,-1,-1,-1,-1,-1,-1,-1,-1],"split_conditions":[1.7E1,4E0,2.6E1,3E0,5E0,1.5E1,1.5E1,1E0,2.475E3,1.2E1,1.5E1,7E0,4E0,8E0,1.5E1,-1.2616989E-1,-8.9708046E-4,1.8454349E-1,-1.3708638E-3,1.3767233E-1,6.009687E-1,-5.7570726E-2,-4.4269525E-3,1.3307025E-1,-2.2574787E-1,-1.761488E-2,-1.4644021E-1,-5.6239594E-2,3.9117727E-3,2.5756082E-2,9.7353555E-2],"split_indices":[9,4,17,4,14,17,6,4,15,5,4,6,8,6,4,0,0,0,0,0,0,0,0,0,0,0,0,0,0,0,0],"split_type":[0,0,0,0,0,0,0,0,0,0,0,0,0,0,0,0,0,0,0,0,0,0,0,0,0,0,0,0,0,0,0],"sum_hessian":[1.006056E5,3.5188215E4,6.5417387E4,9.401114E3,2.5787102E4,1.5611339E3,6.385625E4,8.241725E3,1.1593892E3,2.981077E2,2.5488994E4,3.261002E2,1.2350337E3,3.1466963E4,3.238929E4,9.3747595E2,7.3042485E3,9.3056244E2,2.2882674E2,2.757915E2,2.2316193E1,1.9261512E4,6.227483E3,1.2716275E1,3.133839E2,3.257491E2,9.092846E2,4.909656E3,2.6557307E4,2.619601E4,6.193279E3],"tree_param":{"num_deleted":"0","num_feature":"20","num_nodes":"31","size_leaf_vector":"1"}},{"base_weights":[-3.9692586E-3,-7.6865375E-2,4.9940992E-2,-1.584578E-1,-9.7753005E-3,8.666211E-3,1.7933685E-1,-1.8185379E-1,5.2916825E-2,1.2214341E-1,-5.7716757E-2,-1.953673E-2,1.7583771E-1,8.7286465E-2,3.2761884E-1,-5.6287486E-2,2.780326E-1,-1.0672138E-2,1.1969302E-1,1.2329005E-2,1.7544237E-1,-3.9040342E-2,6.2817116E-3,2.5858449E-2,-1.7962942E-2,3.4613248E-2,1.1074043E-1,2.2509888E-2,3.1406465E-1,1.3480082E-1,4.384478E-2],"categories":[],"categories_nodes":[],"categories_segments":[],"categories_sizes":[],"default_left":[0,0,0,0,0,0,0,0,0,0,0,0,0,0,0,0,0,0,0,0,0,0,0,0,0,0,0,0,0,0,0],"id":9,"left_children":[1,3,5,7,9,11,13,15,17,19,21,23,25,27,29,-1,-1,-1,-1,-1,-1,-1,-1,-1,-1,-1,-1,-1,-1,-1,-1],"loss_changes":[3.9365704E2,2.3311897E2,3.0754517E2,9.504028E1,1.4781567E2,2.0584576E2,1.900549E2,1.1087024E2,5.8680843E1,2.3358115E2,9.76469E1,1.5934361E2,7.361311E1,1.0096864E2,1.1774103E2,0E0,0E0,0E0,0E0,0E0,0E0,0E0,0E0,0E0,0E0,0E0,0E0,0E0,0E0,0E0,0E0],"parents":[2147483647,0,0,1,1,2,2,3,3,4,4,5,5,6,6,7,7,8,8,9,9,10,10,11,11,12,12,13,13,14,14],"right_children":[2,4,6,8,10,12,14,16,18,20,22,24,26,28,30,-1,-1,-1,-1,-1,-1,-1,-1,-1,-1,-1,-1,-1,-1,-1,-1],"split_conditions":[3E0,2E0,1.9E1,3E1,4E0,1E0,8E1,1.77E0,1.5E1,3E0,7.33E2,4E0,9.3E1,1.58E0,8E0,-5.6287486E-2,2.780326E-1,-1.0672138E-2,1.1969302E-1,1.2329005E-2,1.7544237E-1,-3.9040342E-2,6.2817116E-3,2.5858449E-2,-1.7962942E-2,3.4613248E-2,1.1074043E-1,2.2509888E-2,3.1406465E-1,1.3480082E-1,4.384478E-2],"split_indices":[7,2,6,9,4,10,13,12,4,4,15,4,17,12,5,0,0,0,0,0,0,0,0,0,0,0,0,0,0,0,0],"split_type":[0,0,0,0,0,0,0,0,0,0,0,0,0,0,0,0,0,0,0,0,0,0,0,0,0,0,0,0,0,0,0],"sum_hessian":[1.0016909E5,4.2585543E4,5.758355E4,1.9215281E4,2.3370262E4,4.365842E4,1.3925128E4,1.7300514E4,1.9147675E3,6.2288955E3,1.7141367E4,3.735694E4,6.3014805E3,8.592605E3,5.332522E3,1.7211744E4,8.876792E1,1.5255642E3,3.8920325E2,5.3013296E3,9.275657E2,8.92424E3,8.217126E3,1.0316355E4,2.7040588E4,4.8013057E3,1.500175E3,8.485331E3,1.0727482E2,3.190847E3,2.1416753E3],"tree_param":{"num_deleted":"0","num_feature":"20","num_nodes":"31","size_leaf_vector":"1"}},{"base_weights":[-3.3270463E-3,-1.9714902E-1,1.3026868E-2,-7.863474E-1,-1.755011E-1,2.122359E-2,-4.125002E-1,-8.164044E-1,7.844045E-1,2.3172958E-2,-2.544706E-1,-1.0938166E-2,1.7908217E-1,-5.217352E-1,-2.8165504E-1,-1.6896655E-1,-2.781674E-1,6.336621E-2,3.6864066E-1,-9.398081E-2,4.6673544E-2,-1.5627801E-1,-6.018337E-2,2.8659329E-2,-1.8538354E-2,-1.19352855E-1,6.9268584E-2,-9.488096E-2,-2.1210581E-1,-1.2073596E-1,-3.2177072E-2],"categories":[],"categories_nodes":[],"categories_segments":[],"categories_sizes":[],"default_left":[0,0,0,0,0,0,0,0,0,0,0,0,0,0,0,0,0,0,0,0,0,0,0,0,0,0,0,0,0,0,0],"id":10,"left_children":[1,3,5,7,9,11,13,15,17,19,21,23,25,27,29,-1,-1,-1,-1,-1,-1,-1,-1,-1,-1,-1,-1,-1,-1,-1,-1],"loss_changes":[3.165375E2,9.8971924E1,3.2121857E2,1.3627823E1,1.176158E2,4.587222E2,2.4729004E1,7.064926E0,1.1860139E0,9.50695E1,7.687778E1,4.0643323E2,4.5722244E2,3.584268E1,1.6685387E1,0E0,0E0,0E0,0E0,0E0,0E0,0E0,0E0,0E0,0E0,0E0,0E0,0E0,0E0,0E0,0E0],"parents":[2147483647,0,0,1,1,2,2,3,3,4,4,5,5,6,6,7,7,8,8,9,9,10,10,11,11,12,12,13,13,14,14],"right_children":[2,4,6,8,10,12,14,16,18,20,22,24,26,28,30,-1,-1,-1,-1,-1,-1,-1,-1,-1,-1,-1,-1,-1,-1,-1,-1],"split_conditions":[3.5E1,3E0,1.7E1,1E1,4E0,1.5E1,7.6E1,8.05E0,1E0,3E0,2.3E1,4E0,8E0,7E0,6.2E1,-1.6896655E-1,-2.781674E-1,6.336621E-2,3.6864066E-1,-9.398081E-2,4.6673544E-2,-1.5627801E-1,-6.018337E-2,2.8659329E-2,-1.8538354E-2,-1.19352855E-1,6.9268584E-2,-9.488096E-2,-2.1210581E-1,-1.2073596E-1,-3.2177072E-2],"split_indices":[17,8,4,5,8,4,17,16,0,4,17,4,6,8,14,0,0,0,0,0,0,0,0,0,0,0,0,0,0,0,0],"split_type":[0,0,0,0,0,0,0,0,0,0,0,0,0,0,0,0,0,0,0,0,0,0,0,0,0,0,0,0,0,0,0],"sum_hessian":[9.9860234E4,7.7693257E3,9.209091E4,2.7408707E2,7.4952383E3,9.035146E4,1.7394462E3,2.6941202E2,4.675069E0,2.1320537E3,5.3631846E3,7.505986E4,1.5291598E4,9.463807E2,7.930654E2,8.387389E1,1.8553812E2,2.6859844E0,1.9890846E0,6.0171936E2,1.5303344E3,9.0033325E2,4.4628516E3,2.4263219E4,5.0796645E4,1.2596011E3,1.4031997E4,4.500348E2,4.9634586E2,4.677602E2,3.2530527E2],"tree_param":{"num_deleted":"0","num_feature":"20","num_nodes":"31","size_leaf_vector":"1"}},{"base_weights":[-2.9829994E-3,-3.6719045E-1,6.2139914E-3,-4.3624407E-1,-2.2788316E-1,-2.8592026E-2,9.437828E-2,-6.603196E-1,-2.9770124E-1,-3.7916368E-1,-8.399739E-3,7.412054E-2,-6.3890524E-2,3.4756762E-1,7.058749E-2,-1.371132E-1,-2.2152986E-1,-9.639764E-2,2.5244603E-1,-1.3426442E-1,-3.483301E-2,-8.590319E-3,4.067413E-1,3.6149323E-3,1.2063835E-1,-3.40363E-2,1.0060764E-2,9.23246E-2,3.2942852E-1,-1.7875154E-2,3.663186E-2],"categories":[],"categories_nodes":[],"categories_segments":[],"categories_sizes":[],"default_left":[0,0,0,0,0,0,0,0,0,0,0,0,0,0,0,0,0,0,0,0,0,0,0,0,0,0,0,0,0,0,0],"id":11,"left_children":[1,3,5,7,9,11,13,15,17,19,21,23,25,27,29,-1,-1,-1,-1,-1,-1,-1,-1,-1,-1,-1,-1,-1,-1,-1,-1],"loss_changes":[3.335352E2,2.3493073E1,2.9803604E2,5.0673157E1,2.7054173E1,2.5246606E2,1.6556386E2,9.590393E0,2.757016E1,8.625366E0,9.245335E0,3.6260474E2,2.5025172E2,7.021997E1,1.685362E2,0E0,0E0,0E0,0E0,0E0,0E0,0E0,0E0,0E0,0E0,0E0,0E0,0E0,0E0,0E0,0E0],"parents":[2147483647,0,0,1,1,2,2,3,3,4,4,5,5,6,6,7,7,8,8,9,9,10,10,11,11,12,12,13,13,14,14],"right_children":[2,4,6,8,10,12,14,16,18,20,22,24,26,28,30,-1,-1,-1,-1,-1,-1,-1,-1,-1,-1,-1,-1,-1,-1,-1,-1],"split_conditions":[1E0,2E0,1E-2,8.8E1,1E0,4E0,4E1,1.2E1,1.72E0,6.7E1,2.237E1,3E0,9.37E2,8E0,4.6E1,-1.371132E-1,-2.2152986E-1,-9.639764E-2,2.5244603E-1,-1.3426442E-1,-3.483301E-2,-8.590319E-3,4.067413E-1,3.6149323E-3,1.2063835E-1,-3.40363E-2,1.0060764E-2,9.23246E-2,3.2942852E-1,-1.7875154E-2,3.663186E-2],"split_indices":[4,8,12,17,1,4,13,6,12,14,16,4,15,8,14,0,0,0,0,0,0,0,0,0,0,0,0,0,0,0,0],"split_type":[0,0,0,0,0,0,0,0,0,0,0,0,0,0,0,0,0,0,0,0,0,0,0,0,0,0,0,0,0,0,0],"sum_hessian":[9.957257E4,2.4515242E3,9.712105E4,1.6376309E3,8.138934E2,6.963199E4,2.7489055E4,6.242383E2,1.0133926E3,4.8137482E2,3.3251855E2,1.7809197E4,5.1822797E4,2.3599617E3,2.5129092E4,1.751897E2,4.4904855E2,9.935074E2,1.9885195E1,3.8149786E2,9.9876945E1,3.2862323E2,3.8953185E0,1.4976198E4,2.8329983E3,3.43485E4,1.7474299E4,2.2424019E3,1.17559845E2,7.1253774E3,1.8003715E4],"tree_param":{"num_deleted":"0","num_feature":"20","num_nodes":"31","size_leaf_vector":"1"}},{"base_weights":[-2.6014072E-3,-1.0764598E-1,2.292856E-2,3.941471E-1,-1.14071466E-1,-3.2737225E-2,8.3844215E-2,2.7299464E-1,9.8158157E-1,-1.3150266E-1,6.5993026E-2,-4.883764E-2,1.9457722E-1,9.2896193E-1,7.6585956E-2,4.7539905E-2,1.9416898E-1,1.0308948E-1,3.6035532E-1,-5.5955783E-2,-2.2143362E-2,4.8377745E-2,-2.8770296E-2,-1.8584851E-2,6.73669E-2,2.4649426E-2,1.17866665E-1,2.0425051E-1,6.561817E-1,4.496038E-2,-1.8205007E-3],"categories":[],"categories_nodes":[],"categories_segments":[],"categories_sizes":[],"default_left":[0,0,0,0,0,0,0,0,0,0,0,0,0,0,0,0,0,0,0,0,0,0,0,0,0,0,0,0,0,0,0],"id":12,"left_children":[1,3,5,7,9,11,13,15,17,19,21,23,25,27,29,-1,-1,-1,-1,-1,-1,-1,-1,-1,-1,-1,-1,-1,-1,-1,-1],"loss_changes":[2.664154E2,6.2671432E1,2.710021E2,1.72253E1,6.020549E1,1.5284424E2,2.3400803E2,8.690609E0,5.420929E0,5.548752E1,2.6132755E1,1.3981161E2,6.1548073E1,9.9938354E1,2.2917952E2,0E0,0E0,0E0,0E0,0E0,0E0,0E0,0E0,0E0,0E0,0E0,0E0,0E0,0E0,0E0,0E0],"parents":[2147483647,0,0,1,1,2,2,3,3,4,4,5,5,6,6,7,7,8,8,9,9,10,10,11,11,12,12,13,13,14,14],"right_children":[2,4,6,8,10,12,14,16,18,20,22,24,26,28,30,-1,-1,-1,-1,-1,-1,-1,-1,-1,-1,-1,-1,-1,-1,-1,-1],"split_conditions":[1E0,1.4E1,6E0,2.39E1,1.387E1,1.2E0,1.2E1,8.4E1,1.1E1,1.5E1,1.1E1,3.51E1,7.6E1,1.499E1,8E0,4.7539905E-2,1.9416898E-1,1.0308948E-1,3.6035532E-1,-5.5955783E-2,-2.2143362E-2,4.8377745E-2,-2.8770296E-2,-1.8584851E-2,6.73669E-2,2.4649426E-2,1.17866665E-1,2.0425051E-1,6.561817E-1,4.496038E-2,-1.8205007E-3],"split_indices":[2,14,5,9,16,19,14,17,6,6,5,9,17,16,5,0,0,0,0,0,0,0,0,0,0,0,0,0,0,0,0],"split_type":[0,0,0,0,0,0,0,0,0,0,0,0,0,0,0,0,0,0,0,0,0,0,0,0,0,0,0,0,0,0,0],"sum_hessian":[9.934066E4,1.9422482E4,7.991818E4,2.4479857E2,1.9177684E4,4.1758758E4,3.8159418E4,2.0415779E2,4.064077E1,1.7485287E4,1.6923976E3,3.8997402E4,2.761355E3,3.238585E2,3.783556E4,1.5740894E2,4.6748863E1,1.1064114E1,2.9576656E1,8.948984E3,8.536302E3,1.0654438E3,6.269538E2,3.7213438E4,1.7839677E3,1.7632661E3,9.980887E2,2.7180264E2,5.2055843E1,2.0054375E4,1.7781184E4],"tree_param":{"num_deleted":"0","num_feature":"20","num_nodes":"31","size_leaf_vector":"1"}},{"base_weights":[-2.1956693E-3,-1.6414534E-1,1.1051868E-2,4.1511336E-1,-2.0353808E-1,-8.4561095E-2,3.5427727E-2,2.936506E-2,7.1490806E-1,-2.970139E-1,-1.2200442E-1,-1.9135785E-1,3.6999476E-3,-5.175698E-3,1.0257034E-1,-1.2229853E-1,8.346375E-2,3.6274147E-1,3.6718134E-2,-6.389978E-2,-1.3947658E-1,-4.6740476E-2,3.0241735E-2,-1.688652E-1,-4.24584E-2,6.336357E-2,-2.3353824E-2,-4.2308915E-2,1.1812411E-2,-7.2011226E-3,4.1758895E-2],"categories":[],"categories_nodes":[],"categories_segments":[],"categories_sizes":[],"default_left":[0,0,0,0,0,0,0,0,0,0,0,0,0,0,0,0,0,0,0,0,0,0,0,0,0,0,0,0,0,0,0],"id":13,"left_children":[1,3,5,7,9,11,13,15,17,19,21,23,25,27,29,-1,-1,-1,-1,-1,-1,-1,-1,-1,-1,-1,-1,-1,-1,-1,-1],"loss_changes":[2.1259183E2,1.7105771E2,2.1348521E2,5.519143E1,5.3437836E1,1.7540416E2,1.9898816E2,2.2932762E1,7.850893E1,4.6002625E1,2.8248692E1,1.5580261E2,1.724388E2,2.7529858E2,1.2751831E2,0E0,0E0,0E0,0E0,0E0,0E0,0E0,0E0,0E0,0E0,0E0,0E0,0E0,0E0,0E0,0E0],"parents":[2147483647,0,0,1,1,2,2,3,3,4,4,5,5,6,6,7,7,8,8,9,9,10,10,11,11,12,12,13,13,14,14],"right_children":[2,4,6,8,10,12,14,16,18,20,22,24,26,28,30,-1,-1,-1,-1,-1,-1,-1,-1,-1,-1,-1,-1,-1,-1,-1,-1],"split_conditions":[8E0,4E0,3.86E2,5E0,7E0,3E0,7.6E1,5.1E1,7E0,1.4E1,1E0,6.7E1,5E0,3E0,4E0,-1.2229853E-1,8.346375E-2,3.6274147E-1,3.6718134E-2,-6.389978E-2,-1.3947658E-1,-4.6740476E-2,3.0241735E-2,-1.688652E-1,-4.24584E-2,6.336357E-2,-2.3353824E-2,-4.2308915E-2,1.1812411E-2,-7.2011226E-3,4.1758895E-2],"split_indices":[6,6,15,4,6,8,17,17,4,4,10,17,8,8,5,0,0,0,0,0,0,0,0,0,0,0,0,0,0,0,0],"split_type":[0,0,0,0,0,0,0,0,0,0,0,0,0,0,0,0,0,0,0,0,0,0,0,0,0,0,0,0,0,0,0],"sum_hessian":[9.908851E4,7.4917163E3,9.159679E4,4.7642908E2,7.015287E3,1.8607486E4,7.2989305E4,2.0882727E2,2.676018E2,3.2670605E3,3.7482268E3,8.41911E3,1.0188377E4,4.5484312E4,2.750499E4,7.553471E1,1.3329256E2,1.4533434E2,1.2226747E2,2.179028E3,1.0880325E3,3.2548179E3,4.9340906E2,9.944322E2,7.4246777E3,2.8737903E3,7.3145864E3,1.1231697E4,3.4252613E4,6.1728516E3,2.133214E4],"tree_param":{"num_deleted":"0","num_feature":"20","num_nodes":"31","size_leaf_vector":"1"}},{"base_weights":[-2.0907905E-3,-1.4056957E-1,1.3334074E-2,-4.0341723E-1,-1.0705294E-1,1.9323234E-2,-3.2594857E-1,4.7150654E-1,-4.2291495E-1,-7.014076E-1,-8.803036E-2,-5.9597925E-3,1.4119568E-1,-4.6206155E-1,-2.2364618E-1,2.7675155E-1,-9.189648E-2,-1.7429902E-1,-9.633955E-2,-1.519467E-1,-2.4601479E-1,-3.403838E-2,6.202176E-2,1.0550318E-2,-1.943211E-2,-4.4767722E-2,5.4032505E-2,-7.747788E-2,-2.0228024E-1,-7.5337335E-2,5.828395E-2],"categories":[],"categories_nodes":[],"categories_segments":[],"categories_sizes":[],"default_left":[0,0,0,0,0,0,0,0,0,0,0,0,0,0,0,0,0,0,0,0,0,0,0,0,0,0,0,0,0,0,0],"id":14,"left_children":[1,3,5,7,9,11,13,15,17,19,21,23,25,27,29,-1,-1,-1,-1,-1,-1,-1,-1,-1,-1,-1,-1,-1,-1,-1,-1],"loss_changes":[2.1128627E2,8.7294876E1,1.8086072E2,1.9319382E1,9.9364174E1,2.694901E2,2.1395157E1,9.019498E0,1.7462738E1,5.8882446E0,6.3909378E1,1.7521042E2,1.6984348E2,2.8436249E1,1.0193275E1,0E0,0E0,0E0,0E0,0E0,0E0,0E0,0E0,0E0,0E0,0E0,0E0,0E0,0E0,0E0,0E0],"parents":[2147483647,0,0,1,1,2,2,3,3,4,4,5,5,6,6,7,7,8,8,9,9,10,10,11,11,12,12,13,13,14,14],"right_children":[2,4,6,8,10,12,14,16,18,20,22,24,26,28,30,-1,-1,-1,-1,-1,-1,-1,-1,-1,-1,-1,-1,-1,-1,-1,-1],"split_conditions":[3.7E1,2.2E1,1.7E1,3.4E1,3E0,1.5E1,7.1E1,2.3E1,1.6E1,1.4E1,5E-1,9E0,9E0,7E0,3.11E1,2.7675155E-1,-9.189648E-2,-1.7429902E-1,-9.633955E-2,-1.519467E-1,-2.4601479E-1,-3.403838E-2,6.202176E-2,1.0550318E-2,-1.943211E-2,-4.4767722E-2,5.4032505E-2,-7.747788E-2,-2.0228024E-1,-7.5337335E-2,5.828395E-2],"split_indices":[17,17,4,13,8,4,17,9,17,6,12,4,6,8,9,0,0,0,0,0,0,0,0,0,0,0,0,0,0,0,0],"split_type":[0,0,0,0,0,0,0,0,0,0,0,0,0,0,0,0,0,0,0,0,0,0,0,0,0,0,0,0,0,0,0],"sum_hessian":[9.8914164E4,9.912776E3,8.900138E4,1.1198142E3,8.792963E3,8.745848E4,1.5429105E3,2.3905731E1,1.0959084E3,2.7158228E2,8.52138E3,7.2432875E4,1.5025598E4,6.605432E2,8.8236725E2,1.501422E1,8.891512E0,4.273982E2,6.6851025E2,1.0475211E2,1.6683017E2,7.845163E3,6.762171E2,4.262581E4,2.9807068E4,1.7750234E3,1.3250574E4,3.3807443E2,3.224688E2,8.2830597E2,5.4061287E1],"tree_param":{"num_deleted":"0","num_feature":"20","num_nodes":"31","size_leaf_vector":"1"}},{"base_weights":[-1.8274923E-3,-5.418618E-2,3.6106292E-2,4.2296555E-2,-1.05513066E-1,-2.8524778E-3,1.1044546E-1,-3.3203796E-1,5.2061275E-2,1.1103608E-1,-1.1903376E-1,-5.7963807E-2,4.9341146E-2,8.1449434E-2,3.5486156E-1,-1.12888865E-1,5.18005E-2,-2.3616089E-2,2.2954937E-2,1.3405901E-2,1.5615296E-1,-6.46289E-2,-2.6928512E-2,-2.565778E-2,1.3482521E-2,2.6305923E-2,-2.8848814E-2,2.2713745E-2,2.759774E-1,9.488686E-2,2.5802642E-1],"categories":[],"categories_nodes":[],"categories_segments":[],"categories_sizes":[],"default_left":[0,0,0,0,0,0,0,0,0,0,0,0,0,0,0,0,0,0,0,0,0,0,0,0,0,0,0,0,0,0,0],"id":15,"left_children":[1,3,5,7,9,11,13,15,17,19,21,23,25,27,29,-1,-1,-1,-1,-1,-1,-1,-1,-1,-1,-1,-1,-1,-1,-1,-1],"loss_changes":[1.9597433E2,2.0528761E2,1.657088E2,5.2636246E1,7.923883E1,1.0799374E2,1.3940674E2,8.242695E0,4.487882E1,4.3193886E1,7.184726E1,5.1798965E1,1.07592545E2,8.454026E1,4.038379E1,0E0,0E0,0E0,0E0,0E0,0E0,0E0,0E0,0E0,0E0,0E0,0E0,0E0,0E0,0E0,0E0],"parents":[2147483647,0,0,1,1,2,2,3,3,4,4,5,5,6,6,7,7,8,8,9,9,10,10,11,11,12,12,13,13,14,14],"right_children":[2,4,6,8,10,12,14,16,18,20,22,24,26,28,30,-1,-1,-1,-1,-1,-1,-1,-1,-1,-1,-1,-1,-1,-1,-1,-1],"split_conditions":[3E0,1E0,1E0,2.9E1,4E1,1.5E1,3.11E1,5.9E-1,1E0,2E-1,4E0,1.448E3,7E0,2.85E0,1.2E1,-1.12888865E-1,5.18005E-2,-2.3616089E-2,2.2954937E-2,1.3405901E-2,1.5615296E-1,-6.46289E-2,-2.6928512E-2,-2.565778E-2,1.3482521E-2,2.6305923E-2,-2.8848814E-2,2.2713745E-2,2.759774E-1,9.488686E-2,2.5802642E-1],"split_indices":[7,7,1,17,13,6,9,12,8,12,5,15,8,12,5,0,0,0,0,0,0,0,0,0,0,0,0,0,0,0,0],"split_type":[0,0,0,0,0,0,0,0,0,0,0,0,0,0,0,0,0,0,0,0,0,0,0,0,0,0,0,0,0,0,0],"sum_hessian":[9.866783E4,4.145227E4,5.7215562E4,1.439436E4,2.7057908E4,3.754198E4,1.9673582E4,3.6510004E2,1.4029261E4,1.589709E3,2.54682E4,1.826054E4,1.9281441E4,1.7588342E4,2.08524E3,3.3589914E2,2.920092E1,2.209746E3,1.1819515E4,1.3689913E3,2.2071759E2,5.930871E3,1.9537328E4,1.4403017E4,3.8575217E3,1.5260241E4,4.0212E3,1.74699E4,1.18441E2,1.938843E3,1.4639697E2],"tree_param":{"num_deleted":"0","num_feature":"20","num_nodes":"31","size_leaf_vector":"1"}},{"base_weights":[-1.5893183E-3,-2.8220183E-1,4.9935225E-3,-3.194442E-1,-4.306688E-2,-5.1468823E-2,3.441238E-2,-3.987869E-1,-2.0032416E-1,1.038935E-2,-7.769268E-1,-1.5101916E-1,-2.4597537E-2,1.1327863E-1,6.9595594E-3,-6.422642E-2,-1.4445716E-1,-7.837159E-2,1.1249233E-2,-1.5614604E-2,1.7835508E-1,-2.668958E-1,-1.0560664E-2,-2.082402E-1,-4.1240424E-2,-9.638257E-3,1.03929445E-1,1.5818482E-2,1.1610919E-1,-2.9488957E-2,1.056015E-2],"categories":[],"categories_nodes":[],"categories_segments":[],"categories_sizes":[],"default_left":[0,0,0,0,0,0,0,0,0,0,0,0,0,0,0,0,0,0,0,0,0,0,0,0,0,0,0,0,0,0,0],"id":16,"left_children":[1,3,5,7,9,11,13,15,17,19,21,23,25,27,29,-1,-1,-1,-1,-1,-1,-1,-1,-1,-1,-1,-1,-1,-1,-1,-1],"loss_changes":[1.8186562E2,2.0083984E1,1.5979033E2,1.837297E1,1.1982661E1,8.814684E1,1.3693091E2,1.7789276E1,1.1346537E1,1.0443891E1,1.702651E0,5.1452896E1,7.2511E1,2.706706E2,1.3946103E2,0E0,0E0,0E0,0E0,0E0,0E0,0E0,0E0,0E0,0E0,0E0,0E0,0E0,0E0,0E0,0E0],"parents":[2147483647,0,0,1,1,2,2,3,3,4,4,5,5,6,6,7,7,8,8,9,9,10,10,11,11,12,12,13,13,14,14],"right_children":[2,4,6,8,10,12,14,16,18,20,22,24,26,28,30,-1,-1,-1,-1,-1,-1,-1,-1,-1,-1,-1,-1,-1,-1,-1,-1],"split_conditions":[1E0,1.11E2,1.7E1,2E0,2.2E1,4.5E1,4E0,1.3E1,2E-1,2.71E1,2.2E-1,3E0,1.02E2,3E0,5E0,-6.422642E-2,-1.4445716E-1,-7.837159E-2,1.1249233E-2,-1.5614604E-2,1.7835508E-1,-2.668958E-1,-1.0560664E-2,-2.082402E-1,-4.1240424E-2,-9.638257E-3,1.03929445E-1,1.5818482E-2,1.1610919E-1,-2.9488957E-2,1.056015E-2],"split_indices":[4,17,9,8,6,17,4,6,12,9,12,8,13,4,4,0,0,0,0,0,0,0,0,0,0,0,0,0,0,0,0],"split_type":[0,0,0,0,0,0,0,0,0,0,0,0,0,0,0,0,0,0,0,0,0,0,0,0,0,0,0,0,0,0,0],"sum_hessian":[9.845153E4,2.2556604E3,9.619587E4,1.9514149E3,3.042454E2,3.2951918E4,6.324395E4,1.1698569E3,7.815581E2,2.8450702E2,1.9738375E1,7.0030454E3,2.5948875E4,1.6329517E4,4.6914434E4,3.6303003E2,8.0682684E2,6.221143E2,1.5944377E2,2.5785547E2,2.6651554E1,1.6961205E1,2.7771688E0,1.6925465E2,6.833791E3,2.5433615E4,5.152585E2,1.3372817E4,2.9566992E3,9.9241E3,3.6990336E4],"tree_param":{"num_deleted":"0","num_feature":"20","num_nodes":"31","size_leaf_vector":"1"}},{"base_weights":[-1.4275427E-3,1.5319774E-1,-1.0952546E-2,1.4038731E-1,1.4238211E0,-1.8020058E-2,2.1986938E-1,-5.3821582E-2,2.1369158E-1,-3.9299607E-2,1.5978202E0,-6.276191E-2,1.4814529E-2,2.3138332E-1,-1.3287926E0,-3.4304537E-2,1.06720686E-1,4.5090668E-2,1.6664359E-1,-9.020298E-2,2.2131008E-1,3.3204147E-1,5.785253E-1,-2.3049388E-2,4.649801E-2,2.0961735E-2,-1.9331379E-2,3.9807305E-2,1.3143544E-1,-1.5252292E-1,-4.1967532E-1],"categories":[],"categories_nodes":[],"categories_segments":[],"categories_sizes":[],"default_left":[0,0,0,0,0,0,0,0,0,0,0,0,0,0,0,0,0,0,0,0,0,0,0,0,0,0,0,0,0,0,0],"id":17,"left_children":[1,3,5,7,9,11,13,15,17,19,21,23,25,27,29,-1,-1,-1,-1,-1,-1,-1,-1,-1,-1,-1,-1,-1,-1,-1,-1],"loss_changes":[1.4481284E2,9.266795E1,1.5109657E2,8.0440414E1,1.4532753E1,1.3202452E2,4.9373825E1,3.8436565E1,8.8781525E1,1.6468832E0,6.115341E0,1.165461E2,2.261716E2,5.568846E1,4.655838E-1,0E0,0E0,0E0,0E0,0E0,0E0,0E0,0E0,0E0,0E0,0E0,0E0,0E0,0E0,0E0,0E0],"parents":[2147483647,0,0,1,1,2,2,3,3,4,4,5,5,6,6,7,7,8,8,9,9,10,10,11,11,12,12,13,13,14,14],"right_children":[2,4,6,8,10,12,14,16,18,20,22,24,26,28,30,-1,-1,-1,-1,-1,-1,-1,-1,-1,-1,-1,-1,-1,-1,-1,-1],"split_conditions":[2.4E1,8E0,9.7E-1,6.4E1,3.1E1,5.3E1,1.31E2,1.499E1,1.32E1,5E0,1.81E1,1.655E1,8E0,8.7E1,9E0,-3.4304537E-2,1.06720686E-1,4.5090668E-2,1.6664359E-1,-9.020298E-2,2.2131008E-1,3.3204147E-1,5.785253E-1,-2.3049388E-2,4.649801E-2,2.0961735E-2,-1.9331379E-2,3.9807305E-2,1.3143544E-1,-1.5252292E-1,-4.1967532E-1],"split_indices":[14,8,12,17,17,14,17,16,16,4,9,16,5,17,6,0,0,0,0,0,0,0,0,0,0,0,0,0,0,0,0],"split_type":[0,0,0,0,0,0,0,0,0,0,0,0,0,0,0,0,0,0,0,0,0,0,0,0,0,0,0,0,0,0,0],"sum_hessian":[9.832229E4,5.7043857E3,9.261791E4,5.6485474E3,5.5838177E1,8.986719E4,2.7507122E3,1.5478947E3,4.100653E3,6.016963E0,4.9821213E1,3.8036316E4,5.183087E4,2.7312563E3,1.945568E1,1.3492195E3,1.9867513E2,3.4603252E3,6.403277E2,4.9611106E0,1.0558522E0,2.179636E1,2.8024853E1,3.572851E4,2.3078054E3,3.0583889E4,2.1246984E4,1.84982E3,8.8143646E2,2.1817498E0,1.727393E1],"tree_param":{"num_deleted":"0","num_feature":"20","num_nodes":"31","size_leaf_vector":"1"}},{"base_weights":[-1.2452963E-3,3.1756044E-3,-2.5202855E-1,-1.2187024E-2,7.728297E-2,-3.3076954E-1,-1.4370574E-1,1.73189E-2,-5.650932E-2,-3.3745036E-1,9.378023E-2,-4.273977E-1,-2.0639494E-1,2.524318E-1,-1.8313272E-1,-5.653603E-3,1.3263232E-1,-1.0840127E-1,-1.4704665E-4,-1.1539743E-1,-8.561983E-3,-1.1979383E-1,3.176784E-2,-5.2851234E-2,-1.5567747E-1,-6.8196304E-2,3.8529977E-1,-4.5349322E-2,1.7025687E-1,-9.311887E-3,-9.4408646E-2],"categories":[],"categories_nodes":[],"categories_segments":[],"categories_sizes":[],"default_left":[0,0,0,0,0,0,0,0,0,0,0,0,0,0,0,0,0,0,0,0,0,0,0,0,0,0,0,0,0,0,0],"id":18,"left_children":[1,3,5,7,9,11,13,15,17,19,21,23,25,27,29,-1,-1,-1,-1,-1,-1,-1,-1,-1,-1,-1,-1,-1,-1,-1,-1],"loss_changes":[1.0880843E2,1.0979838E2,1.4453438E1,1.044695E2,1.1333363E2,1.1734116E1,1.1250889E1,7.367465E2,5.451747E2,9.230766E0,9.516913E1,1.2616783E1,1.3769396E1,8.39742E0,1.3057383E1,0E0,0E0,0E0,0E0,0E0,0E0,0E0,0E0,0E0,0E0,0E0,0E0,0E0,0E0,0E0,0E0],"parents":[2147483647,0,0,1,1,2,2,3,3,4,4,5,5,6,6,7,7,8,8,9,9,10,10,11,11,12,12,13,13,14,14],"right_children":[2,4,6,8,10,12,14,16,18,20,22,24,26,28,30,-1,-1,-1,-1,-1,-1,-1,-1,-1,-1,-1,-1,-1,-1,-1,-1],"split_conditions":[1.7E1,1.5E1,5.7E1,9E0,7E0,4E0,9E0,6E0,1E1,6E0,2.8E1,1E0,2.192E1,8.05E0,7E0,-5.653603E-3,1.3263232E-1,-1.0840127E-1,-1.4704665E-4,-1.1539743E-1,-8.561983E-3,-1.1979383E-1,3.176784E-2,-5.2851234E-2,-1.5567747E-1,-6.8196304E-2,3.8529977E-1,-4.5349322E-2,1.7025687E-1,-9.311887E-3,-9.4408646E-2],"split_indices":[4,4,14,4,6,7,6,4,4,7,17,7,16,16,8,0,0,0,0,0,0,0,0,0,0,0,0,0,0,0,0],"split_type":[0,0,0,0,0,0,0,0,0,0,0,0,0,0,0,0,0,0,0,0,0,0,0,0,0,0,0,0,0,0,0],"sum_hessian":[9.813991E4,9.6440805E4,1.6991072E3,7.988193E4,1.6558873E4,9.8271063E2,7.1639655E2,4.7956965E4,3.1924963E4,6.3273553E2,1.5926137E4,5.5167285E2,4.3103775E2,6.435864E1,6.520379E2,4.4195367E4,3.761601E3,4.9552925E3,2.696967E4,5.486461E2,8.408942E1,3.8107135E2,1.5545065E4,1.4809671E2,4.0357614E2,4.2590662E2,5.1311464E0,2.8444584E1,3.591406E1,3.0299573E2,3.4904218E2],"tree_param":{"num_deleted":"0","num_feature":"20","num_nodes":"31","size_leaf_vector":"1"}},{"base_weights":[-1.3874605E-3,-7.347619E-2,1.4761462E-2,-6.5534925E-1,-5.6060724E-2,-6.698053E-2,3.334871E-2,1.7325656E-1,-6.9629186E-1,-9.317186E-2,7.485826E-2,-2.9125115E-1,-1.7246133E-2,8.085859E-2,9.3670236E-4,-2.1428145E-1,1.797548E-1,-1.5376869E-1,-2.5122598E-1,-3.943673E-2,2.8456379E-2,9.222605E-2,-1.3692796E-3,6.349373E-1,-9.293718E-2,-2.0405151E-2,4.188423E-2,1.7051838E-2,8.6989574E-2,-7.803704E-2,1.0791949E-2],"categories":[],"categories_nodes":[],"categories_segments":[],"categories_sizes":[],"default_left":[0,0,0,0,0,0,0,0,0,0,0,0,0,0,0,0,0,0,0,0,0,0,0,0,0,0,0,0,0,0,0],"id":19,"left_children":[1,3,5,7,9,11,13,15,17,19,21,23,25,27,29,-1,-1,-1,-1,-1,-1,-1,-1,-1,-1,-1,-1,-1,-1,-1,-1],"loss_changes":[1.140982E2,1.817326E2,1.216606E2,1.7801453E1,8.462906E1,1.6546075E2,1.00460045E2,1.0007019E1,1.2453247E1,9.77006E1,7.106363E1,1.20845474E2,9.671689E1,1.3286636E2,3.5473627E2,0E0,0E0,0E0,0E0,0E0,0E0,0E0,0E0,0E0,0E0,0E0,0E0,0E0,0E0,0E0,0E0],"parents":[2147483647,0,0,1,1,2,2,3,3,4,4,5,5,6,6,7,7,8,8,9,9,10,10,11,11,12,12,13,13,14,14],"right_children":[2,4,6,8,10,12,14,16,18,20,22,24,26,28,30,-1,-1,-1,-1,-1,-1,-1,-1,-1,-1,-1,-1,-1,-1,-1,-1],"split_conditions":[4.3E1,3E0,1E0,3E0,1.9E1,8.2E1,8E0,1.3E1,8.95E0,9E0,4E0,2E1,6E0,6E0,1E1,-2.1428145E-1,1.797548E-1,-1.5376869E-1,-2.5122598E-1,-3.943673E-2,2.8456379E-2,9.222605E-2,-1.3692796E-3,6.349373E-1,-9.293718E-2,-2.0405151E-2,4.188423E-2,1.7051838E-2,8.6989574E-2,-7.803704E-2,1.0791949E-2],"split_indices":[17,8,8,5,6,17,4,9,16,8,8,14,4,4,4,0,0,0,0,0,0,0,0,0,0,0,0,0,0,0,0],"split_type":[0,0,0,0,0,0,0,0,0,0,0,0,0,0,0,0,0,0,0,0,0,0,0,0,0,0,0,0,0,0,0],"sum_hessian":[9.800749E4,1.793631E4,8.007118E4,5.2016895E2,1.7416143E4,1.4833705E4,6.5237473E4,2.4339949E1,4.9582898E2,1.3569838E4,3.8463044E3,2.691571E3,1.2142134E4,2.6456193E4,3.8781277E4,7.6734104E0,1.6666538E1,2.1741544E2,2.7841354E2,1.127454E4,2.2952986E3,9.7843097E2,2.8678735E3,1.970215E1,2.671869E3,9.173506E3,2.9686277E3,2.3731533E4,2.7246614E3,4.5881426E3,3.4193137E4],"tree_param":{"num_deleted":"0","num_feature":"20","num_nodes":"31","size_leaf_vector":"1"}},{"base_weights":[-1.4240448E-3,-3.272325E-2,3.4704704E-2,-2.2358498E-1,1.8005074E-3,-3.0406555E-2,6.3336186E-2,-4.808142E-1,-1.1857039E-1,1.0642178E-1,-4.3050658E-2,2.578787E-2,-1.2938516E-1,3.776155E-3,1.083077E-1,-7.263889E-2,-1.9297048E-1,-1.3612053E-2,-9.714776E-2,-5.124676E-2,4.919338E-2,-2.1426255E-2,2.6459169E-2,-4.2010322E-2,2.5157E-2,-5.772855E-2,1.805967E-2,2.8659465E-2,-9.960385E-3,2.0312782E-2,6.694711E-2],"categories":[],"categories_nodes":[],"categories_segments":[],"categories_sizes":[],"default_left":[0,0,0,0,0,0,0,0,0,0,0,0,0,0,0,0,0,0,0,0,0,0,0,0,0,0,0,0,0,0,0],"id":20,"left_children":[1,3,5,7,9,11,13,15,17,19,21,23,25,27,29,-1,-1,-1,-1,-1,-1,-1,-1,-1,-1,-1,-1,-1,-1,-1,-1],"loss_changes":[1.1067067E2,3.4553854E2,8.469341E1,2.1692386E2,2.0838431E2,7.7182785E1,8.451874E1,9.010626E1,8.5700775E1,2.1266457E2,1.1574672E2,8.52469E1,6.0073555E1,4.6066406E1,8.3816345E1,0E0,0E0,0E0,0E0,0E0,0E0,0E0,0E0,0E0,0E0,0E0,0E0,0E0,0E0,0E0,0E0],"parents":[2147483647,0,0,1,1,2,2,3,3,4,4,5,5,6,6,7,7,8,8,9,9,10,10,11,11,12,12,13,13,14,14],"right_children":[2,4,6,8,10,12,14,16,18,20,22,24,26,28,30,-1,-1,-1,-1,-1,-1,-1,-1,-1,-1,-1,-1,-1,-1,-1,-1],"split_conditions":[7E1,3E0,1E0,5.8E1,5E0,8E0,2E0,6.6E1,5.7E1,3E0,9E0,6.6E1,6E0,2E0,1E-2,-7.263889E-2,-1.9297048E-1,-1.3612053E-2,-9.714776E-2,-5.124676E-2,4.919338E-2,-2.1426255E-2,2.6459169E-2,-4.2010322E-2,2.5157E-2,-5.772855E-2,1.805967E-2,2.8659465E-2,-9.960385E-3,2.0312782E-2,6.694711E-2],"split_indices":[17,8,8,17,8,5,2,13,14,4,8,13,4,4,12,0,0,0,0,0,0,0,0,0,0,0,0,0,0,0,0],"split_type":[0,0,0,0,0,0,0,0,0,0,0,0,0,0,0,0,0,0,0,0,0,0,0,0,0,0,0,0,0,0,0],"sum_hessian":[9.786726E4,5.2438562E4,4.54287E4,8.031516E3,4.4407047E4,1.3875091E4,3.1553605E4,2.3273018E3,5.7042144E3,1.3324505E4,3.1082541E4,8.850831E3,5.02426E3,1.3575444E4,1.7978162E4,9.4340967E2,1.3838921E3,4.2056455E3,1.4985691E3,2.290301E3,1.1034204E4,2.555837E4,5.5241724E3,2.2952017E3,6.55563E3,3.770441E3,1.2538187E3,3.898979E3,9.676466E3,1.3283964E4,4.6941978E3],"tree_param":{"num_deleted":"0","num_feature":"20","num_nodes":"31","size_leaf_vector":"1"}},{"base_weights":[-1.4842872E-3,-2.6000049E-2,4.4536624E-2,-1.5496093E-1,-1.5791895E-2,-7.135636E-3,8.174668E-2,-1.8854064E-1,9.924453E-2,-7.866165E-2,4.8278756E-3,7.4795626E-2,-5.1276833E-2,5.4669696E-1,7.479896E-2,-4.0989883E-2,-9.973447E-2,1.5120515E-2,1.0616928E0,6.79233E-3,-3.1057976E-2,9.514627E-3,-2.7884105E-2,7.3020994E-3,6.328065E-2,-2.3819506E-2,4.9960714E-2,2.078244E-1,-6.82188E-2,1.8826613E-2,9.3278624E-2],"categories":[],"categories_nodes":[],"categories_segments":[],"categories_sizes":[],"default_left":[0,0,0,0,0,0,0,0,0,0,0,0,0,0,0,0,0,0,0,0,0,0,0,0,0,0,0,0,0,0,0],"id":21,"left_children":[1,3,5,7,9,11,13,15,17,19,21,23,25,27,29,-1,-1,-1,-1,-1,-1,-1,-1,-1,-1,-1,-1,-1,-1,-1,-1],"loss_changes":[1.1020976E2,8.389809E1,6.527875E1,3.9922607E1,7.656156E1,5.1410202E1,6.3718338E1,3.08022E1,9.157216E1,3.6742844E1,1.16920715E2,3.4182938E1,5.659832E1,3.2993446E1,5.5288048E1,0E0,0E0,0E0,0E0,0E0,0E0,0E0,0E0,0E0,0E0,0E0,0E0,0E0,0E0,0E0,0E0],"parents":[2147483647,0,0,1,1,2,2,3,3,4,4,5,5,6,6,7,7,8,8,9,9,10,10,11,11,12,12,13,13,14,14],"right_children":[2,4,6,8,10,12,14,16,18,20,22,24,26,28,30,-1,-1,-1,-1,-1,-1,-1,-1,-1,-1,-1,-1,-1,-1,-1,-1],"split_conditions":[1E0,2E0,3E0,1.387E1,1.1E1,1E0,7E0,2.1E1,7.7E1,6.2E1,7E0,8.5E1,7.7E-1,5.9E0,1.29E0,-4.0989883E-2,-9.973447E-2,1.5120515E-2,1.0616928E0,6.79233E-3,-3.1057976E-2,9.514627E-3,-2.7884105E-2,7.3020994E-3,6.328065E-2,-2.3819506E-2,4.9960714E-2,2.078244E-1,-6.82188E-2,1.8826613E-2,9.3278624E-2],"split_indices":[1,5,7,16,6,7,14,9,13,13,8,17,12,19,12,0,0,0,0,0,0,0,0,0,0,0,0,0,0,0,0],"split_type":[0,0,0,0,0,0,0,0,0,0,0,0,0,0,0,0,0,0,0,0,0,0,0,0,0,0,0,0,0,0,0],"sum_hessian":[9.7681086E4,6.373128E4,3.3949805E4,4.6736978E3,5.9057582E4,1.4213224E4,1.973658E4,4.128584E3,5.451141E2,1.4585012E4,4.447257E4,4.9761704E3,9.237053E3,2.8943668E2,1.9447143E4,3.0355908E3,1.092993E3,5.384825E2,6.6315837E0,2.8744092E3,1.1710603E4,3.4881133E4,9.59144E3,3.631475E3,1.3446956E3,8.1813984E3,1.0556549E3,2.4358388E2,4.585279E1,1.85046E4,9.425445E2],"tree_param":{"num_deleted":"0","num_feature":"20","num_nodes":"31","size_leaf_vector":"1"}},{"base_weights":[-1.2511087E-3,-2.7794613E-2,3.37583E-2,-1.458024E-1,-1.8516127E-2,3.4236026E-1,2.9795181E-2,1.6168615E-1,-1.7021894E-1,-1.4033071E-2,-2.8169253E-1,5.087348E-1,-1.2670691E-1,-5.2468203E-2,4.5395035E-2,1.2124526E-1,-3.579003E-2,-6.346162E-2,-2.1729948E-2,3.7095483E-2,-6.51436E-3,-1.09288596E-1,-8.769195E-3,3.6396656E-2,2.0100093E-1,5.6066487E-2,-1.4204298E-1,2.1983663E-2,-2.731157E-2,2.7755776E-2,-4.010815E-3],"categories":[],"categories_nodes":[],"categories_segments":[],"categories_sizes":[],"default_left":[0,0,0,0,0,0,0,0,0,0,0,0,0,0,0,0,0,0,0,0,0,0,0,0,0,0,0,0,0,0,0],"id":22,"left_children":[1,3,5,7,9,11,13,15,17,19,21,23,25,27,29,-1,-1,-1,-1,-1,-1,-1,-1,-1,-1,-1,-1,-1,-1,-1,-1],"loss_changes":[9.058094E1,6.070133E1,5.1398838E1,3.0368057E1,6.0640293E1,4.1650215E1,5.326229E1,2.0337296E1,1.5113823E1,5.3455605E1,1.7941818E1,2.4506798E1,1.5347602E1,3.2095676E1,9.6612E1,0E0,0E0,0E0,0E0,0E0,0E0,0E0,0E0,0E0,0E0,0E0,0E0,0E0,0E0,0E0,0E0],"parents":[2147483647,0,0,1,1,2,2,3,3,4,4,5,5,6,6,7,7,8,8,9,9,10,10,11,11,12,12,13,13,14,14],"right_children":[2,4,6,8,10,12,14,16,18,20,22,24,26,28,30,-1,-1,-1,-1,-1,-1,-1,-1,-1,-1,-1,-1,-1,-1,-1,-1],"split_conditions":[4E0,8E0,8E0,4E0,1.7E1,3.9E0,3E0,2E0,7.9E1,3.9E1,1.2E-1,1.2E0,1.5E1,2.8E1,8E0,1.2124526E-1,-3.579003E-2,-6.346162E-2,-2.1729948E-2,3.7095483E-2,-6.51436E-3,-1.09288596E-1,-8.769195E-3,3.6396656E-2,2.0100093E-1,5.6066487E-2,-1.4204298E-1,2.1983663E-2,-2.731157E-2,2.7755776E-2,-4.010815E-3],"split_indices":[7,6,14,6,4,19,5,7,17,13,12,19,13,14,5,0,0,0,0,0,0,0,0,0,0,0,0,0,0,0,0],"split_type":[0,0,0,0,0,0,0,0,0,0,0,0,0,0,0,0,0,0,0,0,0,0,0,0,0,0,0,0,0,0,0],"sum_hessian":[9.747312E4,5.5439836E4,4.2033277E4,4.0401938E3,5.139964E4,5.3187164E2,4.1501406E4,2.9680283E2,3.7433909E3,5.0539777E4,8.598622E2,3.925519E2,1.3931975E2,6.6151396E3,3.4886266E4,1.5908722E2,1.3771562E2,2.6306406E3,1.1127502E3,2.669834E3,4.7869945E4,6.475484E2,2.1231375E2,1.1589384E2,2.7665805E2,7.340146E1,6.591829E1,1.5525658E3,5.062574E3,1.9360316E4,1.5525951E4],"tree_param":{"num_deleted":"0","num_feature":"20","num_nodes":"31","size_leaf_vector":"1"}},{"base_weights":[-1.0433621E-3,-2.5361586E-1,2.3224675E-3,-5.0645906E-1,-1.9134559E-1,-1.5671669E-2,4.1370265E-2,4.4093987E-1,-5.5597097E-1,-1.3423647E-2,-2.688955E-1,-2.4830362E-2,1.411575E-1,7.184663E-2,-5.130229E-2,1.4473294E-2,5.8949757E-1,-4.670993E-3,-1.7629609E-1,-8.044282E-2,9.0375684E-2,-6.511061E-2,-1.6138226E-1,-2.6072934E-2,-2.882159E-3,1.7703947E-2,1.3864931E-1,1.3575844E-2,1.0171179E-1,-3.5199754E-2,1.9053983E-2],"categories":[],"categories_nodes":[],"categories_segments":[],"categories_sizes":[],"default_left":[0,0,0,0,0,0,0,0,0,0,0,0,0,0,0,0,0,0,0,0,0,0,0,0,0,0,0,0,0,0,0],"id":23,"left_children":[1,3,5,7,9,11,13,15,17,19,21,23,25,27,29,-1,-1,-1,-1,-1,-1,-1,-1,-1,-1,-1,-1,-1,-1,-1,-1],"loss_changes":[8.275629E1,2.0059425E1,6.750046E1,1.2083534E1,1.419199E1,9.4462296E1,8.559503E1,7.7406626E0,4.104851E0,2.5197762E1,9.879948E0,5.871985E1,9.565887E1,1.6203473E2,5.686987E1,0E0,0E0,0E0,0E0,0E0,0E0,0E0,0E0,0E0,0E0,0E0,0E0,0E0,0E0,0E0,0E0],"parents":[2147483647,0,0,1,1,2,2,3,3,4,4,5,5,6,6,7,7,8,8,9,9,10,10,11,11,12,12,13,13,14,14],"right_children":[2,4,6,8,10,12,14,16,18,20,22,24,26,28,30,-1,-1,-1,-1,-1,-1,-1,-1,-1,-1,-1,-1,-1,-1,-1,-1],"split_conditions":[2.4E1,1.4E1,1.8E1,7E0,4E0,9E0,7E0,6E0,1.96E2,2E0,1.9E1,4.6E1,1E-2,6E0,7.2E1,1.4473294E-2,5.8949757E-1,-4.670993E-3,-1.7629609E-1,-8.044282E-2,9.0375684E-2,-6.511061E-2,-1.6138226E-1,-2.6072934E-2,-2.882159E-3,1.7703947E-2,1.3864931E-1,1.3575844E-2,1.0171179E-1,-3.5199754E-2,1.9053983E-2],"split_indices":[17,17,6,6,8,8,8,7,15,2,6,17,12,8,17,0,0,0,0,0,0,0,0,0,0,0,0,0,0,0,0],"split_type":[0,0,0,0,0,0,0,0,0,0,0,0,0,0,0,0,0,0,0,0,0,0,0,0,0,0,0,0,0,0,0],"sum_hessian":[9.734537E4,1.2792053E3,9.606616E4,2.5137695E2,1.0278284E3,6.576206E4,3.0304094E4,1.2092086E1,2.3928487E2,3.123592E2,7.154692E2,6.2134316E4,3.6277505E3,2.2804738E4,7.4993564E3,1.0435001E1,1.6570842E0,1.3334455E1,2.2595041E2,1.7270691E2,1.3965228E2,6.0136005E2,1.1410918E2,1.2235157E4,4.9899156E4,2.8895183E3,7.382322E2,2.0741496E4,2.063242E3,4.761186E3,2.738171E3],"tree_param":{"num_deleted":"0","num_feature":"20","num_nodes":"31","size_leaf_vector":"1"}},{"base_weights":[-9.171764E-4,3.5595458E-3,-1.3922499E-1,-8.989376E-2,1.0846097E-2,1.81251E-1,-1.6879666E-1,1.594E-1,-1.1114563E-1,-1.7496279E-1,1.52414655E-2,2.679489E-1,-2.2013015E-1,-2.8283384E-1,-1.049957E-1,-4.5007713E-2,8.38589E-2,-5.5599414E-2,-1.4698553E-2,-3.7875462E-2,-1.0936691E-1,2.191825E-2,-1.7610416E-3,1.6053294E-1,3.4995135E-2,-1.8412913E-1,2.303265E-2,-6.1898347E-2,-1.4832127E-1,-6.299463E-2,-1.1427639E-2],"categories":[],"categories_nodes":[],"categories_segments":[],"categories_sizes":[],"default_left":[0,0,0,0,0,0,0,0,0,0,0,0,0,0,0,0,0,0,0,0,0,0,0,0,0,0,0,0,0,0,0],"id":24,"left_children":[1,3,5,7,9,11,13,15,17,19,21,23,25,27,29,-1,-1,-1,-1,-1,-1,-1,-1,-1,-1,-1,-1,-1,-1,-1,-1],"loss_changes":[6.01771E1,6.4108284E1,2.8909088E1,3.6094433E1,7.132907E1,9.033892E0,2.0271706E1,1.9940197E1,2.8924011E1,1.8593468E1,1.04144394E2,8.528926E0,5.4654713E0,1.609179E1,1.2570879E1,0E0,0E0,0E0,0E0,0E0,0E0,0E0,0E0,0E0,0E0,0E0,0E0,0E0,0E0,0E0,0E0],"parents":[2147483647,0,0,1,1,2,2,3,3,4,4,5,5,6,6,7,7,8,8,9,9,10,10,11,11,12,12,13,13,14,14],"right_children":[2,4,6,8,10,12,14,16,18,20,22,24,26,28,30,-1,-1,-1,-1,-1,-1,-1,-1,-1,-1,-1,-1,-1,-1,-1,-1],"split_conditions":[1.6E1,8E0,9E0,4E0,1E0,9E1,7.1E1,4E0,7E0,2E1,4E0,1.7E1,8.05E0,7E0,6E0,-4.5007713E-2,8.38589E-2,-5.5599414E-2,-1.4698553E-2,-3.7875462E-2,-1.0936691E-1,2.191825E-2,-1.7610416E-3,1.6053294E-1,3.4995135E-2,-1.8412913E-1,2.303265E-2,-6.1898347E-2,-1.4832127E-1,-6.299463E-2,-1.1427639E-2],"split_indices":[4,6,6,6,4,13,17,5,6,6,4,4,16,8,5,0,0,0,0,0,0,0,0,0,0,0,0,0,0,0,0],"split_type":[0,0,0,0,0,0,0,0,0,0,0,0,0,0,0,0,0,0,0,0,0,0,0,0,0,0,0,0,0,0,0],"sum_hessian":[9.718883E4,9.414261E4,3.0462166E3,6.8085503E3,8.733406E4,2.5690784E2,2.7893086E3,5.3431384E2,6.2742363E3,2.0172778E3,8.531678E4,2.1154648E2,4.5361374E1,9.9945667E2,1.789852E3,1.4935686E2,3.8495697E2,2.8592805E3,3.4149558E3,1.6062567E3,4.1102103E2,2.2818955E4,6.249783E4,7.5569695E1,1.3597678E2,1.9044811E1,2.6316563E1,7.354761E2,2.639806E2,6.958196E2,1.0940325E3],"tree_param":{"num_deleted":"0","num_feature":"20","num_nodes":"31","size_leaf_vector":"1"}},{"base_weights":[-7.957811E-4,-4.1010496E-3,1.9215615E-1,-9.878315E-3,9.6153446E-2,1.5780713E-1,1.1457157E0,3.6605522E-1,-1.1506593E-2,8.650573E-2,9.383353E-1,1.3754475E-1,1.243256E0,2.5123328E-1,1.2854122E0,7.865588E-2,3.4482104E-1,-1.5864084E-2,5.2131346E-4,-2.3348484E-2,3.7351444E-2,4.9880368E-1,9.552023E-2,-7.649628E-2,5.819312E-2,7.685544E-1,2.0390488E-1,3.157692E-1,-7.551335E-2,3.0508178E-1,4.9236265E-1],"categories":[],"categories_nodes":[],"categories_segments":[],"categories_sizes":[],"default_left":[0,0,0,0,0,0,0,0,0,0,0,0,0,0,0,0,0,0,0,0,0,0,0,0,0,0,0,0,0,0,0],"id":25,"left_children":[1,3,5,7,9,11,13,15,17,19,21,23,25,27,29,-1,-1,-1,-1,-1,-1,-1,-1,-1,-1,-1,-1,-1,-1,-1,-1],"loss_changes":[6.192816E1,5.5295326E1,5.338353E1,5.5258602E1,4.2183636E1,3.4571693E1,6.7621765E0,3.1375523E1,4.9250305E1,3.2131172E1,2.5880184E1,3.4424973E1,1.9677929E1,3.85269E0,2.9923325E0,0E0,0E0,0E0,0E0,0E0,0E0,0E0,0E0,0E0,0E0,0E0,0E0,0E0,0E0,0E0,0E0],"parents":[2147483647,0,0,1,1,2,2,3,3,4,4,5,5,6,6,7,7,8,8,9,9,10,10,11,11,12,12,13,13,14,14],"right_children":[2,4,6,8,10,12,14,16,18,20,22,24,26,28,30,-1,-1,-1,-1,-1,-1,-1,-1,-1,-1,-1,-1,-1,-1,-1,-1],"split_conditions":[3.1E0,6.2E-1,8E0,2.4E1,3.67E0,1.834E1,3.1E1,1.2E1,4E0,6.93E0,1.81E1,5E1,3E0,1.1E1,4E1,7.865588E-2,3.4482104E-1,-1.5864084E-2,5.2131346E-4,-2.3348484E-2,3.7351444E-2,4.9880368E-1,9.552023E-2,-7.649628E-2,5.819312E-2,7.685544E-1,2.0390488E-1,3.157692E-1,-7.551335E-2,3.0508178E-1,4.9236265E-1],"split_indices":[19,12,8,13,12,16,17,5,5,16,9,17,8,6,17,0,0,0,0,0,0,0,0,0,0,0,0,0,0,0,0],"split_type":[0,0,0,0,0,0,0,0,0,0,0,0,0,0,0,0,0,0,0,0,0,0,0,0,0,0,0,0,0,0,0],"sum_hessian":[9.7100695E4,9.5466336E4,1.6343605E3,9.026559E4,5.2007437E3,1.5786597E3,5.570081E1,3.883155E2,8.987728E4,5.142931E3,5.7812702E1,1.5508364E3,2.7823195E1,7.9020534E0,4.7798756E1,3.4403275E2,4.4282726E1,2.1793598E4,6.808368E4,9.656689E2,4.177262E3,2.5885529E1,3.1927174E1,1.9448909E2,1.3563474E3,7.269357E0,2.0553837E1,2.6257303E0,5.2763233E0,2.94414E1,1.8357357E1],"tree_param":{"num_deleted":"0","num_feature":"20","num_nodes":"31","size_leaf_vector":"1"}},{"base_weights":[-6.0552947E-4,-5.0654456E-2,1.1080073E-2,-5.5136133E-2,2.094586E-1,-2.6456937E-2,2.8422007E-2,-1.2807213E-1,-4.096743E-2,2.6858366E-1,-6.5265733E-1,-4.139559E-2,9.516034E-2,5.9314608E-3,9.722879E-2,-2.1230802E-2,-7.1097486E-2,-2.7383482E-2,-4.5779664E-3,5.5744365E-2,3.0970687E-1,-3.2330945E-1,-9.850119E-2,-8.175132E-3,-6.18621E-2,2.0298608E-2,1.9420652E-1,-1.7951986E-2,1.113664E-2,2.5831291E-2,1.6528744E-1],"categories":[],"categories_nodes":[],"categories_segments":[],"categories_sizes":[],"default_left":[0,0,0,0,0,0,0,0,0,0,0,0,0,0,0,0,0,0,0,0,0,0,0,0,0,0,0,0,0,0,0],"id":26,"left_children":[1,3,5,7,9,11,13,15,17,19,21,23,25,27,29,-1,-1,-1,-1,-1,-1,-1,-1,-1,-1,-1,-1,-1,-1,-1,-1],"loss_changes":[5.6731194E1,2.1415878E1,5.1192516E1,1.8648705E1,1.603833E1,4.515318E1,8.3239395E1,1.8306335E1,1.9549372E1,1.8263813E1,2.4396305E0,5.159287E1,4.124111E1,8.316848E1,6.683577E1,0E0,0E0,0E0,0E0,0E0,0E0,0E0,0E0,0E0,0E0,0E0,0E0,0E0,0E0,0E0,0E0],"parents":[2147483647,0,0,1,1,2,2,3,3,4,4,5,5,6,6,7,7,8,8,9,9,10,10,11,11,12,12,13,13,14,14],"right_children":[2,4,6,8,10,12,14,16,18,20,22,24,26,28,30,-1,-1,-1,-1,-1,-1,-1,-1,-1,-1,-1,-1,-1,-1,-1,-1],"split_conditions":[1E0,1.857E1,4E0,4.1E1,8.8E1,3E1,8.7E1,1.199E3,1E1,4.29E1,7.17E2,1.02E2,1.02E0,3E0,1.32E0,-2.1230802E-2,-7.1097486E-2,-2.7383482E-2,-4.5779664E-3,5.5744365E-2,3.0970687E-1,-3.2330945E-1,-9.850119E-2,-8.175132E-3,-6.18621E-2,2.0298608E-2,1.9420652E-1,-1.7951986E-2,1.113664E-2,2.5831291E-2,1.6528744E-1],"split_indices":[2,16,5,17,13,9,17,15,5,9,15,17,12,8,12,0,0,0,0,0,0,0,0,0,0,0,0,0,0,0,0],"split_type":[0,0,0,0,0,0,0,0,0,0,0,0,0,0,0,0,0,0,0,0,0,0,0,0,0,0,0,0,0,0,0],"sum_hessian":[9.6999E4,1.8360111E4,7.863889E4,1.8049904E4,3.102069E2,2.4849992E4,5.3788895E4,2.9347417E3,1.5115163E4,2.9094217E2,1.9264734E1,2.2132094E4,2.7178984E3,4.0539145E4,1.3249752E4,1.9241118E3,1.0106299E3,5.1107134E3,1.0004449E4,2.6361755E2,2.7324629E1,7.3323307E0,1.1932404E1,2.0383793E4,1.7482999E3,2.5900415E3,1.2785698E2,1.3040298E4,2.7498846E4,1.2933832E4,3.1592038E2],"tree_param":{"num_deleted":"0","num_feature":"20","num_nodes":"31","size_leaf_vector":"1"}},{"base_weights":[-5.443498E-4,-2.2643295E-1,1.620305E-3,-4.0867528E-1,-1.6777675E-1,-1.724157E-2,2.626366E-2,3.4608102E-1,-4.5630148E-1,-1.5931915E-2,-2.4918789E-1,2.7882647E-2,-3.3172987E-2,2.0673443E-2,1.4636318E-1,3.4050336E-1,-2.7262734E-2,-1.4418852E-1,1.0467366E-1,-4.707027E-2,6.0362704E-2,-8.303136E-2,7.0280716E-2,-1.0464136E-1,9.612771E-3,-1.5817298E-2,1.5345614E-2,4.8702015E-3,5.6761596E-2,6.447536E-2,-5.7434395E-2],"categories":[],"categories_nodes":[],"categories_segments":[],"categories_sizes":[],"default_left":[0,0,0,0,0,0,0,0,0,0,0,0,0,0,0,0,0,0,0,0,0,0,0,0,0,0,0,0,0,0,0],"id":27,"left_children":[1,3,5,7,9,11,13,15,17,19,21,23,25,27,29,-1,-1,-1,-1,-1,-1,-1,-1,-1,-1,-1,-1,-1,-1,-1,-1],"loss_changes":[4.737875E1,9.762852E0,4.4611713E1,8.18269E0,8.618061E0,3.9083862E1,2.7933811E1,4.8671393E0,4.28957E0,7.5157413E0,6.1186905E0,2.2240902E1,6.624642E1,2.974587E1,4.289685E1,0E0,0E0,0E0,0E0,0E0,0E0,0E0,0E0,0E0,0E0,0E0,0E0,0E0,0E0,0E0,0E0],"parents":[2147483647,0,0,1,1,2,2,3,3,4,4,5,5,6,6,7,7,8,8,9,9,10,10,11,11,12,12,13,13,14,14],"right_children":[2,4,6,8,10,12,14,16,18,20,22,24,26,28,30,-1,-1,-1,-1,-1,-1,-1,-1,-1,-1,-1,-1,-1,-1,-1,-1],"split_conditions":[2.2E1,1.4E1,4E0,7E0,4E0,1E0,1.633E1,7.62E2,7.9E0,7.4E1,2.475E3,2.8E1,1.5E1,8.1E1,8.4E1,3.4050336E-1,-2.7262734E-2,-1.4418852E-1,1.0467366E-1,-4.707027E-2,6.0362704E-2,-8.303136E-2,7.0280716E-2,-1.0464136E-1,9.612771E-3,-1.5817298E-2,1.5345614E-2,4.8702015E-3,5.6761596E-2,6.447536E-2,-5.7434395E-2],"split_indices":[17,17,7,6,4,7,16,15,19,13,15,17,4,14,13,0,0,0,0,0,0,0,0,0,0,0,0,0,0,0,0],"split_type":[0,0,0,0,0,0,0,0,0,0,0,0,0,0,0,0,0,0,0,0,0,0,0,0,0,0,0,0,0,0,0],"sum_hessian":[9.689309E4,9.187145E2,9.5974375E4,2.222441E2,6.9647034E2,5.4364453E4,4.160992E4,1.2819557E1,2.0942455E2,2.434998E2,4.5297055E2,1.4185274E4,4.017918E4,3.9760387E4,1.849536E3,3.9999921E0,8.819566E0,2.0367429E2,5.7502513E0,1.4781499E2,9.568481E1,4.28926E2,2.4044556E1,1.5403809E2,1.4031236E4,3.2617066E4,7.5621133E3,3.8740977E4,1.01941174E3,1.5378182E3,3.1171777E2],"tree_param":{"num_deleted":"0","num_feature":"20","num_nodes":"31","size_leaf_vector":"1"}},{"base_weights":[-4.796784E-4,-6.426977E-3,7.122612E-2,-2.6935294E-2,2.5805408E-2,1.2964024E-1,-3.5876174E-2,-1.1163416E-1,-2.953713E-3,3.5509456E-2,-1.264955E-1,4.8044613E-1,1.1285732E-1,1.20260224E-1,-1.2367369E-1,-9.0718225E-2,-8.123098E-3,2.2788674E-2,-1.0597151E-2,-1.0002582E-2,1.7622411E-2,2.2650998E-2,-5.5512834E-2,1.9045572E-1,-1.3127731E-1,2.324652E-2,9.041403E-2,7.305808E-1,3.0868722E-2,-5.1463123E-2,3.199276E-2],"categories":[],"categories_nodes":[],"categories_segments":[],"categories_sizes":[],"default_left":[0,0,0,0,0,0,0,0,0,0,0,0,0,0,0,0,0,0,0,0,0,0,0,0,0,0,0,0,0,0,0],"id":28,"left_children":[1,3,5,7,9,11,13,15,17,19,21,23,25,27,29,-1,-1,-1,-1,-1,-1,-1,-1,-1,-1,-1,-1,-1,-1,-1,-1],"loss_changes":[4.1291534E1,5.9103027E1,4.639895E1,1.10990715E2,5.138851E1,2.8198463E1,3.5902195E1,1.9448097E2,1.0879003E2,5.2284298E1,2.4645905E1,3.1291008E1,3.0521606E1,3.7647133E1,1.8498325E1,0E0,0E0,0E0,0E0,0E0,0E0,0E0,0E0,0E0,0E0,0E0,0E0,0E0,0E0,0E0,0E0],"parents":[2147483647,0,0,1,1,2,2,3,3,4,4,5,5,6,6,7,7,8,8,9,9,10,10,11,11,12,12,13,13,14,14],"right_children":[2,4,6,8,10,12,14,16,18,20,22,24,26,28,30,-1,-1,-1,-1,-1,-1,-1,-1,-1,-1,-1,-1,-1,-1,-1,-1],"split_conditions":[1.2E1,7.6E1,7.6E1,3E0,1.1E1,3.2E1,3.2E1,6.4E1,5E0,4E0,5E1,1E0,2.4E-1,1.01E1,5.3E1,-9.0718225E-2,-8.123098E-3,2.2788674E-2,-1.0597151E-2,-1.0002582E-2,1.7622411E-2,2.2650998E-2,-5.5512834E-2,1.9045572E-1,-1.3127731E-1,2.324652E-2,9.041403E-2,7.305808E-1,3.0868722E-2,-5.1463123E-2,3.199276E-2],"split_indices":[5,17,17,8,5,13,14,17,8,5,13,11,12,9,14,0,0,0,0,0,0,0,0,0,0,0,0,0,0,0,0],"split_type":[0,0,0,0,0,0,0,0,0,0,0,0,0,0,0,0,0,0,0,0,0,0,0,0,0,0,0,0,0,0,0],"sum_hessian":[9.682281E4,8.940819E4,7.4146284E3,5.464175E4,3.4766434E4,4.7977188E3,2.6169097E3,1.20565205E4,4.258523E4,3.2684656E4,2.081778E3,2.17787E2,4.5799316E3,9.4175385E2,1.6751558E3,3.7020857E3,8.354435E3,1.2386505E4,3.0198727E4,8.245978E3,2.4438678E4,4.67731E2,1.6140471E3,1.8669493E2,3.1092068E1,3.8576128E3,7.223191E2,5.9746723E0,9.357792E2,1.3871078E3,2.8804803E2],"tree_param":{"num_deleted":"0","num_feature":"20","num_nodes":"31","size_leaf_vector":"1"}},{"base_weights":[-5.4696406E-4,-1.643466E-2,2.8984113E-2,3.6138494E-2,-2.9228069E-2,1.15236804E-1,1.8832382E-2,8.531461E-2,-5.7439223E-2,-1.09091334E-1,-1.6980445E-2,8.916544E-2,5.8562285E-1,-4.3604173E-2,3.397867E-2,9.329167E-3,9.964437E-2,-2.6911438E-2,6.2816344E-2,-6.264288E-2,-1.9829731E-2,9.232925E-3,-1.0763582E-2,-6.383342E-2,4.3085326E-2,1.5278423E-1,4.8403105E-1,-1.0969534E-2,-2.1202849E-1,9.054072E-3,1.0517131E-1],"categories":[],"categories_nodes":[],"categories_segments":[],"categories_sizes":[],"default_left":[0,0,0,0,0,0,0,0,0,0,0,0,0,0,0,0,0,0,0,0,0,0,0,0,0,0,0,0,0,0,0],"id":29,"left_children":[1,3,5,7,9,11,13,15,17,19,21,23,25,27,29,-1,-1,-1,-1,-1,-1,-1,-1,-1,-1,-1,-1,-1,-1,-1,-1],"loss_changes":[4.5380413E1,4.2299294E1,2.9623392E1,5.6647747E1,4.947294E1,4.3638718E1,2.8629536E1,1.0797557E2,3.6529057E1,2.8818459E1,3.9582233E1,5.5549263E1,1.3844475E1,2.7564108E1,2.9287197E1,0E0,0E0,0E0,0E0,0E0,0E0,0E0,0E0,0E0,0E0,0E0,0E0,0E0,0E0,0E0,0E0],"parents":[2147483647,0,0,1,1,2,2,3,3,4,4,5,5,6,6,7,7,8,8,9,9,10,10,11,11,12,12,13,13,14,14],"right_children":[2,4,6,8,10,12,14,16,18,20,22,24,26,28,30,-1,-1,-1,-1,-1,-1,-1,-1,-1,-1,-1,-1,-1,-1,-1,-1],"split_conditions":[1E0,6E1,4.1E1,7E0,4.6E1,8E0,5.6E1,4E0,9E0,5.77E2,4E0,6.26E0,2.59E1,1.21E2,1.28E2,9.329167E-3,9.964437E-2,-2.6911438E-2,6.2816344E-2,-6.264288E-2,-1.9829731E-2,9.232925E-3,-1.0763582E-2,-6.383342E-2,4.3085326E-2,1.5278423E-1,4.8403105E-1,-1.0969534E-2,-2.1202849E-1,9.054072E-3,1.0517131E-1],"split_indices":[1,13,13,8,14,8,13,8,8,15,4,16,9,17,17,0,0,0,0,0,0,0,0,0,0,0,0,0,0,0,0],"split_type":[0,0,0,0,0,0,0,0,0,0,0,0,0,0,0,0,0,0,0,0,0,0,0,0,0,0,0,0,0,0,0],"sum_hessian":[9.672064E4,6.28876E4,3.3833035E4,1.2307876E4,5.0579727E4,3.56165E3,3.0271387E4,8.068093E3,4.2397827E3,6.724337E3,4.385539E4,3.3757375E3,1.8591228E2,5.9094336E3,2.4361953E4,6.6160015E3,1.452091E3,3.782995E3,4.567879E2,2.0245776E3,4.6997593E3,1.2433786E4,3.1421604E4,5.153214E2,2.8604163E3,1.7445027E2,1.1462002E1,5.848411E3,6.1022644E1,2.4074209E4,2.877438E2],"tree_param":{"num_deleted":"0","num_feature":"20","num_nodes":"31","size_leaf_vector":"1"}},{"base_weights":[-5.290993E-4,-1.3662508E-1,2.3143888E-3,7.1636796E-2,-1.7925155E-1,5.9279483E-3,-1.09003864E-1,-1.0705696E-1,3.3197424E-1,-7.00533E-2,-2.3556054E-1,-5.0447587E-2,1.4196769E-2,1.09040484E-1,-1.3076214E-1,-4.3468922E-2,4.3261197E-1,2.6590937E-1,5.7328228E-2,-6.6810474E-2,1.968533E-2,-1.15804814E-1,-3.6678128E-2,-6.604033E-3,-3.8647745E-2,6.05526E-4,2.237733E-2,5.8889784E-2,-3.3350352E-2,-6.660067E-2,-2.6241008E-2],"categories":[],"categories_nodes":[],"categories_segments":[],"categories_sizes":[],"default_left":[0,0,0,0,0,0,0,0,0,0,0,0,0,0,0,0,0,0,0,0,0,0,0,0,0,0,0,0,0,0,0],"id":30,"left_children":[1,3,5,7,9,11,13,15,17,19,21,23,25,27,29,-1,-1,-1,-1,-1,-1,-1,-1,-1,-1,-1,-1,-1,-1,-1,-1],"loss_changes":[3.7398685E1,1.7570824E1,3.8079308E1,1.5701345E1,1.0080296E1,4.2741745E1,1.4134815E1,1.1958265E1,1.0554654E1,1.1613998E1,1.8413906E1,2.6134872E1,5.881099E1,5.221449E0,1.0672138E1,0E0,0E0,0E0,0E0,0E0,0E0,0E0,0E0,0E0,0E0,0E0,0E0,0E0,0E0,0E0,0E0],"parents":[2147483647,0,0,1,1,2,2,3,3,4,4,5,5,6,6,7,7,8,8,9,9,10,10,11,11,12,12,13,13,14,14],"right_children":[2,4,6,8,10,12,14,16,18,20,22,24,26,28,30,-1,-1,-1,-1,-1,-1,-1,-1,-1,-1,-1,-1,-1,-1,-1,-1],"split_conditions":[1E0,3E0,1.6E1,8.8E1,5.6E1,9E0,9E0,1.1E0,6.04E0,5.4E1,9.3E1,1.3E1,1.5E1,7.37E2,6.9E1,-4.3468922E-2,4.3261197E-1,2.6590937E-1,5.7328228E-2,-6.6810474E-2,1.968533E-2,-1.15804814E-1,-3.6678128E-2,-6.604033E-3,-3.8647745E-2,6.05526E-4,2.237733E-2,5.8889784E-2,-3.3350352E-2,-6.660067E-2,-2.6241008E-2],"split_indices":[4,5,4,17,17,6,6,18,16,14,17,4,4,15,17,0,0,0,0,0,0,0,0,0,0,0,0,0,0,0,0],"split_type":[0,0,0,0,0,0,0,0,0,0,0,0,0,0,0,0,0,0,0,0,0,0,0,0,0,0,0,0,0,0,0],"sum_hessian":[9.663878E4,1.9768136E3,9.466196E4,3.357493E2,1.6410643E3,9.1686625E4,2.97534E3,1.994423E2,1.3630699E2,5.5908746E2,1.0819768E3,1.1727213E4,7.9959414E4,2.6960086E2,2.7057393E3,1.9557158E2,3.8707201E0,2.6547173E1,1.0975981E2,2.627814E2,2.9630606E2,4.6374512E2,6.1823175E2,8.606293E3,3.12092E3,6.654236E4,1.341705E4,1.9316623E2,7.643464E1,8.693715E2,1.8363677E3],"tree_param":{"num_deleted":"0","num_feature":"20","num_nodes":"31","size_leaf_vector":"1"}},{"base_weights":[-4.5961328E-4,2.3316635E-1,-2.1142615E-3,-7.165553E-2,3.618792E-1,-1.0385012E-1,1.4228183E-3,-1.3068236E-1,7.154721E-1,2.043754E-1,6.9048065E-1,1.394339E-1,-1.3650136E-1,-6.1475024E-2,7.1586343E-3,-7.837812E-2,2.2747932E-2,3.8045898E-1,5.7710964E-2,8.297286E-2,-1.4780106E-1,1.4484042E-2,2.5202483E-1,6.824045E-2,-6.471934E-2,2.1468014E-2,-4.7435142E-2,-4.6294043E-3,-4.406925E-2,7.272375E-3,-4.8203813E-3],"categories":[],"categories_nodes":[],"categories_segments":[],"categories_sizes":[],"default_left":[0,0,0,0,0,0,0,0,0,0,0,0,0,0,0,0,0,0,0,0,0,0,0,0,0,0,0,0,0,0,0],"id":31,"left_children":[1,3,5,7,9,11,13,15,17,19,21,23,25,27,29,-1,-1,-1,-1,-1,-1,-1,-1,-1,-1,-1,-1,-1,-1,-1,-1],"loss_changes":[3.7313366E1,2.665924E1,3.448991E1,9.496033E0,2.4569885E1,2.5599854E1,3.3417194E1,5.1189933E0,3.882431E0,1.6450962E1,1.4781776E1,1.1979031E1,1.2782963E1,3.0444376E1,3.3680683E1,0E0,0E0,0E0,0E0,0E0,0E0,0E0,0E0,0E0,0E0,0E0,0E0,0E0,0E0,0E0,0E0],"parents":[2147483647,0,0,1,1,2,2,3,3,4,4,5,5,6,6,7,7,8,8,9,9,10,10,11,11,12,12,13,13,14,14],"right_children":[2,4,6,8,10,12,14,16,18,20,22,24,26,28,30,-1,-1,-1,-1,-1,-1,-1,-1,-1,-1,-1,-1,-1,-1,-1,-1],"split_conditions":[3E0,1E1,1.75E2,1.521E1,1.7E1,3E1,3.6E1,7.9E1,1E1,1.32E1,1.41E1,2E1,8.6E1,1.211E3,1.1E1,-7.837812E-2,2.2747932E-2,3.8045898E-1,5.7710964E-2,8.297286E-2,-1.4780106E-1,1.4484042E-2,2.5202483E-1,6.824045E-2,-6.471934E-2,2.1468014E-2,-4.7435142E-2,-4.6294043E-3,-4.406925E-2,7.272375E-3,-4.8203813E-3],"split_indices":[14,4,15,16,6,14,17,17,6,16,9,6,15,15,4,0,0,0,0,0,0,0,0,0,0,0,0,0,0,0,0],"split_type":[0,0,0,0,0,0,0,0,0,0,0,0,0,0,0,0,0,0,0,0,0,0,0,0,0,0,0,0,0,0,0],"sum_hessian":[9.6522234E4,6.778239E2,9.584441E4,2.0137187E2,4.7645206E2,3.2193364E3,9.262507E4,1.8810017E2,1.3271691E1,3.2317245E2,1.5327962E2,3.80555E2,2.8387815E3,7.740002E3,8.488507E4,1.15073E2,7.302718E1,5.7605534E0,7.511138E0,2.9338635E2,2.9786077E1,2.9210344E1,1.24069275E2,3.0525214E2,7.5302864E1,2.6695074E2,2.5718308E3,5.029971E3,2.7100305E3,4.8911637E4,3.5973434E4],"tree_param":{"num_deleted":"0","num_feature":"20","num_nodes":"31","size_leaf_vector":"1"}},{"base_weights":[-3.8017976E-4,-4.997476E-3,7.5560085E-2,8.164636E-3,-5.3740244E-2,4.37149E-2,3.7375078E-1,-3.2107069E-3,1.1400208E-1,-1.2863185E-1,4.271177E-3,-2.1823065E-1,6.651537E-2,5.1310676E-1,-1.0395868E-2,-2.1578252E-2,3.6456764E-3,6.291003E-2,-1.6062103E-2,-1.015188E-1,-1.716213E-2,-6.95172E-4,2.3443565E-1,3.2419652E-1,-7.213756E-2,5.7848573E-2,-1.1668111E-3,7.614168E-3,1.8537489E-1,-7.2729915E-2,7.6182984E-2],"categories":[],"categories_nodes":[],"categories_segments":[],"categories_sizes":[],"default_left":[0,0,0,0,0,0,0,0,0,0,0,0,0,0,0,0,0,0,0,0,0,0,0,0,0,0,0,0,0,0,0],"id":32,"left_children":[1,3,5,7,9,11,13,15,17,19,21,23,25,27,29,-1,-1,-1,-1,-1,-1,-1,-1,-1,-1,-1,-1,-1,-1,-1,-1],"loss_changes":[3.3832863E1,5.835571E1,5.250045E1,8.6226456E1,8.402286E1,2.986467E1,2.8565323E1,6.827303E1,1.1145445E2,1.26456665E2,5.5808723E1,1.1820967E1,4.089555E1,1.9997314E1,8.832543E0,0E0,0E0,0E0,0E0,0E0,0E0,0E0,0E0,0E0,0E0,0E0,0E0,0E0,0E0,0E0,0E0],"parents":[2147483647,0,0,1,1,2,2,3,3,4,4,5,5,6,6,7,7,8,8,9,9,10,10,11,11,12,12,13,13,14,14],"right_children":[2,4,6,8,10,12,14,16,18,20,22,24,26,28,30,-1,-1,-1,-1,-1,-1,-1,-1,-1,-1,-1,-1,-1,-1,-1,-1],"split_conditions":[9E0,7E0,2.2E-1,6E0,6.4E1,8E0,1.995E3,4.9E1,1.1E1,8E0,1.2E2,2.64E2,1.3E1,1E1,5E0,-2.1578252E-2,3.6456764E-3,6.291003E-2,-1.6062103E-2,-1.015188E-1,-1.716213E-2,-6.95172E-4,2.3443565E-1,3.2419652E-1,-7.213756E-2,5.7848573E-2,-1.1668111E-3,7.614168E-3,1.8537489E-1,-7.2729915E-2,7.6182984E-2],"split_indices":[8,8,12,8,17,6,15,17,4,8,17,15,6,6,4,0,0,0,0,0,0,0,0,0,0,0,0,0,0,0,0],"split_type":[0,0,0,0,0,0,0,0,0,0,0,0,0,0,0,0,0,0,0,0,0,0,0,0,0,0,0,0,0,0,0],"sum_hessian":[9.648716E4,9.095771E4,5.529448E3,7.161909E4,1.9338621E4,4.9969473E3,5.325009E2,6.466943E4,6.9496606E3,8.440667E3,1.0897953E4,3.994343E2,4.597513E3,3.9050323E2,1.4199768E2,1.1815654E4,5.2853773E4,4.423032E3,2.5266287E3,2.1430635E3,6.297604E3,1.0807333E4,9.062028E1,5.9193554E0,3.9351495E2,1.6448135E3,2.9526997E3,6.929311E1,3.212101E2,7.566326E1,6.633442E1],"tree_param":{"num_deleted":"0","num_feature":"20","num_nodes":"31","size_leaf_vector":"1"}},{"base_weights":[-4.608413E-4,-2.9013979E-3,1.4033198E-1,-3.4182908E-3,6.7539096E-1,1.319087E-1,1.9503303E0,-2.433785E-2,1.1351715E-2,1.1291657E-1,1.3302164E0,1.165341E-1,9.4085807E-1,2.3569582E0,2.533354E-2,4.1723954E-3,-1.3713446E-2,-2.8419355E-2,6.1104693E-3,-7.343169E-2,2.650408E-1,7.69232E-1,2.1272092E-1,8.310608E-2,1.1318509E-2,3.271984E-1,-1.448079E-1,2.9902E-2,8.92777E-1],"categories":[],"categories_nodes":[],"categories_segments":[],"categories_sizes":[],"default_left":[0,0,0,0,0,0,0,0,0,0,0,0,0,0,0,0,0,0,0,0,0,0,0,0,0,0,0,0,0],"id":33,"left_children":[1,3,5,7,9,11,13,15,17,19,21,23,25,27,-1,-1,-1,-1,-1,-1,-1,-1,-1,-1,-1,-1,-1,-1,-1],"loss_changes":[3.3134758E1,3.323514E1,2.4793365E1,2.9265831E1,2.6436302E1,2.0244488E1,5.520609E0,3.2043335E1,5.3105553E1,1.1219527E1,2.3673595E1,2.0315676E1,7.0055027E0,8.299511E0,0E0,0E0,0E0,0E0,0E0,0E0,0E0,0E0,0E0,0E0,0E0,0E0,0E0,0E0,0E0],"parents":[2147483647,0,0,1,1,2,2,3,3,4,4,5,5,6,6,7,7,8,8,9,9,10,10,11,11,12,12,13,13],"right_children":[2,4,6,8,10,12,14,16,18,20,22,24,26,28,-1,-1,-1,-1,-1,-1,-1,-1,-1,-1,-1,-1,-1,-1,-1],"split_conditions":[3.1E0,1.14E2,5.7E1,3E0,1.5E1,9.8E1,2E1,1E0,2E0,9.2E1,7E0,3.9E0,3E0,7E0,2.533354E-2,4.1723954E-3,-1.3713446E-2,-2.8419355E-2,6.1104693E-3,-7.343169E-2,2.650408E-1,7.69232E-1,2.1272092E-1,8.310608E-2,1.1318509E-2,3.271984E-1,-1.448079E-1,2.9902E-2,8.92777E-1],"split_indices":[19,13,13,7,4,17,6,7,5,14,5,19,0,4,0,0,0,0,0,0,0,0,0,0,0,0,0,0,0],"split_type":[0,0,0,0,0,0,0,0,0,0,0,0,0,0,0,0,0,0,0,0,0,0,0,0,0,0,0,0,0],"sum_hessian":[9.6428305E4,9.478623E4,1.642081E3,9.471504E4,7.118267E1,1.6355426E3,6.5385356E0,3.919723E4,5.5517812E4,3.8922184E1,3.2260487E1,1.6061605E3,2.9382055E1,5.152482E0,1.3860534E0,1.405237E4,2.5144861E4,4.3483403E3,5.116947E4,2.7048618E1,1.1873566E1,9.754813E0,2.2505672E1,5.281268E2,1.0780337E3,2.6796093E1,2.5859637E0,1.3586596E0,3.7938223E0],"tree_param":{"num_deleted":"0","num_feature":"20","num_nodes":"29","size_leaf_vector":"1"}},{"base_weights":[-3.6097708E-4,-4.2249005E-2,7.016743E-3,-4.6093032E-1,-3.12361E-2,-4.246785E-3,5.4393094E-2,4.1755098E-1,-5.1972437E-1,2.489645E-1,-4.224066E-2,2.3145523E-2,-3.6350615E-2,3.2126572E-2,2.5785357E-1,3.3040136E-1,-5.3493276E-2,1.5177587E-1,-1.7093712E-1,5.54087E-2,3.1718457E-1,-2.2721414E-2,1.721208E-2,1.3945475E-3,6.476657E-2,-5.535247E-2,-2.092967E-3,-1.911259E-2,2.28366E-2,-1.6401159E-2,9.9203296E-2],"categories":[],"categories_nodes":[],"categories_segments":[],"categories_sizes":[],"default_left":[0,0,0,0,0,0,0,0,0,0,0,0,0,0,0,0,0,0,0,0,0,0,0,0,0,0,0,0,0,0,0],"id":34,"left_children":[1,3,5,7,9,11,13,15,17,19,21,23,25,27,29,-1,-1,-1,-1,-1,-1,-1,-1,-1,-1,-1,-1,-1,-1,-1,-1],"loss_changes":[2.9786373E1,6.6538666E1,4.3730953E1,1.9320198E1,4.3379738E1,5.8225998E1,7.130434E1,9.875367E0,1.8112137E1,2.742414E1,4.5165977E1,1.273732E2,1.326644E2,5.9831963E1,3.53544E1,0E0,0E0,0E0,0E0,0E0,0E0,0E0,0E0,0E0,0E0,0E0,0E0,0E0,0E0,0E0,0E0],"parents":[2147483647,0,0,1,1,2,2,3,3,4,4,5,5,6,6,7,7,8,8,9,9,10,10,11,11,12,12,13,13,14,14],"right_children":[2,4,6,8,10,12,14,16,18,20,22,24,26,28,30,-1,-1,-1,-1,-1,-1,-1,-1,-1,-1,-1,-1,-1,-1,-1,-1],"split_conditions":[1E0,6.4E1,1.5E1,3.1E1,3.2E1,7E0,1.464E3,3E-2,3.1E1,3.2E1,6E0,6E0,1E1,4.9E1,1E1,3.3040136E-1,-5.3493276E-2,1.5177587E-1,-1.7093712E-1,5.54087E-2,3.1718457E-1,-2.2721414E-2,1.721208E-2,1.3945475E-3,6.476657E-2,-5.535247E-2,-2.092967E-3,-1.911259E-2,2.28366E-2,-1.6401159E-2,9.9203296E-2],"split_indices":[8,17,4,17,14,4,15,12,14,9,4,4,4,17,6,0,0,0,0,0,0,0,0,0,0,0,0,0,0,0,0],"split_type":[0,0,0,0,0,0,0,0,0,0,0,0,0,0,0,0,0,0,0,0,0,0,0,0,0,0,0,0,0,0,0],"sum_hessian":[9.638217E4,1.4432864E4,8.194931E4,3.6886194E2,1.4064002E4,6.620925E4,1.5740061E4,2.2755465E1,3.4610648E2,5.306576E2,1.3533345E4,3.5726348E4,3.0482906E4,1.4188448E4,1.5516123E3,1.0200954E1,1.255451E1,1.5684816E1,3.3042166E2,4.9271094E2,3.7946667E1,1.0127874E4,3.4054702E3,3.2598938E4,3.1274082E3,5.042771E3,2.5440135E4,4.464022E3,9.724426E3,2.9327466E2,1.2583376E3],"tree_param":{"num_deleted":"0","num_feature":"20","num_nodes":"31","size_leaf_vector":"1"}},{"base_weights":[-4.388548E-4,-8.862088E-2,2.6857955E-3,-1.841279E-1,-7.109581E-4,-2.9966778E-1,3.6718526E-3,1.1734898E0,-1.8869242E-1,2.1983936E-1,-1.7729482E-1,7.002891E-1,-3.4990454E-1,-1.629907E-4,8.382756E-2,4.5167652E-1,8.4886834E-2,-2.6996287E-2,-7.3547505E-2,2.647853E-1,5.071586E-2,-6.4031355E-2,7.967887E-3,3.385265E-1,1.419463E-1,-5.0438795E-2,-1.3458733E-1,-4.1469772E-4,8.870936E-2,8.395642E-2,1.1408737E-2],"categories":[],"categories_nodes":[],"categories_segments":[],"categories_sizes":[],"default_left":[0,0,0,0,0,0,0,0,0,0,0,0,0,0,0,0,0,0,0,0,0,0,0,0,0,0,0,0,0,0,0],"id":35,"left_children":[1,3,5,7,9,11,13,15,17,19,21,23,25,27,29,-1,-1,-1,-1,-1,-1,-1,-1,-1,-1,-1,-1,-1,-1,-1,-1],"loss_changes":[2.6523783E1,2.7658203E1,2.7718296E1,1.0005585E1,6.688283E1,1.542691E1,2.8484266E1,1.1796422E0,8.753094E0,2.555399E1,7.0326614E0,9.0432453E-1,5.1003876E0,3.1904192E1,3.7973907E1,0E0,0E0,0E0,0E0,0E0,0E0,0E0,0E0,0E0,0E0,0E0,0E0,0E0,0E0,0E0,0E0],"parents":[2147483647,0,0,1,1,2,2,3,3,4,4,5,5,6,6,7,7,8,8,9,9,10,10,11,11,12,12,13,13,14,14],"right_children":[2,4,6,8,10,12,14,16,18,20,22,24,26,28,30,-1,-1,-1,-1,-1,-1,-1,-1,-1,-1,-1,-1,-1,-1,-1,-1],"split_conditions":[7E0,5E0,1.6E1,-6E0,1.1E1,3.3E1,1.633E1,1.5E1,4E0,1E0,6E0,7.62E2,1.99E1,2.717E3,3.2E1,4.5167652E-1,8.4886834E-2,-2.6996287E-2,-7.3547505E-2,2.647853E-1,5.071586E-2,-6.4031355E-2,7.967887E-3,3.385265E-1,1.419463E-1,-5.0438795E-2,-1.3458733E-1,-4.1469772E-4,8.870936E-2,8.395642E-2,1.1408737E-2],"split_indices":[6,4,17,14,4,13,16,13,8,8,7,15,9,15,14,0,0,0,0,0,0,0,0,0,0,0,0,0,0,0,0],"split_type":[0,0,0,0,0,0,0,0,0,0,0,0,0,0,0,0,0,0,0,0,0,0,0,0,0,0,0,0,0,0,0],"sum_hessian":[9.625994E4,3.293222E3,9.296672E4,1.5778842E3,1.7153379E3,3.0121945E2,9.26655E4,4.4291925E0,1.573455E3,7.626081E2,9.527298E2,1.3790071E1,2.8742938E2,8.843552E4,4.2299717E3,2.7230513E0,1.7061411E0,5.7351685E2,9.9993805E2,5.3111332E1,7.0949677E2,8.092112E2,1.4351863E2,3.4045916E0,1.0385479E1,1.0211174E2,1.8531766E2,8.807354E4,3.6198322E2,8.001305E2,3.4298413E3],"tree_param":{"num_deleted":"0","num_feature":"20","num_nodes":"31","size_leaf_vector":"1"}},{"base_weights":[-3.923236E-4,-1.2461745E-2,2.1942033E-2,4.3606717E-2,-2.1901764E-2,3.3106733E-2,-4.2587295E-2,3.8532028E-1,2.8271882E-2,-1.5441417E-4,-5.6399662E-2,4.2828196E-3,5.5170875E-2,-1.7826141E-1,-1.1026223E-2,2.1015464E-1,6.563978E-2,-3.0056385E-2,2.003131E-2,-2.0259786E-2,6.849568E-3,-3.0376831E-2,-4.8094923E-3,8.4043964E-4,5.5607206E-1,7.3255775E-3,4.3089293E-2,-2.5712086E-2,-1.0272626E-1,-7.091419E-2,1.8509695E-3],"categories":[],"categories_nodes":[],"categories_segments":[],"categories_sizes":[],"default_left":[0,0,0,0,0,0,0,0,0,0,0,0,0,0,0,0,0,0,0,0,0,0,0,0,0,0,0,0,0,0,0],"id":36,"left_children":[1,3,5,7,9,11,13,15,17,19,21,23,25,27,29,-1,-1,-1,-1,-1,-1,-1,-1,-1,-1,-1,-1,-1,-1,-1,-1],"loss_changes":[2.5934765E1,3.30593E1,2.4318249E1,4.715438E1,4.0106514E1,1.8299582E1,2.131745E1,2.013255E1,4.261449E1,5.07853E1,3.7426567E1,3.4175426E1,4.4333515E1,1.424589E1,1.5658404E1,0E0,0E0,0E0,0E0,0E0,0E0,0E0,0E0,0E0,0E0,0E0,0E0,0E0,0E0,0E0,0E0],"parents":[2147483647,0,0,1,1,2,2,3,3,4,4,5,5,6,6,7,7,8,8,9,9,10,10,11,11,12,12,13,13,14,14],"right_children":[2,4,6,8,10,12,14,16,18,20,22,24,26,28,30,-1,-1,-1,-1,-1,-1,-1,-1,-1,-1,-1,-1,-1,-1,-1,-1],"split_conditions":[1E0,5.6E1,1.721E3,4.03E0,8E0,2E0,2E0,2E0,2E0,4E0,3E0,9.1E0,8.8E1,1.7E1,1.744E3,2.1015464E-1,6.563978E-2,-3.0056385E-2,2.003131E-2,-2.0259786E-2,6.849568E-3,-3.0376831E-2,-4.8094923E-3,8.4043964E-4,5.5607206E-1,7.3255775E-3,4.3089293E-2,-2.5712086E-2,-1.0272626E-1,-7.091419E-2,1.8509695E-3],"split_indices":[1,13,15,16,5,2,4,7,5,5,8,19,17,6,15,0,0,0,0,0,0,0,0,0,0,0,0,0,0,0,0],"split_type":[0,0,0,0,0,0,0,0,0,0,0,0,0,0,0,0,0,0,0,0,0,0,0,0,0,0,0,0,0,0,0],"sum_hessian":[9.620848E4,6.245722E4,3.3751258E4,8.999799E3,5.3457418E4,2.8773438E4,4.9778213E3,3.854952E2,8.614304E3,3.2788605E4,2.0668814E4,1.247616E4,1.6297277E4,9.385505E2,4.0392705E3,1.3215054E2,2.5334468E2,1.9860068E3,6.6282964E3,8.340049E3,2.4448557E4,9.789422E3,1.0879392E4,1.2467175E4,8.985182E0,1.2094144E4,4.2031343E3,6.0114307E2,3.374074E2,2.8546878E2,3.7538018E3],"tree_param":{"num_deleted":"0","num_feature":"20","num_nodes":"31","size_leaf_vector":"1"}},{"base_weights":[-3.8371E-4,-1.3195918E-2,2.0191861E-2,-1.9211557E-2,7.751211E-2,3.4707002E-2,-6.747994E-2,-2.1651754E-2,2.467006E-1,-8.2978025E-2,1.476088E-1,1.2771194E-1,4.6215802E-3,-2.6244077E-1,1.1106423E-2,-5.3062234E-3,-4.679601E-2,1.24222115E-1,-2.7195534E-2,-6.2497806E-2,-3.8495508E-3,7.936427E-2,1.38612585E-2,2.3404347E-2,1.3223544E-1,-9.394358E-3,1.569018E-2,-8.276508E-2,6.586177E-2,-3.154006E-2,9.007104E-3],"categories":[],"categories_nodes":[],"categories_segments":[],"categories_sizes":[],"default_left":[0,0,0,0,0,0,0,0,0,0,0,0,0,0,0,0,0,0,0,0,0,0,0,0,0,0,0,0,0,0,0],"id":37,"left_children":[1,3,5,7,9,11,13,15,17,19,21,23,25,27,29,-1,-1,-1,-1,-1,-1,-1,-1,-1,-1,-1,-1,-1,-1,-1,-1],"loss_changes":[2.5344427E1,3.2330936E1,4.6951126E1,3.6059326E1,4.1468414E1,8.8567825E1,8.0298515E1,2.9319033E1,2.85706E1,9.852764E0,3.0406025E1,1.20337814E2,4.0982002E1,9.815895E0,8.2187195E0,0E0,0E0,0E0,0E0,0E0,0E0,0E0,0E0,0E0,0E0,0E0,0E0,0E0,0E0,0E0,0E0],"parents":[2147483647,0,0,1,1,2,2,3,3,4,4,5,5,6,6,7,7,8,8,9,9,10,10,11,11,12,12,13,13,14,14],"right_children":[2,4,6,8,10,12,14,16,18,20,22,24,26,28,30,-1,-1,-1,-1,-1,-1,-1,-1,-1,-1,-1,-1,-1,-1,-1,-1],"split_conditions":[1.7E1,9E0,1.709E3,2.677E3,1E1,4E0,3E0,2.475E3,6E1,5E0,1.3E1,3E0,1.4E1,1.04E2,3E0,-5.3062234E-3,-4.679601E-2,1.24222115E-1,-2.7195534E-2,-6.2497806E-2,-3.8495508E-3,7.936427E-2,1.38612585E-2,2.3404347E-2,1.3223544E-1,-9.394358E-3,1.569018E-2,-8.276508E-2,6.586177E-2,-3.154006E-2,9.007104E-3],"split_indices":[6,8,15,15,6,4,4,15,14,4,6,4,4,17,5,0,0,0,0,0,0,0,0,0,0,0,0,0,0,0,0],"split_type":[0,0,0,0,0,0,0,0,0,0,0,0,0,0,0,0,0,0,0,0,0,0,0,0,0,0,0,0,0,0,0],"sum_hessian":[9.613854E4,5.924661E4,3.689193E4,5.5562562E4,3.684049E3,3.1652135E4,5.239795E3,5.5058227E4,5.0433456E2,1.119868E3,2.5641812E3,7.7355386E3,2.3916596E4,1.5046492E3,3.7351458E3,5.3481082E4,1.5771431E3,3.369391E2,1.6739546E2,4.011183E2,7.187497E2,1.1901285E3,1.3740526E3,6.676892E3,1.0586465E3,1.3637918E4,1.0278678E4,1.464238E3,4.0411125E1,5.2215106E2,3.2129946E3],"tree_param":{"num_deleted":"0","num_feature":"20","num_nodes":"31","size_leaf_vector":"1"}},{"base_weights":[-4.031118E-4,1.3059213E-2,-1.86124E-2,-5.876712E-3,2.7514505E-1,-7.140221E-2,2.111291E-3,6.705763E-3,-1.486609E-1,4.157945E-1,1.293326E-1,-1.1649565E-1,6.5509014E-2,-1.0259956E-1,2.2913575E-2,-2.5002796E-3,4.8029896E-2,-7.655961E-2,6.7663314E-3,1.4321427E-1,4.924166E-2,7.4681398E-3,9.0778224E-2,-5.6552853E-2,-1.1580725E-2,4.433851E-2,-4.435671E-3,1.7087062E-1,-3.3382688E-2,-4.0559873E-2,1.1108613E-2],"categories":[],"categories_nodes":[],"categories_segments":[],"categories_sizes":[],"default_left":[0,0,0,0,0,0,0,0,0,0,0,0,0,0,0,0,0,0,0,0,0,0,0,0,0,0,0,0,0,0,0],"id":38,"left_children":[1,3,5,7,9,11,13,15,17,19,21,23,25,27,29,-1,-1,-1,-1,-1,-1,-1,-1,-1,-1,-1,-1,-1,-1,-1,-1],"loss_changes":[2.3542238E1,2.740251E2,4.4658405E1,9.251675E1,7.624884E1,7.105337E1,6.3855835E1,1.09184906E2,7.607844E1,2.9265808E1,3.3074074E1,4.855243E1,1.8844154E1,2.8398193E1,5.45873E1,0E0,0E0,0E0,0E0,0E0,0E0,0E0,0E0,0E0,0E0,0E0,0E0,0E0,0E0,0E0,0E0],"parents":[2147483647,0,0,1,1,2,2,3,3,4,4,5,5,6,6,7,7,8,8,9,9,10,10,11,11,12,12,13,13,14,14],"right_children":[2,4,6,8,10,12,14,16,18,20,22,24,26,28,30,-1,-1,-1,-1,-1,-1,-1,-1,-1,-1,-1,-1,-1,-1,-1,-1],"split_conditions":[1.1E1,1E1,1.4E1,9E0,7E0,3E0,3E0,6E0,1E0,1.546E3,6E0,7E1,1.5E1,1E1,1E0,-2.5002796E-3,4.8029896E-2,-7.655961E-2,6.7663314E-3,1.4321427E-1,4.924166E-2,7.4681398E-3,9.0778224E-2,-5.6552853E-2,-1.1580725E-2,4.433851E-2,-4.435671E-3,1.7087062E-1,-3.3382688E-2,-4.0559873E-2,1.1108613E-2],"split_indices":[4,4,4,4,5,2,5,4,1,15,8,17,6,13,8,0,0,0,0,0,0,0,0,0,0,0,0,0,0,0,0],"split_type":[0,0,0,0,0,0,0,0,0,0,0,0,0,0,0,0,0,0,0,0,0,0,0,0,0,0,0,0,0,0,0],"sum_hessian":[9.603416E4,5.5214074E4,4.0820082E4,5.1494527E4,3.719546E3,1.1506623E4,2.9313457E4,4.7325086E4,4.169444E3,1.8923499E3,1.8271959E3,8.655856E3,2.8507666E3,4.857699E3,2.4455758E4,4.3100133E4,4.224954E3,2.5698674E3,1.5995762E3,1.5195753E3,3.7277457E2,1.1407291E3,6.8646674E2,4.496932E3,4.158925E3,1.4075088E3,1.4432578E3,6.107825E1,4.796621E3,2.0035916E3,2.2452166E4],"tree_param":{"num_deleted":"0","num_feature":"20","num_nodes":"31","size_leaf_vector":"1"}},{"base_weights":[-5.621274E-4,-3.2493483E-2,8.714809E-3,-4.0619394E-1,-2.293759E-2,6.2974347E-3,1.6555896E-1,7.7085175E-2,-4.7519764E-1,5.1417496E-2,-4.426314E-2,4.527922E-3,2.0313168E-1,3.6164474E-1,9.28763E-2,2.0244145E-1,-4.40354E-2,4.427463E-2,-1.5730068E-1,4.120592E-2,-4.142036E-2,-3.8580444E-2,-4.070642E-3,1.476743E-3,-2.237473E-1,7.475979E-2,-2.4414732E-1,1.4058422E-2,1.6204283E-1,-1.2067877E-2,7.800771E-2],"categories":[],"categories_nodes":[],"categories_segments":[],"categories_sizes":[],"default_left":[0,0,0,0,0,0,0,0,0,0,0,0,0,0,0,0,0,0,0,0,0,0,0,0,0,0,0,0,0,0,0],"id":39,"left_children":[1,3,5,7,9,11,13,15,17,19,21,23,25,27,29,-1,-1,-1,-1,-1,-1,-1,-1,-1,-1,-1,-1,-1,-1,-1,-1],"loss_changes":[2.842421E1,7.7130974E1,2.8190039E1,1.7995972E1,3.3402805E1,2.5503613E1,1.605042E1,9.217949E0,1.4503067E1,7.6474686E1,4.23749E1,2.1489622E1,3.0766935E1,1.7103325E1,1.8358326E1,0E0,0E0,0E0,0E0,0E0,0E0,0E0,0E0,0E0,0E0,0E0,0E0,0E0,0E0,0E0,0E0],"parents":[2147483647,0,0,1,1,2,2,3,3,4,4,5,5,6,6,7,7,8,8,9,9,10,10,11,11,12,12,13,13,14,14],"right_children":[2,4,6,8,10,12,14,16,18,20,22,24,26,28,30,-1,-1,-1,-1,-1,-1,-1,-1,-1,-1,-1,-1,-1,-1,-1,-1],"split_conditions":[4.6E1,3E0,1.05E2,3.2E1,4E0,1.7E0,4E0,1.2E1,3E0,1.605E3,6E0,8.7E1,4.81E1,6.8E1,1.5E1,2.0244145E-1,-4.40354E-2,4.427463E-2,-1.5730068E-1,4.120592E-2,-4.142036E-2,-3.8580444E-2,-4.070642E-3,1.476743E-3,-2.237473E-1,7.475979E-2,-2.4414732E-1,1.4058422E-2,1.6204283E-1,-1.2067877E-2,7.800771E-2],"split_indices":[17,8,13,17,8,12,4,6,5,15,8,14,9,17,4,0,0,0,0,0,0,0,0,0,0,0,0,0,0,0,0],"split_type":[0,0,0,0,0,0,0,0,0,0,0,0,0,0,0,0,0,0,0,0,0,0,0,0,0,0,0,0,0,0,0],"sum_hessian":[9.595279E4,2.160062E4,7.4352164E4,5.3754254E2,2.1063078E4,7.3224625E4,1.1275409E3,6.71474E1,4.7039517E2,4.6942793E3,1.6368798E4,7.257323E4,6.5140027E2,3.0384412E2,8.236968E2,1.7747725E1,4.9399677E1,3.4253887E1,4.3614127E2,3.2297812E3,1.464498E3,4.3668594E3,1.2001939E4,7.253608E4,3.7147892E1,6.238932E2,2.7507103E1,1.104054E2,1.9343872E2,4.5897238E2,3.647244E2],"tree_param":{"num_deleted":"0","num_feature":"20","num_nodes":"31","size_leaf_vector":"1"}},{"base_weights":[-5.0187914E-4,2.3192207E-3,-9.012066E-2,-1.0223702E-1,4.517593E-3,1.16407275E-1,-1.0839092E-1,-6.0262907E-2,-2.7307177E-1,-4.416054E-3,3.178943E-2,-4.1432194E-2,3.5269555E-1,8.3191484E-2,-1.2829927E-1,3.0379938E-2,-2.9448636E-2,-9.574192E-2,9.7789824E-2,6.549914E-3,-5.0024693E-3,8.495903E-3,1.3520494E-1,1.6387133E-2,-1.3845254E-1,2.566649E-1,6.650326E-2,2.1972395E-1,1.4260846E-2,-2.584507E-2,-7.461794E-2],"categories":[],"categories_nodes":[],"categories_segments":[],"categories_sizes":[],"default_left":[0,0,0,0,0,0,0,0,0,0,0,0,0,0,0,0,0,0,0,0,0,0,0,0,0,0,0,0,0,0,0],"id":40,"left_children":[1,3,5,7,9,11,13,15,17,19,21,23,25,27,29,-1,-1,-1,-1,-1,-1,-1,-1,-1,-1,-1,-1,-1,-1,-1,-1],"loss_changes":[2.4247364E1,2.1372149E1,1.1056698E1,1.3713514E1,2.2187141E1,8.90448E0,1.0268761E1,9.427582E0,1.0518343E1,2.207354E1,3.2647125E1,5.82759E0,6.1063786E0,5.839758E0,1.2347225E1,0E0,0E0,0E0,0E0,0E0,0E0,0E0,0E0,0E0,0E0,0E0,0E0,0E0,0E0,0E0,0E0],"parents":[2147483647,0,0,1,1,2,2,3,3,4,4,5,5,6,6,7,7,8,8,9,9,10,10,11,11,12,12,13,13,14,14],"right_children":[2,4,6,8,10,12,14,16,18,20,22,24,26,28,30,-1,-1,-1,-1,-1,-1,-1,-1,-1,-1,-1,-1,-1,-1,-1,-1],"split_conditions":[1.6E1,1E0,2E0,2E1,1.9E1,2.3E1,9E0,1.5E1,1.23E2,6.4E1,1.5E0,4E1,2.51E1,1.3E1,7E0,3.0379938E-2,-2.9448636E-2,-9.574192E-2,9.7789824E-2,6.549914E-3,-5.0024693E-3,8.495903E-3,1.3520494E-1,1.6387133E-2,-1.3845254E-1,2.566649E-1,6.650326E-2,2.1972395E-1,1.4260846E-2,-2.584507E-2,-7.461794E-2],"split_indices":[4,4,5,6,6,9,6,9,17,13,18,14,9,9,8,0,0,0,0,0,0,0,0,0,0,0,0,0,0,0,0],"split_type":[0,0,0,0,0,0,0,0,0,0,0,0,0,0,0,0,0,0,0,0,0,0,0,0,0,0,0,0,0,0,0],"sum_hessian":[9.590445E4,9.297856E4,2.925888E3,1.9137484E3,9.106482E4,2.3736224E2,2.688526E3,1.5373694E3,3.7637906E2,6.859534E4,2.2469473E4,1.427983E2,9.456394E1,2.5278085E2,2.4357449E3,2.9184238E2,1.245527E3,3.4993518E2,2.6443897E1,2.1836793E4,4.675855E4,2.2285943E4,1.8352995E2,1.1693055E2,2.586774E1,1.8402843E1,7.61611E1,1.2142658E1,2.406382E2,1.8055315E3,6.302134E2],"tree_param":{"num_deleted":"0","num_feature":"20","num_nodes":"31","size_leaf_vector":"1"}},{"base_weights":[-3.973408E-4,-8.0667455E-3,2.5163928E-2,-4.0166143E-2,7.7329143E-3,2.7356077E-2,-5.205046E-1,-1.8411586E-1,-6.2154843E-3,6.0334507E-2,-1.1992778E-2,2.5085822E-2,6.6222405E-1,-8.3867544E-1,-1.349334E-1,-3.3149444E-2,-1.373043E-1,-1.2402241E-2,1.846474E-2,-2.9891167E-2,2.7310839E-2,-4.277826E-3,1.592068E-1,-9.722504E-3,1.3314294E-2,-2.443751E-1,2.2021814E-1,-9.041305E-2,-3.2124007E-1,-1.9547169E-1,-6.8566967E-3],"categories":[],"categories_nodes":[],"categories_segments":[],"categories_sizes":[],"default_left":[0,0,0,0,0,0,0,0,0,0,0,0,0,0,0,0,0,0,0,0,0,0,0,0,0,0,0,0,0,0,0],"id":41,"left_children":[1,3,5,7,9,11,13,15,17,19,21,23,25,27,29,-1,-1,-1,-1,-1,-1,-1,-1,-1,-1,-1,-1,-1,-1,-1,-1],"loss_changes":[1.879145E1,3.7394478E1,2.6477158E1,1.18860565E2,5.127124E1,3.1742947E1,1.0752308E1,9.342413E1,4.684751E1,6.6196655E1,4.4212597E1,2.43604E1,8.9234085E0,5.705551E0,2.3727736E0,0E0,0E0,0E0,0E0,0E0,0E0,0E0,0E0,0E0,0E0,0E0,0E0,0E0,0E0,0E0,0E0],"parents":[2147483647,0,0,1,1,2,2,3,3,4,4,5,5,6,6,7,7,8,8,9,9,10,10,11,11,12,12,13,13,14,14],"right_children":[2,4,6,8,10,12,14,16,18,20,22,24,26,28,30,-1,-1,-1,-1,-1,-1,-1,-1,-1,-1,-1,-1,-1,-1,-1,-1],"split_conditions":[8.7E1,3E0,1.9E0,6.6E1,5E0,1.3E0,1.4E1,8.7E1,1.3E1,3E0,3.1E0,4.6E1,7E0,1.4E-1,1.41E1,-3.3149444E-2,-1.373043E-1,-1.2402241E-2,1.846474E-2,-2.9891167E-2,2.7310839E-2,-4.277826E-3,1.592068E-1,-9.722504E-3,1.3314294E-2,-2.443751E-1,2.2021814E-1,-9.041305E-2,-3.2124007E-1,-1.9547169E-1,-6.8566967E-3],"split_indices":[17,8,18,17,8,18,6,13,4,4,18,14,6,12,9,0,0,0,0,0,0,0,0,0,0,0,0,0,0,0,0],"split_type":[0,0,0,0,0,0,0,0,0,0,0,0,0,0,0,0,0,0,0,0,0,0,0,0,0,0,0,0,0,0,0],"sum_hessian":[9.585328E4,7.373155E4,2.2121734E4,2.4320082E4,4.941147E4,2.2034164E4,8.756939E1,4.640421E3,1.967966E4,1.3475341E4,3.593613E4,2.1956688E4,7.74765E1,4.733429E1,4.02351E1,3.657558E3,9.8286285E2,1.2961531E4,6.7181294E3,2.1693953E3,1.1305945E4,3.5787625E4,1.4850186E2,5.5169727E3,1.6439715E4,3.1142619E0,7.4362236E1,1.49735E1,3.236079E1,6.314394E0,3.3920704E1],"tree_param":{"num_deleted":"0","num_feature":"20","num_nodes":"31","size_leaf_vector":"1"}},{"base_weights":[-4.1929344E-4,2.6164537E-2,-1.0804394E-2,4.0894847E-2,-1.3916194E-1,-5.7803083E-2,3.4820505E-3,1.31997E-2,1.9531992E-1,-4.2140976E-2,-2.115913E-1,-1.8616106E-2,-1.2751834E-1,1.5243383E-1,-7.3343855E-3,1.9221686E-2,-1.003977E-2,1.9711427E-2,7.953697E-2,-6.843136E-2,9.874666E-3,-7.4033126E-2,-3.2561537E-2,-2.610973E-2,8.820323E-3,1.0529184E-1,-4.1081227E-2,2.2057076E-1,3.0209577E-2,-3.0730356E-2,8.54111E-4],"categories":[],"categories_nodes":[],"categories_segments":[],"categories_sizes":[],"default_left":[0,0,0,0,0,0,0,0,0,0,0,0,0,0,0,0,0,0,0,0,0,0,0,0,0,0,0,0,0,0,0],"id":42,"left_children":[1,3,5,7,9,11,13,15,17,19,21,23,25,27,29,-1,-1,-1,-1,-1,-1,-1,-1,-1,-1,-1,-1,-1,-1,-1,-1],"loss_changes":[2.6435677E1,6.551311E1,4.623325E1,1.0563151E2,1.54565735E1,4.3848957E1,8.507786E1,4.972374E1,3.3964767E1,1.3155152E1,4.541443E0,3.3763157E1,2.6078903E1,1.0771831E2,4.7669098E1,0E0,0E0,0E0,0E0,0E0,0E0,0E0,0E0,0E0,0E0,0E0,0E0,0E0,0E0,0E0,0E0],"parents":[2147483647,0,0,1,1,2,2,3,3,4,4,5,5,6,6,7,7,8,8,9,9,10,10,11,11,12,12,13,13,14,14],"right_children":[2,4,6,8,10,12,14,16,18,20,22,24,26,28,30,-1,-1,-1,-1,-1,-1,-1,-1,-1,-1,-1,-1,-1,-1,-1,-1],"split_conditions":[4E0,2.475E3,6E0,3E0,1.3E1,8E0,7E0,3E0,1.3E1,4E0,9E0,3E0,2.3E1,1E0,1E1,1.9221686E-2,-1.003977E-2,1.9711427E-2,7.953697E-2,-6.843136E-2,9.874666E-3,-7.4033126E-2,-3.2561537E-2,-2.610973E-2,8.820323E-3,1.0529184E-1,-4.1081227E-2,2.2057076E-1,3.0209577E-2,-3.0730356E-2,8.54111E-4],"split_indices":[4,15,4,4,6,5,4,8,6,8,5,7,14,8,4,0,0,0,0,0,0,0,0,0,0,0,0,0,0,0,0],"split_type":[0,0,0,0,0,0,0,0,0,0,0,0,0,0,0,0,0,0,0,0,0,0,0,0,0,0,0,0,0,0,0],"sum_hessian":[9.575313E4,2.6897996E4,6.885513E4,2.4698182E4,2.199814E3,1.6050411E4,5.2804727E4,2.0943232E4,3.7549495E3,9.409582E2,1.2588557E3,1.0275702E4,5.7747095E3,3.5740361E3,4.9230688E4,1.0019779E4,1.0923452E4,1.3150406E3,2.439909E3,2.699869E2,6.709713E2,9.3740045E2,3.2145526E2,4.2373647E3,6.038337E3,1.1078053E2,5.6639287E3,2.90322E2,3.283714E3,4.760057E3,4.4470633E4],"tree_param":{"num_deleted":"0","num_feature":"20","num_nodes":"31","size_leaf_vector":"1"}},{"base_weights":[-4.5623197E-4,-3.263996E-2,6.510962E-3,-4.9796484E-2,4.756353E-2,-8.605415E-2,9.612632E-3,-8.689364E-2,5.1752427E-3,6.902604E-1,3.665489E-2,6.4252965E-2,-1.1782837E-1,-1.4439255E-2,2.2840677E-2,-7.6658786E-3,-4.6031155E-2,7.8052413E-3,-5.8172707E-2,-4.311741E-3,2.6059157E-1,5.775896E-1,1.0360353E-2,-3.7269846E-2,5.6361336E-2,2.4663173E-1,-3.6807857E-2,-1.0987332E-1,-6.451799E-4,1.363326E-2,-3.322283E-3],"categories":[],"categories_nodes":[],"categories_segments":[],"categories_sizes":[],"default_left":[0,0,0,0,0,0,0,0,0,0,0,0,0,0,0,0,0,0,0,0,0,0,0,0,0,0,0,0,0,0,0],"id":43,"left_children":[1,3,5,7,9,11,13,15,17,19,21,23,25,27,29,-1,-1,-1,-1,-1,-1,-1,-1,-1,-1,-1,-1,-1,-1,-1,-1],"loss_changes":[2.144592E1,2.342247E1,2.2573761E1,2.8594387E1,2.100598E1,1.218207E1,2.4204002E1,3.4168686E1,2.34514E1,6.2983017E0,1.1750303E1,1.0403366E1,9.724024E0,1.1669989E2,3.7625908E1,0E0,0E0,0E0,0E0,0E0,0E0,0E0,0E0,0E0,0E0,0E0,0E0,0E0,0E0,0E0,0E0],"parents":[2147483647,0,0,1,1,2,2,3,3,4,4,5,5,6,6,7,7,8,8,9,9,10,10,11,11,12,12,13,13,14,14],"right_children":[2,4,6,8,10,12,14,16,18,20,22,24,26,28,30,-1,-1,-1,-1,-1,-1,-1,-1,-1,-1,-1,-1,-1,-1,-1,-1],"split_conditions":[4.3E1,9E0,7E0,8E1,8.9E0,4E0,2E0,5E0,1.01E2,3.2E1,3.6E1,5E1,-6E0,5.7E1,1.2E1,-7.6658786E-3,-4.6031155E-2,7.8052413E-3,-5.8172707E-2,-4.311741E-3,2.6059157E-1,5.775896E-1,1.0360353E-2,-3.7269846E-2,5.6361336E-2,2.4663173E-1,-3.6807857E-2,-1.0987332E-1,-6.451799E-4,1.363326E-2,-3.322283E-3],"split_indices":[17,8,6,13,9,6,8,8,13,17,14,14,14,17,4,0,0,0,0,0,0,0,0,0,0,0,0,0,0,0,0],"split_type":[0,0,0,0,0,0,0,0,0,0,0,0,0,0,0,0,0,0,0,0,0,0,0,0,0,0,0,0,0,0,0],"sum_hessian":[9.564045E4,1.7019264E4,7.862119E4,1.4020486E4,2.998777E3,2.5481575E3,7.607303E4,8.37089E3,5.649597E3,4.9010025E1,2.949767E3,4.444896E2,2.103668E3,2.6992975E4,4.9080055E4,4.356445E3,4.0144446E3,5.114977E3,5.346201E2,1.00863085E1,3.8923717E1,2.290853E0,2.9474763E3,1.7605151E2,2.6843808E2,9.966162E0,2.093702E3,9.1007715E2,2.6082898E4,2.945119E4,1.9628865E4],"tree_param":{"num_deleted":"0","num_feature":"20","num_nodes":"31","size_leaf_vector":"1"}},{"base_weights":[-4.2721594E-4,-1.365387E-1,7.7156804E-4,-9.3763985E-2,-3.824479E-1,-2.4788734E-3,5.4570045E-2,1.220624E-2,-1.6278078E-1,-4.5347786E-1,7.816329E-2,-2.8703894E-2,5.559427E-3,1.766933E-2,1.9352865E-1,1.9986702E-2,-1.5797198E-1,1.06781125E-1,-5.739324E-2,-1.4493498E-1,2.0170218E-1,-3.831037E-2,2.950515E-1,-1.0189668E-1,-5.597724E-3,2.8918742E-4,1.7320784E-2,3.202155E-2,-9.880199E-3,3.3978805E-2,1.5042761E-1],"categories":[],"categories_nodes":[],"categories_segments":[],"categories_sizes":[],"default_left":[0,0,0,0,0,0,0,0,0,0,0,0,0,0,0,0,0,0,0,0,0,0,0,0,0,0,0,0,0,0,0],"id":44,"left_children":[1,3,5,7,9,11,13,15,17,19,21,23,25,27,29,-1,-1,-1,-1,-1,-1,-1,-1,-1,-1,-1,-1,-1,-1,-1,-1],"loss_changes":[1.5596707E1,8.74217E0,1.656939E1,5.21075E0,4.0703526E0,1.883656E1,2.7679333E1,8.2977295E0,6.451867E0,3.8950634E0,3.3555334E0,6.547097E1,1.6398834E1,1.9235651E1,2.793665E1,0E0,0E0,0E0,0E0,0E0,0E0,0E0,0E0,0E0,0E0,0E0,0E0,0E0,0E0,0E0,0E0],"parents":[2147483647,0,0,1,1,2,2,3,3,4,4,5,5,6,6,7,7,8,8,9,9,10,10,11,11,12,12,13,13,14,14],"right_children":[2,4,6,8,10,12,14,16,18,20,22,24,26,28,30,-1,-1,-1,-1,-1,-1,-1,-1,-1,-1,-1,-1,-1,-1,-1,-1],"split_conditions":[2.2E1,1.9E1,9E0,1.99E1,2.378E3,4.9E1,1E-2,9.4E1,7E0,1.15E0,1.476E1,3E0,3.11E1,1E0,5.3E1,1.9986702E-2,-1.5797198E-1,1.06781125E-1,-5.739324E-2,-1.4493498E-1,2.0170218E-1,-3.831037E-2,2.950515E-1,-1.0189668E-1,-5.597724E-3,2.8918742E-4,1.7320784E-2,3.202155E-2,-9.880199E-3,3.3978805E-2,1.5042761E-1],"split_indices":[17,6,8,9,15,17,12,13,6,12,16,8,9,11,14,0,0,0,0,0,0,0,0,0,0,0,0,0,0,0,0],"split_type":[0,0,0,0,0,0,0,0,0,0,0,0,0,0,0,0,0,0,0,0,0,0,0,0,0,0,0,0,0,0,0],"sum_hessian":[9.558499E4,8.3351685E2,9.475148E4,7.1119006E2,1.2232679E2,8.935378E4,5.3976973E3,2.808258E2,4.3036426E2,1.0599672E2,1.6330069E1,2.0962121E4,6.8391664E4,4.2659844E3,1.1317129E3,2.5586052E2,2.496527E1,2.1838173E1,4.085261E2,1.0383402E2,2.1626964E0,1.400454E1,2.3255281E0,6.5493243E2,2.0307188E4,6.2856562E4,5.5351006E3,1.5451638E3,2.7208206E3,8.9877734E2,2.3293556E2],"tree_param":{"num_deleted":"0","num_feature":"20","num_nodes":"31","size_leaf_vector":"1"}},{"base_weights":[-3.6403697E-4,-7.1491266E-4,4.4936046E-1,1.7257176E-2,-8.883645E-3,8.098317E-2,8.46224E-1,1.0871155E-2,1.9698037E-1,-1.0354705E-1,-3.7207974E-3,-1.6276391E-1,5.97833E-1,4.0956435E-1,1.572031E0,3.5220291E-3,-1.6493651E-1,7.8382865E-2,-3.627344E-2,-3.9318815E-2,6.5179534E-2,-4.923391E-3,9.637928E-3,-1.2346984E-1,6.9826186E-2,3.7595883E-2,3.517209E-1,-2.0547985E-1,2.1306561E-1,5.438983E-1,7.365877E-2],"categories":[],"categories_nodes":[],"categories_segments":[],"categories_sizes":[],"default_left":[0,0,0,0,0,0,0,0,0,0,0,0,0,0,0,0,0,0,0,0,0,0,0,0,0,0,0,0,0,0,0],"id":45,"left_children":[1,3,5,7,9,11,13,15,17,19,21,23,25,27,29,-1,-1,-1,-1,-1,-1,-1,-1,-1,-1,-1,-1,-1,-1,-1,-1],"loss_changes":[1.5076476E1,1.4015692E1,1.0820821E1,3.4237675E1,3.2077934E1,5.103097E0,1.0686504E1,1.404232E1,2.0953289E1,2.999324E1,2.8315704E1,2.8301873E0,3.3682652E0,8.276624E0,3.7346344E0,0E0,0E0,0E0,0E0,0E0,0E0,0E0,0E0,0E0,0E0,0E0,0E0,0E0,0E0,0E0,0E0],"parents":[2147483647,0,0,1,1,2,2,3,3,4,4,5,5,6,6,7,7,8,8,9,9,10,10,11,11,12,12,13,13,14,14],"right_children":[2,4,6,8,10,12,14,16,18,20,22,24,26,28,30,-1,-1,-1,-1,-1,-1,-1,-1,-1,-1,-1,-1,-1,-1,-1,-1],"split_conditions":[1.14E2,6.4E1,1.5E1,5.3E1,4.3E1,1.524E3,6.26E0,1.3E2,8.2E-1,1E0,8.7E1,1.6E1,9.2E1,1E1,6E0,3.5220291E-3,-1.6493651E-1,7.8382865E-2,-3.627344E-2,-3.9318815E-2,6.5179534E-2,-4.923391E-3,9.637928E-3,-1.2346984E-1,6.9826186E-2,3.7595883E-2,3.517209E-1,-2.0547985E-1,2.1306561E-1,5.438983E-1,7.365877E-2],"split_indices":[13,13,4,14,14,15,16,17,12,11,17,6,14,6,7,0,0,0,0,0,0,0,0,0,0,0,0,0,0,0,0],"split_type":[0,0,0,0,0,0,0,0,0,0,0,0,0,0,0,0,0,0,0,0,0,0,0,0,0,0,0,0,0,0,0],"sum_hessian":[9.554021E4,9.546673E4,7.3484856E1,2.9832E4,6.563473E4,3.8734615E1,3.4750244E1,2.8809389E4,1.0226103E3,3.3935327E3,6.224119E4,2.6786942E1,1.1947674E1,2.2673634E1,1.20766115E1,2.8765785E4,4.3603794E1,8.5072363E2,1.718867E2,3.1260103E3,2.675226E2,4.5968227E4,1.6272966E4,1.6418339E1,1.0368602E1,7.22451E0,4.723163E0,4.6107163E0,1.8062916E1,9.90973E0,2.1668818E0],"tree_param":{"num_deleted":"0","num_feature":"20","num_nodes":"31","size_leaf_vector":"1"}},{"base_weights":[-2.9731015E-4,-1.1019355E-2,1.3557219E-2,-3.755295E-2,2.2049234E-3,1.4562008E-2,-3.3530727E-1,-4.1729417E-2,3.4862134E-1,4.585831E-2,-1.4680106E-2,1.3268753E-2,7.8123003E-1,-4.7319716E-1,1.538562E-1,-6.3289697E-3,-4.140273E-2,2.7799165E-1,6.125693E-2,6.180141E-3,4.6242233E-2,-8.063541E-3,2.0337231E-2,3.5188296E-3,6.953213E-2,3.272042E-2,3.138143E-1,-9.726359E-2,-2.561051E-1,-5.980077E-2,2.1019982E-1],"categories":[],"categories_nodes":[],"categories_segments":[],"categories_sizes":[],"default_left":[0,0,0,0,0,0,0,0,0,0,0,0,0,0,0,0,0,0,0,0,0,0,0,0,0,0,0,0,0,0,0],"id":46,"left_children":[1,3,5,7,9,11,13,15,17,19,21,23,25,27,29,-1,-1,-1,-1,-1,-1,-1,-1,-1,-1,-1,-1,-1,-1,-1,-1],"loss_changes":[1.4189558E1,1.8894688E1,1.4612774E1,2.8902214E1,2.6490183E1,4.1190704E1,8.148174E0,3.519883E1,1.581814E1,2.7411919E1,2.6072712E1,1.3950878E1,1.2338947E1,5.0314255E0,5.3699436E0,0E0,0E0,0E0,0E0,0E0,0E0,0E0,0E0,0E0,0E0,0E0,0E0,0E0,0E0,0E0,0E0],"parents":[2147483647,0,0,1,1,2,2,3,3,4,4,5,5,6,6,7,7,8,8,9,9,10,10,11,11,12,12,13,13,14,14],"right_children":[2,4,6,8,10,12,14,16,18,20,22,24,26,28,30,-1,-1,-1,-1,-1,-1,-1,-1,-1,-1,-1,-1,-1,-1,-1,-1],"split_conditions":[4E0,5E0,1.32E2,6.9E1,7E0,1.3E2,1.41E2,5.5E1,3.9E1,1.5E1,2E-1,1.23E2,1.2E1,6E0,1.7E1,-6.3289697E-3,-4.140273E-2,2.7799165E-1,6.125693E-2,6.180141E-3,4.6242233E-2,-8.063541E-3,2.0337231E-2,3.5188296E-3,6.953213E-2,3.272042E-2,3.138143E-1,-9.726359E-2,-2.561051E-1,-5.980077E-2,2.1019982E-1],"split_indices":[7,5,17,14,5,17,17,14,17,4,12,17,6,4,6,0,0,0,0,0,0,0,0,0,0,0,0,0,0,0,0],"split_type":[0,0,0,0,0,0,0,0,0,0,0,0,0,0,0,0,0,0,0,0,0,0,0,0,0,0,0,0,0,0,0],"sum_hessian":[9.551913E4,5.3847027E4,4.1672105E4,1.7910006E4,3.593702E4,4.1553383E4,1.1872254E2,1.7719266E4,1.9074158E2,1.0022871E4,2.591415E4,4.148442E4,6.896077E1,9.2640755E1,2.6081789E1,1.4593153E4,3.126111E3,3.705022E1,1.5369136E2,8.1281084E3,1.8947626E3,2.2575637E4,3.3385144E3,4.119526E4,2.8915814E2,1.9889347E1,4.9071426E1,6.7904015E1,2.473674E1,1.6232468E1,9.849321E0],"tree_param":{"num_deleted":"0","num_feature":"20","num_nodes":"31","size_leaf_vector":"1"}},{"base_weights":[-2.6428673E-4,1.9801669E-3,-7.216492E-2,-2.7360838E-2,7.160132E-3,-6.2156647E-2,-3.5042745E-1,-6.0537085E-3,-1.6241731E-1,-2.5834367E-3,5.5853624E-2,-1.04393594E-1,9.744036E-3,6.817944E-1,-3.9544448E-1,-1.2911231E-2,7.709808E-2,-6.848899E-2,6.5506175E-2,3.950755E-3,-1.0299141E-2,1.0341855E-2,6.008494E-2,-4.8981253E-2,-8.036371E-3,4.5230612E-2,-1.8389788E-2,3.2318836E-1,2.6831815E-2,-9.017277E-2,-2.1860786E-1],"categories":[],